{"learner":{"attributes":{"scikit_learn":"{\"_estimator_type\": \"classifier\"}"},"feature_names":["nose_x","nose_y","left_eye_x","left_eye_y","right_eye_x","right_eye_y","left_ear_x","left_ear_y","right_ear_x","right_ear_y","left_shoulder_x","left_shoulder_y","right_shoulder_x","right_shoulder_y","left_elbow_x","left_elbow_y","right_elbow_x","right_elbow_y","left_wrist_x","left_wrist_y","right_wrist_x","right_wrist_y"],"feature_types":["float","float","float","float","float","float","float","float","float","float","float","float","float","float","float","float","float","float","float","float","float","float"],"gradient_booster":{"model":{"gbtree_model_param":{"num_parallel_tree":"1","num_trees":"800"},"iteration_indptr":[0,4,8,12,16,20,24,28,32,36,40,44,48,52,56,60,64,68,72,76,80,84,88,92,96,100,104,108,112,116,120,124,128,132,136,140,144,148,152,156,160,164,168,172,176,180,184,188,192,196,200,204,208,212,216,220,224,228,232,236,240,244,248,252,256,260,264,268,272,276,280,284,288,292,296,300,304,308,312,316,320,324,328,332,336,340,344,348,352,356,360,364,368,372,376,380,384,388,392,396,400,404,408,412,416,420,424,428,432,436,440,444,448,452,456,460,464,468,472,476,480,484,488,492,496,500,504,508,512,516,520,524,528,532,536,540,544,548,552,556,560,564,568,572,576,580,584,588,592,596,600,604,608,612,616,620,624,628,632,636,640,644,648,652,656,660,664,668,672,676,680,684,688,692,696,700,704,708,712,716,720,724,728,732,736,740,744,748,752,756,760,764,768,772,776,780,784,788,792,796,800],"tree_info":[0,1,2,3,0,1,2,3,0,1,2,3,0,1,2,3,0,1,2,3,0,1,2,3,0,1,2,3,0,1,2,3,0,1,2,3,0,1,2,3,0,1,2,3,0,1,2,3,0,1,2,3,0,1,2,3,0,1,2,3,0,1,2,3,0,1,2,3,0,1,2,3,0,1,2,3,0,1,2,3,0,1,2,3,0,1,2,3,0,1,2,3,0,1,2,3,0,1,2,3,0,1,2,3,0,1,2,3,0,1,2,3,0,1,2,3,0,1,2,3,0,1,2,3,0,1,2,3,0,1,2,3,0,1,2,3,0,1,2,3,0,1,2,3,0,1,2,3,0,1,2,3,0,1,2,3,0,1,2,3,0,1,2,3,0,1,2,3,0,1,2,3,0,1,2,3,0,1,2,3,0,1,2,3,0,1,2,3,0,1,2,3,0,1,2,3,0,1,2,3,0,1,2,3,0,1,2,3,0,1,2,3,0,1,2,3,0,1,2,3,0,1,2,3,0,1,2,3,0,1,2,3,0,1,2,3,0,1,2,3,0,1,2,3,0,1,2,3,0,1,2,3,0,1,2,3,0,1,2,3,0,1,2,3,0,1,2,3,0,1,2,3,0,1,2,3,0,1,2,3,0,1,2,3,0,1,2,3,0,1,2,3,0,1,2,3,0,1,2,3,0,1,2,3,0,1,2,3,0,1,2,3,0,1,2,3,0,1,2,3,0,1,2,3,0,1,2,3,0,1,2,3,0,1,2,3,0,1,2,3,0,1,2,3,0,1,2,3,0,1,2,3,0,1,2,3,0,1,2,3,0,1,2,3,0,1,2,3,0,1,2,3,0,1,2,3,0,1,2,3,0,1,2,3,0,1,2,3,0,1,2,3,0,1,2,3,0,1,2,3,0,1,2,3,0,1,2,3,0,1,2,3,0,1,2,3,0,1,2,3,0,1,2,3,0,1,2,3,0,1,2,3,0,1,2,3,0,1,2,3,0,1,2,3,0,1,2,3,0,1,2,3,0,1,2,3,0,1,2,3,0,1,2,3,0,1,2,3,0,1,2,3,0,1,2,3,0,1,2,3,0,1,2,3,0,1,2,3,0,1,2,3,0,1,2,3,0,1,2,3,0,1,2,3,0,1,2,3,0,1,2,3,0,1,2,3,0,1,2,3,0,1,2,3,0,1,2,3,0,1,2,3,0,1,2,3,0,1,2,3,0,1,2,3,0,1,2,3,0,1,2,3,0,1,2,3,0,1,2,3,0,1,2,3,0,1,2,3,0,1,2,3,0,1,2,3,0,1,2,3,0,1,2,3,0,1,2,3,0,1,2,3,0,1,2,3,0,1,2,3,0,1,2,3,0,1,2,3,0,1,2,3,0,1,2,3,0,1,2,3,0,1,2,3,0,1,2,3,0,1,2,3,0,1,2,3,0,1,2,3,0,1,2,3,0,1,2,3,0,1,2,3,0,1,2,3,0,1,2,3,0,1,2,3,0,1,2,3,0,1,2,3,0,1,2,3,0,1,2,3,0,1,2,3,0,1,2,3,0,1,2,3,0,1,2,3,0,1,2,3,0,1,2,3,0,1,2,3,0,1,2,3,0,1,2,3,0,1,2,3,0,1,2,3,0,1,2,3,0,1,2,3,0,1,2,3,0,1,2,3,0,1,2,3,0,1,2,3,0,1,2,3,0,1,2,3,0,1,2,3,0,1,2,3,0,1,2,3,0,1,2,3,0,1,2,3,0,1,2,3,0,1,2,3,0,1,2,3,0,1,2,3,0,1,2,3,0,1,2,3],"trees":[{"base_weights":[1.0687023E-1,1.2727273E0,-4.4210526E-1,1.1764706E-2,1.5428571E-1,-5.9740257E-2,1.5384616E-1,-3.529412E-2,5.8823533E-2],"categories":[],"categories_nodes":[],"categories_segments":[],"categories_sizes":[],"default_left":[0,0,0,0,0,0,0,0,0],"id":0,"left_children":[1,3,5,-1,-1,-1,7,-1,-1],"loss_changes":[1.104312E1,1.534606E0,1.1909356E0,0E0,0E0,0E0,9.230769E-1,0E0,0E0],"parents":[2147483647,0,0,1,1,2,2,6,6],"right_children":[2,4,6,-1,-1,-1,8,-1,-1],"split_conditions":[6.2543905E-1,2.796643E-1,3.6423722E-1,1.1764706E-2,1.5428571E-1,-5.9740257E-2,1.5083486E-1,-3.529412E-2,5.8823533E-2],"split_indices":[6,20,20,0,0,0,12,0,0],"split_type":[0,0,0,0,0,0,0,0,0],"sum_hessian":[1.5375E1,4.5E0,1.0875E1,1.125E0,3.375E0,8.625E0,2.25E0,1.125E0,1.125E0],"tree_param":{"num_deleted":"0","num_feature":"22","num_nodes":"9","size_leaf_vector":"1"}},{"base_weights":[4.5801528E-2,1.5E-1,-3.9252338E-1,-6.0465116E-2,3.448276E-1,-3.529412E-2,8.0000006E-2],"categories":[],"categories_nodes":[],"categories_segments":[],"categories_sizes":[],"default_left":[0,0,0,0,0,0,0],"id":1,"left_children":[1,-1,3,-1,5,-1,-1],"loss_changes":[1.1026396E1,0E0,2.3005195E0,0E0,1.4336715E0,0E0,0E0],"parents":[2147483647,0,0,2,2,4,4],"right_children":[2,-1,4,-1,6,-1,-1],"split_conditions":[5.780749E-1,1.5E-1,3.7537238E-1,-6.0465116E-2,2.1783069E-1,-3.529412E-2,8.0000006E-2],"split_indices":[21,0,8,0,12,0,0],"split_type":[0,0,0,0,0,0,0],"sum_hessian":[1.5375E1,3E0,1.2375E1,9.75E0,2.625E0,1.125E0,1.5E0],"tree_param":{"num_deleted":"0","num_feature":"22","num_nodes":"7","size_leaf_vector":"1"}},{"base_weights":[-1.5267176E-2,-4.489796E-1,1.0243902E0,5.8823533E-2,-6.0674157E-2,-3.529412E-2,1.5E-1],"categories":[],"categories_nodes":[],"categories_segments":[],"categories_sizes":[],"default_left":[0,0,0,0,0,0,0],"id":2,"left_children":[1,3,5,-1,-1,-1,-1],"loss_changes":[7.8436203E0,2.3614123E0,3.8866568E0,0E0,0E0,0E0,0E0],"parents":[2147483647,0,0,1,1,2,2],"right_children":[2,4,6,-1,-1,-1,-1],"split_conditions":[9.92615E-1,1.7595322E-1,6.703956E-1,5.8823533E-2,-6.0674157E-2,-3.529412E-2,1.5E-1],"split_indices":[21,1,18,0,0,0,0],"split_type":[0,0,0,0,0,0,0],"sum_hessian":[1.5375E1,1.125E1,4.125E0,1.125E0,1.0125E1,1.125E0,3E0],"tree_param":{"num_deleted":"0","num_feature":"22","num_nodes":"7","size_leaf_vector":"1"}},{"base_weights":[-1.3740458E-1,-3.529412E-1,1.20000005E-1,9.565218E-2,-6.1538465E-2],"categories":[],"categories_nodes":[],"categories_segments":[],"categories_sizes":[],"default_left":[0,0,0,0,0],"id":3,"left_children":[1,3,-1,-1,-1],"loss_changes":[5.1437807E0,5.7005706E0,0E0,0E0,0E0],"parents":[2147483647,0,0,1,1],"right_children":[2,4,-1,-1,-1],"split_conditions":[3.7823662E-1,6.232445E-1,1.20000005E-1,9.565218E-2,-6.1538465E-2],"split_indices":[1,19,0,0,0],"split_type":[0,0,0,0,0],"sum_hessian":[1.5375E1,1.3875E1,1.5E0,1.875E0,1.2E1],"tree_param":{"num_deleted":"0","num_feature":"22","num_nodes":"5","size_leaf_vector":"1"}},{"base_weights":[9.889274E-2,1.1322633E0,-4.3017772E-1,1.1347133E-2,1.3528992E-1,-5.853918E-2,1.4223816E-1,5.589394E-2,-3.5075426E-2],"categories":[],"categories_nodes":[],"categories_segments":[],"categories_sizes":[],"default_left":[0,0,0,0,0,0,0,0,0],"id":4,"left_children":[1,3,5,-1,-1,-1,7,-1,-1],"loss_changes":[9.484016E0,1.1609273E0,1.1146367E0,0E0,0E0,0E0,8.7001866E-1,0E0,0E0],"parents":[2147483647,0,0,1,1,2,2,6,6],"right_children":[2,4,6,-1,-1,-1,8,-1,-1],"split_conditions":[6.2543905E-1,2.796643E-1,3.6423722E-1,1.1347133E-2,1.3528992E-1,-5.853918E-2,9.0294296E-1,5.589394E-2,-3.5075426E-2],"split_indices":[6,20,20,0,0,0,21,0,0],"split_type":[0,0,0,0,0,0,0,0,0],"sum_hessian":[1.5456038E1,4.847633E0,1.0608405E1,1.1325138E0,3.7151191E0,8.327645E0,2.2807603E0,1.1635242E0,1.117236E0],"tree_param":{"num_deleted":"0","num_feature":"22","num_nodes":"9","size_leaf_vector":"1"}},{"base_weights":[4.256979E-2,-5.907182E-2,9.059672E-1,1.4282364E-1,-4.2707033E-2],"categories":[],"categories_nodes":[],"categories_segments":[],"categories_sizes":[],"default_left":[0,0,0,0,0],"id":5,"left_children":[1,-1,3,-1,-1],"loss_changes":[9.495203E0,0E0,5.712047E0,0E0,0E0],"parents":[2147483647,0,0,2,2],"right_children":[2,-1,4,-1,-1],"split_conditions":[2.1783069E-1,-5.907182E-2,2.1977958E-1,1.4282364E-1,-4.2707033E-2],"split_indices":[12,0,20,0,0],"split_type":[0,0,0,0,0],"sum_hessian":[1.5386929E1,9.058493E0,6.328436E0,4.4956684E0,1.8327675E0],"tree_param":{"num_deleted":"0","num_feature":"22","num_nodes":"5","size_leaf_vector":"1"}},{"base_weights":[-1.5178436E-2,-4.3589193E-1,9.2016464E-1,5.7215877E-2,-5.95702E-2,-3.4349956E-2,1.3217261E-1],"categories":[],"categories_nodes":[],"categories_segments":[],"categories_sizes":[],"default_left":[0,0,0,0,0,0,0],"id":6,"left_children":[1,3,5,-1,-1,-1,-1],"loss_changes":[6.8289747E0,2.2652054E0,3.1887207E0,0E0,0E0,0E0,0E0],"parents":[2147483647,0,0,1,1,2,2],"right_children":[2,4,6,-1,-1,-1,-1],"split_conditions":[9.92615E-1,6.5710497E-1,6.703956E-1,5.7215877E-2,-5.95702E-2,-3.4349956E-2,1.3217261E-1],"split_indices":[21,15,18,0,0,0,0],"split_type":[0,0,0,0,0,0,0],"sum_hessian":[1.5334676E1,1.0945438E1,4.389237E0,1.1446933E0,9.800746E0,1.0933114E0,3.2959256E0],"tree_param":{"num_deleted":"0","num_feature":"22","num_nodes":"7","size_leaf_vector":"1"}},{"base_weights":[-1.2840605E-1,-3.401646E-1,1.0988406E-1,8.769166E-2,-6.0303975E-2],"categories":[],"categories_nodes":[],"categories_segments":[],"categories_sizes":[],"default_left":[0,0,0,0,0],"id":7,"left_children":[1,3,-1,-1,-1],"loss_changes":[4.5774837E0,5.1867685E0,0E0,0E0,0E0],"parents":[2147483647,0,0,1,1],"right_children":[2,4,-1,-1,-1],"split_conditions":[3.7823662E-1,6.232445E-1,1.0988406E-1,8.769166E-2,-6.0303975E-2],"split_indices":[1,19,0,0,0],"split_type":[0,0,0,0,0],"sum_hessian":[1.5175532E1,1.3558814E1,1.6167189E0,1.9934599E0,1.1565353E1],"tree_param":{"num_deleted":"0","num_feature":"22","num_nodes":"5","size_leaf_vector":"1"}},{"base_weights":[9.289716E-2,-5.7532728E-2,8.043782E-1,1.1975805E-1,-4.1730914E-2],"categories":[],"categories_nodes":[],"categories_segments":[],"categories_sizes":[],"default_left":[0,0,0,0,0],"id":8,"left_children":[1,-1,3,-1,-1],"loss_changes":[8.277562E0,0E0,4.524295E0,0E0,0E0],"parents":[2147483647,0,0,2,2],"right_children":[2,-1,4,-1,-1],"split_conditions":[2.743615E-1,-5.7532728E-2,9.0294296E-1,1.1975805E-1,-4.1730914E-2],"split_indices":[20,0,21,0,0],"split_type":[0,0,0,0,0],"sum_hessian":[1.54373255E1,8.059342E0,7.377983E0,5.596479E0,1.7815044E0],"tree_param":{"num_deleted":"0","num_feature":"22","num_nodes":"5","size_leaf_vector":"1"}},{"base_weights":[3.6834486E-2,-5.785377E-2,8.137508E-1,1.2604958E-1,-4.180345E-2],"categories":[],"categories_nodes":[],"categories_segments":[],"categories_sizes":[],"default_left":[0,0,0,0,0],"id":9,"left_children":[1,-1,3,-1,-1],"loss_changes":[8.285152E0,0E0,4.731033E0,0E0,0E0],"parents":[2147483647,0,0,2,2],"right_children":[2,-1,4,-1,-1],"split_conditions":[2.1783069E-1,-5.785377E-2,2.1977958E-1,1.2604958E-1,-4.180345E-2],"split_indices":[12,0,20,0,0],"split_type":[0,0,0,0,0],"sum_hessian":[1.534488E1,8.70514E0,6.63974E0,4.8554525E0,1.7842878E0],"tree_param":{"num_deleted":"0","num_feature":"22","num_nodes":"5","size_leaf_vector":"1"}},{"base_weights":[-1.4401725E-2,-4.218009E-1,8.301745E-1,5.43306E-2,-5.8332052E-2,-3.3631448E-2,1.1786646E-1],"categories":[],"categories_nodes":[],"categories_segments":[],"categories_sizes":[],"default_left":[0,0,0,0,0,0,0],"id":10,"left_children":[1,3,5,-1,-1,-1,-1],"loss_changes":[5.9263453E0,2.124489E0,2.6771023E0,0E0,0E0,0E0,0E0],"parents":[2147483647,0,0,1,1,2,2],"right_children":[2,4,6,-1,-1,-1,-1],"split_conditions":[9.92615E-1,3.777755E-1,6.703956E-1,5.43306E-2,-5.8332052E-2,-3.3631448E-2,1.1786646E-1],"split_indices":[21,11,18,0,0,0,0],"split_type":[0,0,0,0,0,0,0],"sum_hessian":[1.5206062E1,1.0595619E1,4.6104436E0,1.1801723E0,9.415446E0,1.0685756E0,3.5418682E0],"tree_param":{"num_deleted":"0","num_feature":"22","num_nodes":"7","size_leaf_vector":"1"}},{"base_weights":[-1.1910828E-1,-3.2671833E-1,1.005389E-1,8.14602E-2,-5.907939E-2],"categories":[],"categories_nodes":[],"categories_segments":[],"categories_sizes":[],"default_left":[0,0,0,0,0],"id":11,"left_children":[1,3,-1,-1,-1],"loss_changes":[4.0440097E0,4.757934E0,0E0,0E0,0E0],"parents":[2147483647,0,0,1,1],"right_children":[2,4,-1,-1,-1],"split_conditions":[3.7823662E-1,6.232445E-1,1.005389E-1,8.14602E-2,-5.907939E-2],"split_indices":[1,19,0,0,0],"split_type":[0,0,0,0,0],"sum_hessian":[1.4915273E1,1.31896E1,1.7256731E0,2.0866184E0,1.1102982E1],"tree_param":{"num_deleted":"0","num_feature":"22","num_nodes":"5","size_leaf_vector":"1"}},{"base_weights":[8.523007E-2,-5.6328546E-2,7.306682E-1,1.074691E-1,-4.0770736E-2],"categories":[],"categories_nodes":[],"categories_segments":[],"categories_sizes":[],"default_left":[0,0,0,0,0],"id":12,"left_children":[1,-1,3,-1,-1],"loss_changes":[7.261088E0,0E0,3.8205204E0,0E0,0E0],"parents":[2147483647,0,0,2,2],"right_children":[2,-1,4,-1,-1],"split_conditions":[2.743615E-1,-5.6328546E-2,9.0294296E-1,1.074691E-1,-4.0770736E-2],"split_indices":[20,0,21,0,0],"split_type":[0,0,0,0,0],"sum_hessian":[1.5363819E1,7.727129E0,7.6366897E0,5.90739E0,1.7292995E0],"tree_param":{"num_deleted":"0","num_feature":"22","num_nodes":"5","size_leaf_vector":"1"}},{"base_weights":[3.226152E-2,-5.664404E-2,7.3939914E-1,1.1285365E-1,-4.0730007E-2],"categories":[],"categories_nodes":[],"categories_segments":[],"categories_sizes":[],"default_left":[0,0,0,0,0],"id":13,"left_children":[1,-1,3,-1,-1],"loss_changes":[7.2739434E0,0E0,3.9658484E0,0E0,0E0],"parents":[2147483647,0,0,2,2],"right_children":[2,-1,4,-1,-1],"split_conditions":[2.1783069E-1,-5.664404E-2,2.1977958E-1,1.1285365E-1,-4.0730007E-2],"split_indices":[12,0,20,0,0],"split_type":[0,0,0,0,0],"sum_hessian":[1.5191995E1,8.334506E0,6.8574886E0,5.1318216E0,1.7256666E0],"tree_param":{"num_deleted":"0","num_feature":"22","num_nodes":"5","size_leaf_vector":"1"}},{"base_weights":[-1.3018543E-2,-4.0739524E-1,7.546683E-1,5.2492328E-2,-5.7125628E-2,-3.299486E-2,1.0642191E-1],"categories":[],"categories_nodes":[],"categories_segments":[],"categories_sizes":[],"default_left":[0,0,0,0,0,0,0],"id":14,"left_children":[1,3,5,-1,-1,-1,-1],"loss_changes":[5.149041E0,2.0130172E0,2.290985E0,0E0,0E0,0E0,0E0],"parents":[2147483647,0,0,1,1,2,2],"right_children":[2,4,6,-1,-1,-1,-1],"split_conditions":[9.92615E-1,6.5710497E-1,6.703956E-1,5.2492328E-2,-5.7125628E-2,-3.299486E-2,1.0642191E-1],"split_indices":[21,15,18,0,0,0,0],"split_type":[0,0,0,0,0,0,0],"sum_hessian":[1.4991635E1,1.0213876E1,4.7777596E0,1.1974261E0,9.01645E0,1.0461879E0,3.7315717E0],"tree_param":{"num_deleted":"0","num_feature":"22","num_nodes":"7","size_leaf_vector":"1"}},{"base_weights":[-1.095619E-1,-3.1312326E-1,9.257368E-2,7.570077E-2,-5.7847764E-2],"categories":[],"categories_nodes":[],"categories_segments":[],"categories_sizes":[],"default_left":[0,0,0,0,0],"id":15,"left_children":[1,3,-1,-1,-1],"loss_changes":[3.576971E0,4.351442E0,0E0,0E0,0E0],"parents":[2147483647,0,0,1,1],"right_children":[2,4,-1,-1,-1],"split_conditions":[3.7823662E-1,6.232445E-1,9.257368E-2,7.570077E-2,-5.7847764E-2],"split_indices":[1,19,0,0,0],"split_type":[0,0,0,0,0],"sum_hessian":[1.4597397E1,1.2781784E1,1.815613E0,2.1715324E0,1.0610251E1],"tree_param":{"num_deleted":"0","num_feature":"22","num_nodes":"5","size_leaf_vector":"1"}},{"base_weights":[7.842249E-2,8.604124E-1,-4.003612E-1,9.80949E-3,1.0053968E-1,-5.502371E-2,8.8548206E-2,-3.489804E-2,4.5180034E-2],"categories":[],"categories_nodes":[],"categories_segments":[],"categories_sizes":[],"default_left":[0,0,0,0,0,0,0,0,0],"id":16,"left_children":[1,3,5,-1,-1,-1,7,-1,-1],"loss_changes":[6.4107614E0,6.165242E-1,8.351176E-1,0E0,0E0,0E0,6.9476646E-1,0E0,0E0],"parents":[2147483647,0,0,1,1,2,2,6,6],"right_children":[2,4,6,-1,-1,-1,8,-1,-1],"split_conditions":[6.2543905E-1,2.796643E-1,3.6423722E-1,9.80949E-3,1.0053968E-1,-5.502371E-2,1.5083486E-1,-3.489804E-2,4.5180034E-2],"split_indices":[6,20,20,0,0,0,12,0,0],"split_type":[0,0,0,0,0,0,0,0,0],"sum_hessian":[1.5202513E1,5.4705195E0,9.731994E0,1.1420879E0,4.328431E0,7.3526044E0,2.3793893E0,1.0971668E0,1.2822225E0],"tree_param":{"num_deleted":"0","num_feature":"22","num_nodes":"9","size_leaf_vector":"1"}},{"base_weights":[2.787538E-2,-5.5491954E-2,6.779736E-1,1.02368854E-1,-3.966358E-2],"categories":[],"categories_nodes":[],"categories_segments":[],"categories_sizes":[],"default_left":[0,0,0,0,0],"id":17,"left_children":[1,-1,3,-1,-1],"loss_changes":[6.420463E0,0E0,3.3748472E0,0E0,0E0],"parents":[2147483647,0,0,2,2],"right_children":[2,-1,4,-1,-1],"split_conditions":[2.1783069E-1,-5.5491954E-2,2.1977958E-1,1.02368854E-1,-3.966358E-2],"split_indices":[12,0,20,0,0],"split_type":[0,0,0,0,0],"sum_hessian":[1.4953176E1,7.961932E0,6.9912434E0,5.325387E0,1.6658566E0],"tree_param":{"num_deleted":"0","num_feature":"22","num_nodes":"5","size_leaf_vector":"1"}},{"base_weights":[-1.1803673E-2,-3.934661E-1,6.915684E-1,4.9640916E-2,-5.5912197E-2,-3.2338895E-2,9.712786E-2],"categories":[],"categories_nodes":[],"categories_segments":[],"categories_sizes":[],"default_left":[0,0,0,0,0,0,0],"id":18,"left_children":[1,3,5,-1,-1,-1,-1],"loss_changes":[4.490395E0,1.873092E0,1.9861958E0,0E0,0E0,0E0,0E0],"parents":[2147483647,0,0,1,1,2,2],"right_children":[2,4,6,-1,-1,-1,-1],"split_conditions":[9.92615E-1,6.5710497E-1,6.703956E-1,4.9640916E-2,-5.5912197E-2,-3.2338895E-2,9.712786E-2],"split_indices":[21,15,18,0,0,0,0],"split_type":[0,0,0,0,0,0,0],"sum_hessian":[1.47134495E1,9.823591E0,4.8898582E0,1.2283696E0,8.5952215E0,1.0227063E0,3.8671517E0],"tree_param":{"num_deleted":"0","num_feature":"22","num_nodes":"7","size_leaf_vector":"1"}},{"base_weights":[-1.0037147E-1,-5.500955E-2,3.5529867E-1,9.317912E-2,-2.9031834E-1,-4.4626173E-2,1.1183877E-2],"categories":[],"categories_nodes":[],"categories_segments":[],"categories_sizes":[],"default_left":[0,0,0,0,0,0,0],"id":19,"left_children":[1,-1,3,-1,5,-1,-1],"loss_changes":[3.318935E0,0E0,3.314516E0,0E0,3.3967322E-1,0E0,0E0],"parents":[2147483647,0,0,2,2,4,4],"right_children":[2,-1,4,-1,6,-1,-1],"split_conditions":[7.921157E-1,-5.500955E-2,7.135029E-1,9.317912E-2,4.521194E-1,-4.4626173E-2,1.1183877E-2],"split_indices":[21,0,18,0,20,0,0],"split_type":[0,0,0,0,0,0,0],"sum_hessian":[1.4242037E1,7.0634933E0,7.1785436E0,3.5581226E0,3.620421E0,2.5297835E0,1.0906374E0],"tree_param":{"num_deleted":"0","num_feature":"22","num_nodes":"7","size_leaf_vector":"1"}},{"base_weights":[7.517461E-2,-5.4091185E-2,6.252118E-1,9.079349E-2,-3.910647E-2],"categories":[],"categories_nodes":[],"categories_segments":[],"categories_sizes":[],"default_left":[0,0,0,0,0],"id":20,"left_children":[1,-1,3,-1,-1],"loss_changes":[5.7429447E0,0E0,2.9094396E0,0E0,0E0],"parents":[2147483647,0,0,2,2],"right_children":[2,-1,4,-1,-1],"split_conditions":[2.743615E-1,-5.4091185E-2,9.0294296E-1,9.079349E-2,-3.910647E-2],"split_indices":[20,0,21,0,0],"split_type":[0,0,0,0,0],"sum_hessian":[1.4949341E1,7.05913E0,7.8902106E0,6.2563353E0,1.6338754E0],"tree_param":{"num_deleted":"0","num_feature":"22","num_nodes":"5","size_leaf_vector":"1"}},{"base_weights":[2.4381084E-2,-5.4416038E-2,6.2932354E-1,9.426119E-2,-3.8638107E-2],"categories":[],"categories_nodes":[],"categories_segments":[],"categories_sizes":[],"default_left":[0,0,0,0,0],"id":21,"left_children":[1,-1,3,-1,-1],"loss_changes":[5.723358E0,0E0,2.9237573E0,0E0,0E0],"parents":[2147483647,0,0,2,2],"right_children":[2,-1,4,-1,-1],"split_conditions":[2.1783069E-1,-5.4416038E-2,2.1977958E-1,9.426119E-2,-3.8638107E-2],"split_indices":[12,0,20,0,0],"split_type":[0,0,0,0,0],"sum_hessian":[1.4645131E1,7.6015043E0,7.0436263E0,5.4382052E0,1.6054211E0],"tree_param":{"num_deleted":"0","num_feature":"22","num_nodes":"5","size_leaf_vector":"1"}},{"base_weights":[-1.01073645E-2,-3.8094804E-1,6.4411706E-1,4.7750037E-2,-5.485443E-2,-2.983386E-3,8.756027E-2],"categories":[],"categories_nodes":[],"categories_segments":[],"categories_sizes":[],"default_left":[0,0,0,0,0,0,0],"id":22,"left_children":[1,3,5,-1,-1,-1,-1],"loss_changes":[3.9781733E0,1.7651136E0,9.524789E-1,0E0,0E0,0E0,0E0],"parents":[2147483647,0,0,1,1,2,2],"right_children":[2,4,6,-1,-1,-1,-1],"split_conditions":[9.92615E-1,1.7595322E-1,7.2262156E-1,4.7750037E-2,-5.485443E-2,-2.983386E-3,8.756027E-2],"split_indices":[21,1,18,0,0,0,0],"split_type":[0,0,0,0,0,0,0],"sum_hessian":[1.4385811E1,9.4480095E0,4.9378014E0,1.2412195E0,8.20679E0,1.4851203E0,3.452681E0],"tree_param":{"num_deleted":"0","num_feature":"22","num_nodes":"7","size_leaf_vector":"1"}},{"base_weights":[-9.542985E-2,-5.385397E-2,3.3469915E-1,8.565872E-2,-2.8025737E-1,-4.360655E-2,1.1134372E-2],"categories":[],"categories_nodes":[],"categories_segments":[],"categories_sizes":[],"default_left":[0,0,0,0,0,0,0],"id":23,"left_children":[1,-1,3,-1,5,-1,-1],"loss_changes":[3.0261295E0,0E0,2.8696735E0,0E0,3.2402465E-1,0E0,0E0],"parents":[2147483647,0,0,2,2,4,4],"right_children":[2,-1,4,-1,6,-1,-1],"split_conditions":[7.921157E-1,-5.385397E-2,7.135029E-1,8.565872E-2,2.703223E-1,-4.360655E-2,1.1134372E-2],"split_indices":[21,0,18,0,1,0,0],"split_type":[0,0,0,0,0,0,0],"sum_hessian":[1.3931605E1,6.7381067E0,7.1934986E0,3.6786544E0,3.5148444E0,2.4331934E0,1.0816509E0],"tree_param":{"num_deleted":"0","num_feature":"22","num_nodes":"7","size_leaf_vector":"1"}},{"base_weights":[6.938753E-2,-5.294901E-2,5.7764095E-1,9.128553E-2,-2.0610856E-1,9.75526E-3,-3.8395982E-2],"categories":[],"categories_nodes":[],"categories_segments":[],"categories_sizes":[],"default_left":[0,0,0,0,0,0,0],"id":24,"left_children":[1,-1,3,-1,5,-1,-1],"loss_changes":[5.068421E0,0E0,2.5374212E0,0E0,2.2618774E-1,0E0,0E0],"parents":[2147483647,0,0,2,2,4,4],"right_children":[2,-1,4,-1,6,-1,-1],"split_conditions":[2.743615E-1,-5.294901E-2,6.3907534E-1,9.128553E-2,4.521194E-1,9.75526E-3,-3.8395982E-2],"split_indices":[20,0,6,0,20,0,0],"split_type":[0,0,0,0,0,0,0],"sum_hessian":[1.4646696E1,6.7047133E0,7.9419827E0,5.447378E0,2.4946046E0,1.0881698E0,1.4064348E0],"tree_param":{"num_deleted":"0","num_feature":"22","num_nodes":"7","size_leaf_vector":"1"}},{"base_weights":[2.1683779E-2,-5.3369094E-2,5.888547E-1,8.7610364E-2,-3.7562784E-2],"categories":[],"categories_nodes":[],"categories_segments":[],"categories_sizes":[],"default_left":[0,0,0,0,0],"id":25,"left_children":[1,-1,3,-1,-1],"loss_changes":[5.125009E0,0E0,2.5541794E0,0E0,0E0],"parents":[2147483647,0,0,2,2],"right_children":[2,-1,4,-1,-1],"split_conditions":[2.1783069E-1,-5.3369094E-2,2.1977958E-1,8.7610364E-2,-3.7562784E-2],"split_indices":[12,0,20,0,0],"split_type":[0,0,0,0,0],"sum_hessian":[1.4272568E1,7.2411003E0,7.031468E0,5.4884825E0,1.5429852E0],"tree_param":{"num_deleted":"0","num_feature":"22","num_nodes":"5","size_leaf_vector":"1"}},{"base_weights":[-6.989748E-3,-3.6815578E-1,6.0298014E-1,4.5474697E-2,-5.3760197E-2,-2.8342356E-3,8.164555E-2],"categories":[],"categories_nodes":[],"categories_segments":[],"categories_sizes":[],"default_left":[0,0,0,0,0,0,0],"id":26,"left_children":[1,3,5,-1,-1,-1,-1],"loss_changes":[3.529872E0,1.6461034E0,8.268256E-1,0E0,0E0,0E0,0E0],"parents":[2147483647,0,0,1,1,2,2],"right_children":[2,4,6,-1,-1,-1,-1],"split_conditions":[9.92615E-1,3.777755E-1,7.2262156E-1,4.5474697E-2,-5.3760197E-2,-2.8342356E-3,8.164555E-2],"split_indices":[21,11,18,0,0,0,0],"split_type":[0,0,0,0,0,0,0],"sum_hessian":[1.4015322E1,9.052017E0,4.9633055E0,1.2581552E0,7.7938614E0,1.473342E0,3.4899633E0],"tree_param":{"num_deleted":"0","num_feature":"22","num_nodes":"7","size_leaf_vector":"1"}},{"base_weights":[-8.9949876E-2,-5.273387E-2,3.1725958E-1,7.976412E-2,-2.716817E-1,1.153922E-2,-4.2828254E-2],"categories":[],"categories_nodes":[],"categories_segments":[],"categories_sizes":[],"default_left":[0,0,0,0,0,0,0],"id":27,"left_children":[1,-1,3,-1,5,-1,-1],"loss_changes":[2.7649822E0,0E0,2.530207E0,0E0,3.1731382E-1,0E0,0E0],"parents":[2147483647,0,0,2,2,4,4],"right_children":[2,-1,4,-1,6,-1,-1],"split_conditions":[7.921157E-1,-5.273387E-2,7.135029E-1,7.976412E-2,1.4956886E-1,1.153922E-2,-4.2828254E-2],"split_indices":[21,0,18,0,12,0,0],"split_type":[0,0,0,0,0,0,0],"sum_hessian":[1.3584784E1,6.4074526E0,7.177331E0,3.7578235E0,3.4195077E0,1.0607562E0,2.3587515E0],"tree_param":{"num_deleted":"0","num_feature":"22","num_nodes":"7","size_leaf_vector":"1"}},{"base_weights":[6.492143E-2,-5.1874723E-2,5.3892416E-1,7.81428E-1,-3.758645E-2,2.8065998E-2,8.528702E-2],"categories":[],"categories_nodes":[],"categories_segments":[],"categories_sizes":[],"default_left":[0,0,0,0,0,0,0],"id":28,"left_children":[1,-1,3,5,-1,-1,-1],"loss_changes":[4.5092583E0,0E0,2.274131E0,2.4709225E-2,0E0,0E0,0E0],"parents":[2147483647,0,0,2,2,3,3],"right_children":[2,-1,4,6,-1,-1,-1],"split_conditions":[2.743615E-1,-5.1874723E-2,9.0294296E-1,1.4674214E-1,-3.758645E-2,2.8065998E-2,8.528702E-2],"split_indices":[20,0,21,12,0,0,0],"split_type":[0,0,0,0,0,0,0],"sum_hessian":[1.4288386E1,6.361134E0,7.927252E0,6.3813777E0,1.5458741E0,1.4120717E0,4.969306E0],"tree_param":{"num_deleted":"0","num_feature":"22","num_nodes":"7","size_leaf_vector":"1"}},{"base_weights":[1.8649908E-2,-5.23775E-2,5.5376667E-1,8.189535E-2,-3.6431998E-2],"categories":[],"categories_nodes":[],"categories_segments":[],"categories_sizes":[],"default_left":[0,0,0,0,0],"id":29,"left_children":[1,-1,3,-1,-1],"loss_changes":[4.6011415E0,0E0,2.2369943E0,0E0,0E0],"parents":[2147483647,0,0,2,2],"right_children":[2,-1,4,-1,-1],"split_conditions":[2.1783069E-1,-5.23775E-2,2.1977958E-1,8.189535E-2,-3.6431998E-2],"split_indices":[12,0,20,0,0],"split_type":[0,0,0,0,0],"sum_hessian":[1.3852487E1,6.8897934E0,6.9626927E0,5.4860425E0,1.4766505E0],"tree_param":{"num_deleted":"0","num_feature":"22","num_nodes":"5","size_leaf_vector":"1"}},{"base_weights":[-4.12878E-3,-3.5605952E-1,5.674649E-1,4.335336E-2,-5.272324E-2,-3.1550915E-3,7.690467E-2],"categories":[],"categories_nodes":[],"categories_segments":[],"categories_sizes":[],"default_left":[0,0,0,0,0,0,0],"id":30,"left_children":[1,3,5,-1,-1,-1,-1],"loss_changes":[3.1426523E0,1.5344585E0,7.434702E-1,0E0,0E0,0E0,0E0],"parents":[2147483647,0,0,1,1,2,2],"right_children":[2,4,6,-1,-1,-1,-1],"split_conditions":[9.92615E-1,1.7595322E-1,1.0015856E0,4.335336E-2,-5.272324E-2,-3.1550915E-3,7.690467E-2],"split_indices":[21,1,19,0,0,0,0],"split_type":[0,0,0,0,0,0,0],"sum_hessian":[1.361812E1,8.661997E0,4.956124E0,1.2701719E0,7.3918247E0,1.4602782E0,3.4958456E0],"tree_param":{"num_deleted":"0","num_feature":"22","num_nodes":"7","size_leaf_vector":"1"}},{"base_weights":[-8.505317E-2,-5.1624168E-2,2.998781E-1,6.4469665E-1,-4.1711874E-2,8.322437E-2,1.715397E-2],"categories":[],"categories_nodes":[],"categories_segments":[],"categories_sizes":[],"default_left":[0,0,0,0,0,0,0],"id":31,"left_children":[1,-1,3,5,-1,-1,-1],"loss_changes":[2.5144897E0,0E0,2.282356E0,3.800912E-1,0E0,0E0,0E0],"parents":[2147483647,0,0,2,2,3,3],"right_children":[2,-1,4,6,-1,-1,-1],"split_conditions":[7.921157E-1,-5.1624168E-2,9.6585464E-1,1.735627E-1,-4.1711874E-2,8.322437E-2,1.715397E-2],"split_indices":[21,0,19,12,0,0,0],"split_type":[0,0,0,0,0,0,0],"sum_hessian":[1.3216832E1,6.0729585E0,7.143873E0,4.8920317E0,2.2518413E0,2.959891E0,1.9321407E0],"tree_param":{"num_deleted":"0","num_feature":"22","num_nodes":"7","size_leaf_vector":"1"}},{"base_weights":[6.1325647E-2,6.6090775E-1,-3.6398038E-1,9.075783E-3,7.566121E-2,-5.0814398E-2,4.8166048E-2,-3.297837E-2,3.5745867E-2],"categories":[],"categories_nodes":[],"categories_segments":[],"categories_sizes":[],"default_left":[0,0,0,0,0,0,0,0,0],"id":32,"left_children":[1,3,5,-1,-1,-1,7,-1,-1],"loss_changes":[4.0374627E0,2.8786182E-1,5.8034825E-1,0E0,0E0,0E0,5.0806713E-1,0E0,0E0],"parents":[2147483647,0,0,1,1,2,2,6,6],"right_children":[2,4,6,-1,-1,-1,8,-1,-1],"split_conditions":[6.2543905E-1,2.796643E-1,3.6423722E-1,9.075783E-3,7.566121E-2,-5.0814398E-2,1.5083486E-1,-3.297837E-2,3.5745867E-2],"split_indices":[6,20,20,0,0,0,12,0,0],"split_type":[0,0,0,0,0,0,0,0,0],"sum_hessian":[1.3889482E1,5.5339484E0,8.355533E0,1.0754383E0,4.4585104E0,6.017698E0,2.3378348E0,1.0223234E0,1.3155113E0],"tree_param":{"num_deleted":"0","num_feature":"22","num_nodes":"9","size_leaf_vector":"1"}},{"base_weights":[1.5569623E-2,-5.138998E-2,5.209771E-1,7.7081494E-2,-3.5604138E-2],"categories":[],"categories_nodes":[],"categories_segments":[],"categories_sizes":[],"default_left":[0,0,0,0,0],"id":33,"left_children":[1,-1,3,-1,-1],"loss_changes":[4.1218543E0,0E0,1.9978387E0,0E0,0E0],"parents":[2147483647,0,0,2,2],"right_children":[2,-1,4,-1,-1],"split_conditions":[2.1783069E-1,-5.138998E-2,2.1977958E-1,7.7081494E-2,-3.5604138E-2],"split_indices":[12,0,20,0,0],"split_type":[0,0,0,0,0],"sum_hessian":[1.3402676E1,6.537318E0,6.865357E0,5.4374714E0,1.4278858E0],"tree_param":{"num_deleted":"0","num_feature":"22","num_nodes":"5","size_leaf_vector":"1"}},{"base_weights":[-2.238984E-3,-3.4432992E-1,5.3334E-1,4.190139E-2,-5.1750142E-2,-3.7020002E-3,7.264679E-2],"categories":[],"categories_nodes":[],"categories_segments":[],"categories_sizes":[],"default_left":[0,0,0,0,0,0,0],"id":34,"left_children":[1,3,5,-1,-1,-1,-1],"loss_changes":[2.7854068E0,1.4426593E0,6.797962E-1,0E0,0E0,0E0,0E0],"parents":[2147483647,0,0,1,1,2,2],"right_children":[2,4,6,-1,-1,-1,-1],"split_conditions":[9.92615E-1,1.350448E-1,7.2262156E-1,4.190139E-2,-5.1750142E-2,-3.7020002E-3,7.264679E-2],"split_indices":[21,3,18,0,0,0,0],"split_type":[0,0,0,0,0,0,0],"sum_hessian":[1.3200461E1,8.2732E0,4.927262E0,1.2672938E0,7.005906E0,1.4508413E0,3.4764204E0],"tree_param":{"num_deleted":"0","num_feature":"22","num_nodes":"7","size_leaf_vector":"1"}},{"base_weights":[-7.99665E-2,-5.059166E-2,2.867717E-1,6.0884726E-1,-4.0714066E-2,7.823934E-2,1.6489733E-2],"categories":[],"categories_nodes":[],"categories_segments":[],"categories_sizes":[],"default_left":[0,0,0,0,0,0,0],"id":35,"left_children":[1,-1,3,5,-1,-1,-1],"loss_changes":[2.304755E0,0E0,2.0508451E0,3.2637048E-1,0E0,0E0,0E0],"parents":[2147483647,0,0,2,2,3,3],"right_children":[2,-1,4,6,-1,-1,-1],"split_conditions":[7.921157E-1,-5.059166E-2,9.6585464E-1,1.735627E-1,-4.0714066E-2,7.823934E-2,1.6489733E-2],"split_indices":[21,0,19,12,0,0,0],"split_type":[0,0,0,0,0,0,0],"sum_hessian":[1.2825251E1,5.7580404E0,7.06721E0,4.9105797E0,2.1566305E0,2.9823806E0,1.9281992E0],"tree_param":{"num_deleted":"0","num_feature":"22","num_nodes":"7","size_leaf_vector":"1"}},{"base_weights":[5.899848E-2,-4.9905054E-2,4.7990128E-1,6.9891214E-1,-3.6256775E-2,2.4614017E-2,7.632832E-2],"categories":[],"categories_nodes":[],"categories_segments":[],"categories_sizes":[],"default_left":[0,0,0,0,0,0,0],"id":36,"left_children":[1,-1,3,5,-1,-1,-1],"loss_changes":[3.6404152E0,0E0,1.8703675E0,2.479887E-2,0E0,0E0,0E0],"parents":[2147483647,0,0,2,2,3,3],"right_children":[2,-1,4,6,-1,-1,-1],"split_conditions":[2.743615E-1,-4.9905054E-2,9.0294296E-1,1.4674214E-1,-3.6256775E-2,2.4614017E-2,7.632832E-2],"split_indices":[20,0,21,12,0,0,0],"split_type":[0,0,0,0,0,0,0],"sum_hessian":[1.3479122E1,5.7155547E0,7.763568E0,6.2969847E0,1.466583E0,1.3842492E0,4.9127355E0],"tree_param":{"num_deleted":"0","num_feature":"22","num_nodes":"7","size_leaf_vector":"1"}},{"base_weights":[1.2033306E-2,-5.0462794E-2,4.919128E-1,7.2899885E-2,-3.479743E-2],"categories":[],"categories_nodes":[],"categories_segments":[],"categories_sizes":[],"default_left":[0,0,0,0,0],"id":37,"left_children":[1,-1,3,-1,-1],"loss_changes":[3.7018971E0,0E0,1.7925752E0,0E0,0E0],"parents":[2147483647,0,0,2,2],"right_children":[2,-1,4,-1,-1],"split_conditions":[2.1783069E-1,-5.0462794E-2,2.1977958E-1,7.2899885E-2,-3.479743E-2],"split_indices":[12,0,20,0,0],"split_type":[0,0,0,0,0],"sum_hessian":[1.2929708E1,6.2014055E0,6.7283025E0,5.3500896E0,1.378213E0],"tree_param":{"num_deleted":"0","num_feature":"22","num_nodes":"5","size_leaf_vector":"1"}},{"base_weights":[-3.6646132E-4,-3.3735415E-1,5.0848824E-1,-5.1399436E-2,4.211649E-2,7.0150994E-2,-5.156544E-3],"categories":[],"categories_nodes":[],"categories_segments":[],"categories_sizes":[],"default_left":[0,0,0,0,0,0,0],"id":38,"left_children":[1,3,5,-1,-1,-1,-1],"loss_changes":[2.533348E0,1.4072125E0,6.724833E-1,0E0,0E0,0E0,0E0],"parents":[2147483647,0,0,1,1,2,2],"right_children":[2,4,6,-1,-1,-1,-1],"split_conditions":[1.0007706E0,8.362713E-1,3.6304176E-1,-5.1399436E-2,4.211649E-2,7.0150994E-2,-5.156544E-3],"split_indices":[19,18,8,0,0,0,0],"split_type":[0,0,0,0,0,0,0],"sum_hessian":[1.2773257E1,7.8870873E0,4.8861704E0,6.6587915E0,1.2282956E0,3.4459522E0,1.4402181E0],"tree_param":{"num_deleted":"0","num_feature":"22","num_nodes":"7","size_leaf_vector":"1"}},{"base_weights":[-7.573412E-2,-4.9618628E-2,2.74419E-1,6.7213975E-2,-2.5574383E-1,-4.0523913E-2,1.049346E-2],"categories":[],"categories_nodes":[],"categories_segments":[],"categories_sizes":[],"default_left":[0,0,0,0,0,0,0],"id":39,"left_children":[1,-1,3,-1,5,-1,-1],"loss_changes":[2.1127987E0,0E0,1.852293E0,0E0,2.657681E-1,0E0,0E0],"parents":[2147483647,0,0,2,2,4,4],"right_children":[2,-1,4,-1,6,-1,-1],"split_conditions":[7.921157E-1,-4.9618628E-2,7.135029E-1,6.7213975E-2,6.1208016E-1,-4.0523913E-2,1.049346E-2],"split_indices":[21,0,18,0,11,0,0],"split_type":[0,0,0,0,0,0,0],"sum_hessian":[1.24261675E1,5.456786E0,6.969381E0,3.829069E0,3.140312E0,2.132768E0,1.0075442E0],"tree_param":{"num_deleted":"0","num_feature":"22","num_nodes":"7","size_leaf_vector":"1"}},{"base_weights":[5.5305887E-2,-4.892617E-2,4.5269972E-1,6.603293E-1,-3.5410516E-2,2.3199601E-2,7.213345E-2],"categories":[],"categories_nodes":[],"categories_segments":[],"categories_sizes":[],"default_left":[0,0,0,0,0,0,0],"id":40,"left_children":[1,-1,3,5,-1,-1,-1],"loss_changes":[3.2556925E0,0E0,1.6786743E0,2.1024227E-2,0E0,0E0,0E0],"parents":[2147483647,0,0,2,2,3,3],"right_children":[2,-1,4,6,-1,-1,-1],"split_conditions":[2.743615E-1,-4.892617E-2,9.0294296E-1,1.4674214E-1,-3.5410516E-2,2.3199601E-2,7.213345E-2],"split_indices":[20,0,21,12,0,0,0],"split_type":[0,0,0,0,0,0,0],"sum_hessian":[1.3020771E1,5.3956633E0,7.6251082E0,6.2088294E0,1.4162791E0,1.3728176E0,4.836012E0],"tree_param":{"num_deleted":"0","num_feature":"22","num_nodes":"7","size_leaf_vector":"1"}},{"base_weights":[1.0477264E-2,-4.9587976E-2,4.702806E-1,6.95345E-2,-3.3807326E-2],"categories":[],"categories_nodes":[],"categories_segments":[],"categories_sizes":[],"default_left":[0,0,0,0,0],"id":41,"left_children":[1,-1,3,-1,-1],"loss_changes":[3.3637168E0,0E0,1.6104969E0,0E0,0E0],"parents":[2147483647,0,0,2,2],"right_children":[2,-1,4,-1,-1],"split_conditions":[2.1783069E-1,-4.9587976E-2,2.1977958E-1,6.95345E-2,-3.3807326E-2],"split_indices":[12,0,20,0,0],"split_type":[0,0,0,0,0],"sum_hessian":[1.2445804E1,5.885716E0,6.560087E0,5.240744E0,1.3193433E0],"tree_param":{"num_deleted":"0","num_feature":"22","num_nodes":"5","size_leaf_vector":"1"}},{"base_weights":[1.9512279E-3,-3.2676175E-1,4.8460212E-1,-5.0428968E-2,3.992095E-2,6.666711E-2,-4.862176E-3],"categories":[],"categories_nodes":[],"categories_segments":[],"categories_sizes":[],"default_left":[0,0,0,0,0,0,0],"id":42,"left_children":[1,3,5,-1,-1,-1,-1],"loss_changes":[2.2737684E0,1.3005261E0,5.959501E-1,0E0,0E0,0E0,0E0],"parents":[2147483647,0,0,1,1,2,2],"right_children":[2,4,6,-1,-1,-1,-1],"split_conditions":[1.0007706E0,8.362713E-1,3.6304176E-1,-5.0428968E-2,3.992095E-2,6.666711E-2,-4.862176E-3],"split_indices":[19,18,8,0,0,0,0],"split_type":[0,0,0,0,0,0,0],"sum_hessian":[1.2333569E1,7.528924E0,4.8046446E0,6.29493E0,1.233994E0,3.3951185E0,1.4095262E0],"tree_param":{"num_deleted":"0","num_feature":"22","num_nodes":"7","size_leaf_vector":"1"}},{"base_weights":[-7.2412774E-2,-4.8630945E-2,2.609314E-1,5.4719126E-1,-3.893539E-2,7.0395365E-2,1.44536365E-2],"categories":[],"categories_nodes":[],"categories_segments":[],"categories_sizes":[],"default_left":[0,0,0,0,0,0,0],"id":43,"left_children":[1,-1,3,5,-1,-1,-1],"loss_changes":[1.9223269E0,0E0,1.6759756E0,2.6892996E-1,0E0,0E0,0E0],"parents":[2147483647,0,0,2,2,3,3],"right_children":[2,-1,4,6,-1,-1,-1],"split_conditions":[7.921157E-1,-4.8630945E-2,9.6585464E-1,1.735627E-1,-3.893539E-2,7.0395365E-2,1.44536365E-2],"split_indices":[21,0,19,12,0,0,0],"split_type":[0,0,0,0,0,0,0],"sum_hessian":[1.2013213E1,5.1543884E0,6.8588247E0,4.872469E0,1.9863559E0,2.9684901E0,1.9039786E0],"tree_param":{"num_deleted":"0","num_feature":"22","num_nodes":"7","size_leaf_vector":"1"}},{"base_weights":[5.2313954E-2,5.70209E-1,-3.4073815E-1,8.17004E-3,6.4929456E-2,-4.8059087E-2,3.0277295E-2,-1.8262282E-3,6.722057E-3],"categories":[],"categories_nodes":[],"categories_segments":[],"categories_sizes":[],"default_left":[0,0,0,0,0,0,0,0,0],"id":44,"left_children":[1,3,5,-1,-1,-1,7,-1,-1],"loss_changes":[2.9529953E0,1.8731523E-1,4.4681352E-1,0E0,0E0,0E0,7.004109E-3,0E0,0E0],"parents":[2147483647,0,0,1,1,2,2,6,6],"right_children":[2,4,6,-1,-1,-1,8,-1,-1],"split_conditions":[6.2543905E-1,2.796643E-1,3.6423722E-1,8.17004E-3,6.4929456E-2,-4.8059087E-2,7.2108495E-1,-1.8262282E-3,6.722057E-3],"split_indices":[6,20,20,0,0,0,6,0,0],"split_type":[0,0,0,0,0,0,0,0,0],"sum_hessian":[1.2552304E1,5.2215457E0,7.330758E0,1.010818E0,4.2107277E0,5.109437E0,2.2213209E0,1.1785271E0,1.0427939E0],"tree_param":{"num_deleted":"0","num_feature":"22","num_nodes":"9","size_leaf_vector":"1"}},{"base_weights":[8.628528E-3,-4.872266E-2,4.4946733E-1,6.649803E-2,-3.293949E-2],"categories":[],"categories_nodes":[],"categories_segments":[],"categories_sizes":[],"default_left":[0,0,0,0,0],"id":45,"left_children":[1,-1,3,-1,-1],"loss_changes":[3.0500371E0,0E0,1.4571607E0,0E0,0E0],"parents":[2147483647,0,0,2,2],"right_children":[2,-1,4,-1,-1],"split_conditions":[2.1783069E-1,-4.872266E-2,2.1977958E-1,6.649803E-2,-3.293949E-2],"split_indices":[12,0,20,0,0],"split_type":[0,0,0,0,0],"sum_hessian":[1.1951262E1,5.5751324E0,6.3761306E0,5.1087446E0,1.2673858E0],"tree_param":{"num_deleted":"0","num_feature":"22","num_nodes":"5","size_leaf_vector":"1"}},{"base_weights":[3.582965E-3,-3.1476706E-1,4.6512452E-1,3.7434366E-2,-4.9141105E-2,-3.5084158E-3,6.2929E-2],"categories":[],"categories_nodes":[],"categories_segments":[],"categories_sizes":[],"default_left":[0,0,0,0,0,0,0],"id":46,"left_children":[1,3,5,-1,-1,-1,-1],"loss_changes":[2.0390677E0,1.1844981E0,4.8699915E-1,0E0,0E0,0E0,0E0],"parents":[2147483647,0,0,1,1,2,2],"right_children":[2,4,6,-1,-1,-1,-1],"split_conditions":[9.92615E-1,6.5710497E-1,7.2262156E-1,3.7434366E-2,-4.9141105E-2,-3.5084158E-3,6.2929E-2],"split_indices":[21,15,18,0,0,0,0],"split_type":[0,0,0,0,0,0,0],"sum_hessian":[1.1881229E1,7.2195363E0,4.661693E0,1.2446804E0,5.974856E0,1.3461843E0,3.3155088E0],"tree_param":{"num_deleted":"0","num_feature":"22","num_nodes":"7","size_leaf_vector":"1"}},{"base_weights":[-6.887349E-2,-4.767271E-2,2.4969819E-1,5.19845E-1,-3.7982456E-2,6.680595E-2,1.3833067E-2],"categories":[],"categories_nodes":[],"categories_segments":[],"categories_sizes":[],"default_left":[0,0,0,0,0,0,0],"id":47,"left_children":[1,-1,3,5,-1,-1,-1],"loss_changes":[1.7544128E0,0E0,1.5108515E0,2.3703337E-1,0E0,0E0,0E0],"parents":[2147483647,0,0,2,2,3,3],"right_children":[2,-1,4,6,-1,-1,-1],"split_conditions":[7.921157E-1,-4.767271E-2,9.6585464E-1,1.735627E-1,-3.7982456E-2,6.680595E-2,1.3833067E-2],"split_indices":[21,0,19,12,0,0,0],"split_type":[0,0,0,0,0,0,0],"sum_hessian":[1.1586524E1,4.8635187E0,6.7230053E0,4.8261747E0,1.8968306E0,2.9349165E0,1.8912582E0],"tree_param":{"num_deleted":"0","num_feature":"22","num_nodes":"7","size_leaf_vector":"1"}},{"base_weights":[5.0721906E-2,-4.7149733E-2,4.1099814E-1,6.0461044E-1,-3.408985E-2,2.0073226E-2,6.6337176E-2],"categories":[],"categories_nodes":[],"categories_segments":[],"categories_sizes":[],"default_left":[0,0,0,0,0,0,0],"id":48,"left_children":[1,-1,3,5,-1,-1,-1],"loss_changes":[2.661664E0,0E0,1.4138591E0,3.1970263E-2,0E0,0E0,0E0],"parents":[2147483647,0,0,2,2,3,3],"right_children":[2,-1,4,6,-1,-1,-1],"split_conditions":[2.743615E-1,-4.7149733E-2,9.0294296E-1,6.3504046E-1,-3.408985E-2,2.0073226E-2,6.6337176E-2],"split_indices":[20,0,21,19,0,0,0],"split_type":[0,0,0,0,0,0,0],"sum_hessian":[1.2117028E1,4.8207116E0,7.296316E0,5.9580207E0,1.3382955E0,1.3176452E0,4.6403756E0],"tree_param":{"num_deleted":"0","num_feature":"22","num_nodes":"7","size_leaf_vector":"1"}},{"base_weights":[5.1895464E-3,-4.788725E-2,4.281311E-1,6.36476E-2,-3.220585E-2],"categories":[],"categories_nodes":[],"categories_segments":[],"categories_sizes":[],"default_left":[0,0,0,0,0],"id":49,"left_children":[1,-1,3,-1,-1],"loss_changes":[2.7534723E0,0E0,1.3258468E0,0E0,0E0],"parents":[2147483647,0,0,2,2],"right_children":[2,-1,4,-1,-1],"split_conditions":[2.1783069E-1,-4.788725E-2,2.1977958E-1,6.36476E-2,-3.220585E-2],"split_indices":[12,0,20,0,0],"split_type":[0,0,0,0,0],"sum_hessian":[1.1447871E1,5.27655E0,6.171322E0,4.9485703E0,1.2227516E0],"tree_param":{"num_deleted":"0","num_feature":"22","num_nodes":"5","size_leaf_vector":"1"}},{"base_weights":[4.805869E-3,-3.0887753E-1,4.4833452E-1,-4.876339E-2,3.6719937E-2,6.095912E-2,-4.1911616E-3],"categories":[],"categories_nodes":[],"categories_segments":[],"categories_sizes":[],"default_left":[0,0,0,0,0,0,0],"id":50,"left_children":[1,3,5,-1,-1,-1,-1],"loss_changes":[1.8683201E0,1.1307596E0,4.6498823E-1,0E0,0E0,0E0,0E0],"parents":[2147483647,0,0,1,1,2,2],"right_children":[2,4,6,-1,-1,-1,-1],"split_conditions":[1.0007706E0,8.362713E-1,3.6304176E-1,-4.876339E-2,3.6719937E-2,6.095912E-2,-4.1911616E-3],"split_indices":[19,18,8,0,0,0,0],"split_type":[0,0,0,0,0,0,0],"sum_hessian":[1.1433478E1,6.874859E0,4.558619E0,5.657684E0,1.2171749E0,3.2471085E0,1.3115107E0],"tree_param":{"num_deleted":"0","num_feature":"22","num_nodes":"7","size_leaf_vector":"1"}},{"base_weights":[-6.482365E-2,-4.6773583E-2,2.4079588E-1,5.81036E-2,-2.4041234E-1,5.6592016E-3,-3.7053395E-2],"categories":[],"categories_nodes":[],"categories_segments":[],"categories_sizes":[],"default_left":[0,0,0,0,0,0,0],"id":51,"left_children":[1,-1,3,-1,5,-1,-1],"loss_changes":[1.6126772E0,0E0,1.3819556E0,0E0,1.697599E-1,0E0,0E0],"parents":[2147483647,0,0,2,2,4,4],"right_children":[2,-1,4,-1,6,-1,-1],"split_conditions":[7.921157E-1,-4.6773583E-2,7.135029E-1,5.81036E-2,9.4736737E-1,5.6592016E-3,-3.7053395E-2],"split_indices":[21,0,18,0,19,0,0],"split_type":[0,0,0,0,0,0,0],"sum_hessian":[1.1181866E1,4.5944033E0,6.587463E0,3.7374396E0,2.8500233E0,1.0403938E0,1.8096294E0],"tree_param":{"num_deleted":"0","num_feature":"22","num_nodes":"7","size_leaf_vector":"1"}},{"base_weights":[4.7913685E-2,5.25248E-1,-3.253168E-1,1.9282296E-2,5.850175E-2,-4.633488E-2,2.1844713E-2,-2.8991941E-3,6.538026E-3],"categories":[],"categories_nodes":[],"categories_segments":[],"categories_sizes":[],"default_left":[0,0,0,0,0,0,0,0,0],"id":52,"left_children":[1,3,5,-1,-1,-1,7,-1,-1],"loss_changes":[2.4219604E0,4.957795E-3,3.7951034E-1,0E0,0E0,0E0,8.86259E-3,0E0,0E0],"parents":[2147483647,0,0,1,1,2,2,6,6],"right_children":[2,4,6,-1,-1,-1,8,-1,-1],"split_conditions":[6.2543905E-1,2.8447238E-1,3.6423722E-1,1.9282296E-2,5.850175E-2,-4.633488E-2,3.2857156E-1,-2.8991941E-3,6.538026E-3],"split_indices":[6,20,20,0,0,0,8,0,0],"split_type":[0,0,0,0,0,0,0,0,0],"sum_hessian":[1.1635513E1,4.9269743E0,6.708539E0,1.3949085E0,3.5320654E0,4.5605702E0,2.147969E0,1.1450047E0,1.0029641E0],"tree_param":{"num_deleted":"0","num_feature":"22","num_nodes":"9","size_leaf_vector":"1"}},{"base_weights":[4.2666807E-3,-4.7069687E-2,4.1287827E-1,6.1332185E-2,-3.126891E-2],"categories":[],"categories_nodes":[],"categories_segments":[],"categories_sizes":[],"default_left":[0,0,0,0,0],"id":53,"left_children":[1,-1,3,-1,-1],"loss_changes":[2.5136993E0,0E0,1.2035494E0,0E0,0E0],"parents":[2147483647,0,0,2,2],"right_children":[2,-1,4,-1,-1],"split_conditions":[2.1783069E-1,-4.7069687E-2,2.1977958E-1,6.1332185E-2,-3.126891E-2],"split_indices":[12,0,20,0,0],"split_type":[0,0,0,0,0],"sum_hessian":[1.09508E1,4.9939594E0,5.95684E0,4.7886415E0,1.1681988E0],"tree_param":{"num_deleted":"0","num_feature":"22","num_nodes":"5","size_leaf_vector":"1"}},{"base_weights":[6.4393696E-3,-4.5122992E-2,2.9131544E-1,-3.663551E-2,5.342231E-1,5.4853025E-4,6.459704E-2],"categories":[],"categories_nodes":[],"categories_segments":[],"categories_sizes":[],"default_left":[0,0,0,0,0,0,0],"id":54,"left_children":[1,-1,3,-1,5,-1,-1],"loss_changes":[1.692788E0,0E0,1.47194E0,0E0,3.65193E-1,0E0,0E0],"parents":[2147483647,0,0,2,2,4,4],"right_children":[2,-1,4,-1,6,-1,-1],"split_conditions":[7.4811536E-1,-4.5122992E-2,7.135029E-1,-3.663551E-2,7.54101E-2,5.4853025E-4,6.459704E-2],"split_indices":[21,0,18,0,16,0,0],"split_type":[0,0,0,0,0,0,0],"sum_hessian":[1.0975376E1,3.9866498E0,6.9887266E0,1.7479522E0,5.240774E0,1.0974109E0,4.1433635E0],"tree_param":{"num_deleted":"0","num_feature":"22","num_nodes":"7","size_leaf_vector":"1"}},{"base_weights":[-6.234778E-2,-4.5872726E-2,2.300969E-1,5.5193443E-2,-2.3282844E-1,5.4874294E-3,-3.6135074E-2],"categories":[],"categories_nodes":[],"categories_segments":[],"categories_sizes":[],"default_left":[0,0,0,0,0,0,0],"id":55,"left_children":[1,-1,3,-1,5,-1,-1],"loss_changes":[1.4693333E0,0E0,1.2363746E0,0E0,1.5859634E-1,0E0,0E0],"parents":[2147483647,0,0,2,2,4,4],"right_children":[2,-1,4,-1,6,-1,-1],"split_conditions":[7.921157E-1,-4.5872726E-2,7.135029E-1,5.5193443E-2,9.4736737E-1,5.4874294E-3,-3.6135074E-2],"split_indices":[21,0,18,0,19,0,0],"split_type":[0,0,0,0,0,0,0],"sum_hessian":[1.0764947E1,4.3289266E0,6.4360204E0,3.6831353E0,2.752885E0,1.0269808E0,1.7259045E0],"tree_param":{"num_deleted":"0","num_feature":"22","num_nodes":"7","size_leaf_vector":"1"}},{"base_weights":[4.775287E-2,-4.543027E-2,3.7743604E-1,5.5961686E-1,-3.2721635E-2,1.6819611E-2,6.1972827E-2],"categories":[],"categories_nodes":[],"categories_segments":[],"categories_sizes":[],"default_left":[0,0,0,0,0,0,0],"id":56,"left_children":[1,-1,3,5,-1,-1,-1],"loss_changes":[2.1906662E0,0E0,1.1985409E0,5.232358E-2,0E0,0E0,0E0],"parents":[2147483647,0,0,2,2,3,3],"right_children":[2,-1,4,6,-1,-1,-1],"split_conditions":[2.743615E-1,-4.543027E-2,9.0294296E-1,1.4674214E-1,-3.2721635E-2,1.6819611E-2,6.1972827E-2],"split_indices":[20,0,21,12,0,0,0],"split_type":[0,0,0,0,0,0,0],"sum_hessian":[1.1199161E1,4.2892737E0,6.909887E0,5.653942E0,1.2559447E0,1.2583238E0,4.3956184E0],"tree_param":{"num_deleted":"0","num_feature":"22","num_nodes":"7","size_leaf_vector":"1"}},{"base_weights":[2.409481E-3,-4.625284E-2,3.97095E-1,5.9147235E-2,-3.0449932E-2],"categories":[],"categories_nodes":[],"categories_segments":[],"categories_sizes":[],"default_left":[0,0,0,0,0],"id":57,"left_children":[1,-1,3,-1,-1],"loss_changes":[2.2846591E0,0E0,1.0979745E0,0E0,0E0],"parents":[2147483647,0,0,2,2],"right_children":[2,-1,4,-1,-1],"split_conditions":[2.1783069E-1,-4.625284E-2,2.1977958E-1,5.9147235E-2,-3.0449932E-2],"split_indices":[12,0,20,0,0],"split_type":[0,0,0,0,0],"sum_hessian":[1.0449282E1,4.7187376E0,5.7305436E0,4.610234E0,1.1203097E0],"tree_param":{"num_deleted":"0","num_feature":"22","num_nodes":"5","size_leaf_vector":"1"}},{"base_weights":[5.0388803E-3,-2.9460657E-1,4.1670275E-1,-4.715724E-2,3.3301942E-2,5.5921227E-2,-2.991141E-3],"categories":[],"categories_nodes":[],"categories_segments":[],"categories_sizes":[],"default_left":[0,0,0,0,0,0,0],"id":58,"left_children":[1,3,5,-1,-1,-1,-1],"loss_changes":[1.5451522E0,9.6332115E-1,3.5225493E-1,0E0,0E0,0E0,0E0],"parents":[2147483647,0,0,1,1,2,2],"right_children":[2,4,6,-1,-1,-1,-1],"split_conditions":[1.0007706E0,8.362713E-1,3.6304176E-1,-4.715724E-2,3.3301942E-2,5.5921227E-2,-2.991141E-3],"split_indices":[19,18,8,0,0,0,0],"split_type":[0,0,0,0,0,0,0],"sum_hessian":[1.0531024E1,6.259301E0,4.271723E0,5.0765543E0,1.1827471E0,3.047261E0,1.2244616E0],"tree_param":{"num_deleted":"0","num_feature":"22","num_nodes":"7","size_leaf_vector":"1"}},{"base_weights":[-5.8794234E-2,-4.4998646E-2,2.2227347E-1,-3.5932228E-2,4.4824827E-1,6.238506E-2,-4.7311145E-3],"categories":[],"categories_nodes":[],"categories_segments":[],"categories_sizes":[],"default_left":[0,0,0,0,0,0,0],"id":59,"left_children":[1,-1,3,-1,5,-1,-1],"loss_changes":[1.3496909E0,0E0,1.1182555E0,0E0,5.246743E-1,0E0,0E0],"parents":[2147483647,0,0,2,2,4,4],"right_children":[2,-1,4,-1,6,-1,-1],"split_conditions":[7.921157E-1,-4.4998646E-2,1.8200289E-1,-3.5932228E-2,7.135029E-1,6.238506E-2,-4.7311145E-3],"split_indices":[21,0,20,0,18,0,0],"split_type":[0,0,0,0,0,0,0],"sum_hessian":[1.0365656E1,4.082546E0,6.2831097E0,1.593021E0,4.6900883E0,3.271829E0,1.4182595E0],"tree_param":{"num_deleted":"0","num_feature":"22","num_nodes":"7","size_leaf_vector":"1"}},{"base_weights":[4.5274124E-2,4.8748118E-1,-3.0962804E-1,1.7582208E-2,5.4244515E-2,-4.4578195E-2,1.4469751E-2,4.3768417E-3,-2.1322255E-3],"categories":[],"categories_nodes":[],"categories_segments":[],"categories_sizes":[],"default_left":[0,0,0,0,0,0,0,0,0],"id":60,"left_children":[1,3,5,-1,-1,-1,7,-1,-1],"loss_changes":[1.9901175E0,6.597042E-4,3.2031918E-1,0E0,0E0,0E0,4.1554654E-3,0E0,0E0],"parents":[2147483647,0,0,1,1,2,2,6,6],"right_children":[2,4,6,-1,-1,-1,8,-1,-1],"split_conditions":[6.2543905E-1,2.8447238E-1,3.6423722E-1,1.7582208E-2,5.4244515E-2,-4.4578195E-2,1.0051394E-1,4.3768417E-3,-2.1322255E-3],"split_indices":[6,20,20,0,0,0,16,0,0],"split_type":[0,0,0,0,0,0,0,0,0],"sum_hessian":[1.0718982E1,4.606158E0,6.112824E0,1.320044E0,3.2861135E0,4.0401125E0,2.0727115E0,1.0171978E0,1.0555136E0],"tree_param":{"num_deleted":"0","num_feature":"22","num_nodes":"9","size_leaf_vector":"1"}},{"base_weights":[9.601751E-4,-4.5460593E-2,3.834013E-1,5.7109036E-2,-2.9514862E-2],"categories":[],"categories_nodes":[],"categories_segments":[],"categories_sizes":[],"default_left":[0,0,0,0,0],"id":61,"left_children":[1,-1,3,-1,-1],"loss_changes":[2.083354E0,0E0,9.9627054E-1,0E0,0E0],"parents":[2147483647,0,0,2,2],"right_children":[2,-1,4,-1,-1],"split_conditions":[2.1783069E-1,-4.5460593E-2,2.1977958E-1,5.7109036E-2,-2.9514862E-2],"split_indices":[12,0,20,0,0],"split_type":[0,0,0,0,0],"sum_hessian":[9.957285E0,4.4580884E0,5.4991965E0,4.431732E0,1.0674644E0],"tree_param":{"num_deleted":"0","num_feature":"22","num_nodes":"5","size_leaf_vector":"1"}},{"base_weights":[7.1533397E-3,-4.3423656E-2,2.740722E-1,-3.4481894E-2,4.9418715E-1,7.237376E-4,5.9713107E-2],"categories":[],"categories_nodes":[],"categories_segments":[],"categories_sizes":[],"default_left":[0,0,0,0,0,0,0],"id":62,"left_children":[1,-1,3,-1,5,-1,-1],"loss_changes":[1.4245635E0,0E0,1.1946311E0,0E0,2.94294E-1,0E0,0E0],"parents":[2147483647,0,0,2,2,4,4],"right_children":[2,-1,4,-1,6,-1,-1],"split_conditions":[7.4811536E-1,-4.3423656E-2,7.135029E-1,-3.4481894E-2,7.54101E-2,7.237376E-4,5.9713107E-2],"split_indices":[21,0,18,0,16,0,0],"split_type":[0,0,0,0,0,0,0],"sum_hessian":[1.0081341E1,3.5628278E0,6.5185127E0,1.561512E0,4.9570007E0,1.0518411E0,3.9051595E0],"tree_param":{"num_deleted":"0","num_feature":"22","num_nodes":"7","size_leaf_vector":"1"}},{"base_weights":[-5.670914E-2,-4.4113737E-2,2.134848E-1,4.339754E-1,-3.4377117E-2,5.7482433E-2,9.25107E-3],"categories":[],"categories_nodes":[],"categories_segments":[],"categories_sizes":[],"default_left":[0,0,0,0,0,0,0],"id":63,"left_children":[1,-1,3,5,-1,-1,-1],"loss_changes":[1.2304397E0,0E0,1.021316E0,2.1267796E-1,0E0,0E0,0E0],"parents":[2147483647,0,0,2,2,3,3],"right_children":[2,-1,4,6,-1,-1,-1],"split_conditions":[7.921157E-1,-4.4113737E-2,9.6585464E-1,1.735627E-1,-3.4377117E-2,5.7482433E-2,9.25107E-3],"split_indices":[21,0,19,12,0,0,0],"split_type":[0,0,0,0,0,0,0],"sum_hessian":[9.939266E0,3.8412786E0,6.097988E0,4.5277224E0,1.5702654E0,2.7216682E0,1.8060544E0],"tree_param":{"num_deleted":"0","num_feature":"22","num_nodes":"7","size_leaf_vector":"1"}},{"base_weights":[4.541783E-2,-4.375688E-2,3.4935638E-1,5.22532E-1,-3.1372383E-2,1.4709778E-2,5.8134336E-2],"categories":[],"categories_nodes":[],"categories_segments":[],"categories_sizes":[],"default_left":[0,0,0,0,0,0,0],"id":64,"left_children":[1,-1,3,5,-1,-1,-1],"loss_changes":[1.8114494E0,0E0,1.0240703E0,5.390966E-2,0E0,0E0,0E0],"parents":[2147483647,0,0,2,2,3,3],"right_children":[2,-1,4,6,-1,-1,-1],"split_conditions":[2.743615E-1,-4.375688E-2,9.0294296E-1,1.4674214E-1,-3.1372383E-2,1.4709778E-2,5.8134336E-2],"split_indices":[20,0,21,12,0,0,0],"split_type":[0,0,0,0,0,0,0],"sum_hessian":[1.0298377E1,3.8077872E0,6.49059E0,5.3145576E0,1.1760323E0,1.1939448E0,4.120613E0],"tree_param":{"num_deleted":"0","num_feature":"22","num_nodes":"7","size_leaf_vector":"1"}},{"base_weights":[-1.3435505E-3,-4.465901E-2,3.6845982E-1,5.5231582E-2,-2.8836174E-2],"categories":[],"categories_nodes":[],"categories_segments":[],"categories_sizes":[],"default_left":[0,0,0,0,0],"id":65,"left_children":[1,-1,3,-1,-1],"loss_changes":[1.889465E0,0E0,9.1653025E-1,0E0,0E0],"parents":[2147483647,0,0,2,2],"right_children":[2,-1,4,-1,-1],"split_conditions":[2.1783069E-1,-4.465901E-2,2.1977958E-1,5.5231582E-2,-2.8836174E-2],"split_indices":[12,0,20,0,0],"split_type":[0,0,0,0,0],"sum_hessian":[9.476015E0,4.205234E0,5.2707815E0,4.2423735E0,1.0284077E0],"tree_param":{"num_deleted":"0","num_feature":"22","num_nodes":"5","size_leaf_vector":"1"}},{"base_weights":[5.598261E-3,-2.8184253E-1,3.9094543E-1,3.0874401E-2,-4.5659464E-2,5.1821303E-2,-1.8893151E-3],"categories":[],"categories_nodes":[],"categories_segments":[],"categories_sizes":[],"default_left":[0,0,0,0,0,0,0],"id":66,"left_children":[1,3,5,-1,-1,-1,-1],"loss_changes":[1.2899427E0,8.305531E-1,2.6899314E-1,0E0,0E0,0E0,0E0],"parents":[2147483647,0,0,1,1,2,2],"right_children":[2,4,6,-1,-1,-1,-1],"split_conditions":[1.0007706E0,1.7595322E-1,3.6304176E-1,3.0874401E-2,-4.5659464E-2,5.1821303E-2,-1.8893151E-3],"split_indices":[19,1,8,0,0,0,0],"split_type":[0,0,0,0,0,0,0],"sum_hessian":[9.651045E0,5.6815934E0,3.9694517E0,1.1222204E0,4.559373E0,2.8271134E0,1.1423383E0],"tree_param":{"num_deleted":"0","num_feature":"22","num_nodes":"7","size_leaf_vector":"1"}},{"base_weights":[-5.2957825E-2,-4.326433E-2,2.0774953E-1,-3.4191575E-2,4.167456E-1,5.802859E-2,-4.5113633E-3],"categories":[],"categories_nodes":[],"categories_segments":[],"categories_sizes":[],"default_left":[0,0,0,0,0,0,0],"id":67,"left_children":[1,-1,3,-1,5,-1,-1],"loss_changes":[1.1341823E0,0E0,9.386612E-1,0E0,4.3949455E-1,0E0,0E0],"parents":[2147483647,0,0,2,2,4,4],"right_children":[2,-1,4,-1,6,-1,-1],"split_conditions":[7.921157E-1,-4.326433E-2,1.8200289E-1,-3.4191575E-2,7.135029E-1,5.802859E-2,-4.5113633E-3],"split_indices":[21,0,20,0,18,0,0],"split_type":[0,0,0,0,0,0,0],"sum_hessian":[9.549901E0,3.619331E0,5.93057E0,1.4585509E0,4.472019E0,3.1132367E0,1.3587825E0],"tree_param":{"num_deleted":"0","num_feature":"22","num_nodes":"7","size_leaf_vector":"1"}},{"base_weights":[4.309547E-2,4.5620527E-2,-2.9472417E-1,-4.29199E-2,1.0461423E-3],"categories":[],"categories_nodes":[],"categories_segments":[],"categories_sizes":[],"default_left":[0,0,0,0,0],"id":68,"left_children":[1,-1,3,-1,-1],"loss_changes":[1.6467903E0,0E0,2.7408606E-1,0E0,0E0],"parents":[2147483647,0,0,2,2],"right_children":[2,-1,4,-1,-1],"split_conditions":[6.2543905E-1,4.5620527E-2,3.6423722E-1,-4.29199E-2,1.0461423E-3],"split_indices":[6,0,20,0,0],"split_type":[0,0,0,0,0],"sum_hessian":[9.836718E0,4.267579E0,5.5691385E0,3.5836916E0,1.9854469E0],"tree_param":{"num_deleted":"0","num_feature":"22","num_nodes":"5","size_leaf_vector":"1"}},{"base_weights":[-2.652087E-3,-4.3889157E-2,3.568426E-1,5.2741885E-2,-1.4277539E-2],"categories":[],"categories_nodes":[],"categories_segments":[],"categories_sizes":[],"default_left":[0,0,0,0,0],"id":69,"left_children":[1,-1,3,-1,-1],"loss_changes":[1.7263938E0,0E0,5.8997226E-1,0E0,0E0],"parents":[2147483647,0,0,2,2],"right_children":[2,-1,4,-1,-1],"split_conditions":[2.1783069E-1,-4.3889157E-2,2.0412074E-1,5.2741885E-2,-1.4277539E-2],"split_indices":[12,0,20,0,0],"split_type":[0,0,0,0,0],"sum_hessian":[9.009698E0,3.9705997E0,5.0390987E0,3.7150774E0,1.3240211E0],"tree_param":{"num_deleted":"0","num_feature":"22","num_nodes":"5","size_leaf_vector":"1"}},{"base_weights":[7.702296E-3,-4.176363E-2,2.590315E-1,-3.2510843E-2,4.6155432E-1,1.0567465E-3,5.5665042E-2],"categories":[],"categories_nodes":[],"categories_segments":[],"categories_sizes":[],"default_left":[0,0,0,0,0,0,0],"id":70,"left_children":[1,-1,3,-1,5,-1,-1],"loss_changes":[1.200743E0,0E0,9.8307925E-1,0E0,2.3608601E-1,0E0,0E0],"parents":[2147483647,0,0,2,2,4,4],"right_children":[2,-1,4,-1,6,-1,-1],"split_conditions":[7.4811536E-1,-4.176363E-2,7.135029E-1,-3.2510843E-2,7.54101E-2,1.0567465E-3,5.5665042E-2],"split_indices":[21,0,18,0,16,0,0],"split_type":[0,0,0,0,0,0,0],"sum_hessian":[9.220411E0,3.1788888E0,6.041523E0,1.3995333E0,4.6419897E0,1.0018599E0,3.6401296E0],"tree_param":{"num_deleted":"0","num_feature":"22","num_nodes":"7","size_leaf_vector":"1"}},{"base_weights":[-5.11916E-2,-4.2401984E-2,2.0004232E-1,-3.328414E-2,4.011493E-1,5.5854764E-2,-4.2114216E-3],"categories":[],"categories_nodes":[],"categories_segments":[],"categories_sizes":[],"default_left":[0,0,0,0,0,0,0],"id":71,"left_children":[1,-1,3,-1,5,-1,-1],"loss_changes":[1.0347979E0,0E0,8.556645E-1,0E0,3.9648652E-1,0E0,0E0],"parents":[2147483647,0,0,2,2,4,4],"right_children":[2,-1,4,-1,6,-1,-1],"split_conditions":[7.921157E-1,-4.2401984E-2,1.8200289E-1,-3.328414E-2,7.135029E-1,5.5854764E-2,-4.2114216E-3],"split_indices":[21,0,20,0,18,0,0],"split_type":[0,0,0,0,0,0,0],"sum_hessian":[9.142046E0,3.4035165E0,5.7385287E0,1.3928293E0,4.3457E0,3.0150173E0,1.3306822E0],"tree_param":{"num_deleted":"0","num_feature":"22","num_nodes":"7","size_leaf_vector":"1"}},{"base_weights":[4.2227607E-2,-4.2194836E-2,3.2523456E-1,4.9127632E-1,-3.1336796E-2,5.442282E-2,1.5075444E-2],"categories":[],"categories_nodes":[],"categories_segments":[],"categories_sizes":[],"default_left":[0,0,0,0,0,0,0],"id":72,"left_children":[1,-1,3,5,-1,-1,-1],"loss_changes":[1.510003E0,0E0,9.0220016E-1,2.596116E-2,0E0,0E0,0E0],"parents":[2147483647,0,0,2,2,3,3],"right_children":[2,-1,4,6,-1,-1,-1],"split_conditions":[2.743615E-1,-4.2194836E-2,4.741911E-1,4.9747077E-1,-3.1336796E-2,5.442282E-2,1.5075444E-2],"split_indices":[20,0,20,11,0,0,0],"split_type":[0,0,0,0,0,0,0],"sum_hessian":[9.450048E0,3.3933969E0,6.0566516E0,4.9899306E0,1.066721E0,3.8006968E0,1.189234E0],"tree_param":{"num_deleted":"0","num_feature":"22","num_nodes":"7","size_leaf_vector":"1"}},{"base_weights":[-3.8269917E-3,-4.31077E-2,3.444936E-1,5.110347E-2,-1.3771481E-2],"categories":[],"categories_nodes":[],"categories_segments":[],"categories_sizes":[],"default_left":[0,0,0,0,0],"id":73,"left_children":[1,-1,3,-1,-1],"loss_changes":[1.5731928E0,0E0,5.385356E-1,0E0,0E0],"parents":[2147483647,0,0,2,2],"right_children":[2,-1,4,-1,-1],"split_conditions":[2.1783069E-1,-4.31077E-2,2.0412074E-1,5.110347E-2,-1.3771481E-2],"split_indices":[12,0,20,0,0],"split_type":[0,0,0,0,0],"sum_hessian":[8.573242E0,3.74367E0,4.829572E0,3.5453346E0,1.2842377E0],"tree_param":{"num_deleted":"0","num_feature":"22","num_nodes":"5","size_leaf_vector":"1"}},{"base_weights":[6.650606E-3,-4.0915456E-2,2.49433E-1,-3.1542532E-2,4.4301897E-1,5.295012E-2,1.0170243E-2],"categories":[],"categories_nodes":[],"categories_segments":[],"categories_sizes":[],"default_left":[0,0,0,0,0,0,0],"id":74,"left_children":[1,-1,3,-1,5,-1,-1],"loss_changes":[1.0928763E0,0E0,8.8527954E-1,0E0,1.0830927E-1,0E0,0E0],"parents":[2147483647,0,0,2,2,4,4],"right_children":[2,-1,4,-1,6,-1,-1],"split_conditions":[7.4811536E-1,-4.0915456E-2,7.135029E-1,-3.1542532E-2,1.8200289E-1,5.295012E-2,1.0170243E-2],"split_indices":[21,0,18,0,20,0,0],"split_type":[0,0,0,0,0,0,0],"sum_hessian":[8.8149395E0,2.996929E0,5.818011E0,1.3243504E0,4.4936604E0,3.145348E0,1.3483121E0],"tree_param":{"num_deleted":"0","num_feature":"22","num_nodes":"7","size_leaf_vector":"1"}},{"base_weights":[-4.809664E-2,-4.1580476E-2,1.9511075E-1,3.9117834E-1,-3.1889185E-2,5.2396577E-2,7.264729E-3],"categories":[],"categories_nodes":[],"categories_segments":[],"categories_sizes":[],"default_left":[0,0,0,0,0,0,0],"id":75,"left_children":[1,-1,3,5,-1,-1,-1],"loss_changes":[9.548806E-1,0E0,7.8599125E-1,1.8182427E-1,0E0,0E0,0E0],"parents":[2147483647,0,0,2,2,3,3],"right_children":[2,-1,4,6,-1,-1,-1],"split_conditions":[7.921157E-1,-4.1580476E-2,9.6585464E-1,1.735627E-1,-3.1889185E-2,5.2396577E-2,7.264729E-3],"split_indices":[21,0,19,12,0,0,0],"split_type":[0,0,0,0,0,0,0],"sum_hessian":[8.770314E0,3.2089674E0,5.561347E0,4.198699E0,1.3626478E0,2.5081651E0,1.6905339E0],"tree_param":{"num_deleted":"0","num_feature":"22","num_nodes":"7","size_leaf_vector":"1"}},{"base_weights":[4.1109517E-2,-4.133944E-2,3.1322134E-1,4.775344E-1,-2.9577771E-2,1.1901817E-2,5.340032E-2],"categories":[],"categories_nodes":[],"categories_segments":[],"categories_sizes":[],"default_left":[0,0,0,0,0,0,0],"id":76,"left_children":[1,-1,3,5,-1,-1,-1],"loss_changes":[1.3705878E0,0E0,8.262982E-1,5.333495E-2,0E0,0E0,0E0],"parents":[2147483647,0,0,2,2,3,3],"right_children":[2,-1,4,6,-1,-1,-1],"split_conditions":[2.743615E-1,-4.133944E-2,9.0294296E-1,6.3504046E-1,-2.9577771E-2,1.1901817E-2,5.340032E-2],"split_indices":[20,0,21,19,0,0,0],"split_type":[0,0,0,0,0,0,0],"sum_hessian":[9.035132E0,3.1891463E0,5.8459864E0,4.773835E0,1.0721511E0,1.0724719E0,3.7013636E0],"tree_param":{"num_deleted":"0","num_feature":"22","num_nodes":"7","size_leaf_vector":"1"}},{"base_weights":[-4.9797297E-3,-4.2295985E-2,3.317199E-1,4.9572032E-2,-1.3422179E-2],"categories":[],"categories_nodes":[],"categories_segments":[],"categories_sizes":[],"default_left":[0,0,0,0,0],"id":77,"left_children":[1,-1,3,-1,-1],"loss_changes":[1.4279484E0,0E0,4.965914E-1,0E0,0E0],"parents":[2147483647,0,0,2,2],"right_children":[2,-1,4,-1,-1],"split_conditions":[2.1783069E-1,-4.2295985E-2,2.0412074E-1,4.9572032E-2,-1.3422179E-2],"split_indices":[12,0,20,0,0],"split_type":[0,0,0,0,0],"sum_hessian":[8.149506E0,3.5215936E0,4.627912E0,3.3758E0,1.2521122E0],"tree_param":{"num_deleted":"0","num_feature":"22","num_nodes":"5","size_leaf_vector":"1"}},{"base_weights":[5.7469863E-3,-2.670699E-1,3.61673E-1,2.7041642E-2,-4.352456E-2,4.7033887E-2,-7.2933076E-4],"categories":[],"categories_nodes":[],"categories_segments":[],"categories_sizes":[],"default_left":[0,0,0,0,0,0,0],"id":78,"left_children":[1,3,5,-1,-1,-1,-1],"loss_changes":[1.0116206E0,6.5188724E-1,1.8439984E-1,0E0,0E0,0E0,0E0],"parents":[2147483647,0,0,1,1,2,2],"right_children":[2,4,6,-1,-1,-1,-1],"split_conditions":[1.0007706E0,1.7595322E-1,3.6304176E-1,2.7041642E-2,-4.352456E-2,4.7033887E-2,-7.2933076E-4],"split_indices":[19,1,8,0,0,0,0],"split_type":[0,0,0,0,0,0,0],"sum_hessian":[8.423316E0,4.909691E0,3.513625E0,1.0252075E0,3.8844836E0,2.502002E0,1.011623E0],"tree_param":{"num_deleted":"0","num_feature":"22","num_nodes":"7","size_leaf_vector":"1"}},{"base_weights":[-4.4760827E-2,-4.074129E-2,1.9046229E-1,4.7731582E-2,-1.6838948E-1,1.4863567E-2,-3.4942828E-2],"categories":[],"categories_nodes":[],"categories_segments":[],"categories_sizes":[],"default_left":[0,0,0,0,0,0,0],"id":79,"left_children":[1,-1,3,-1,5,-1,-1],"loss_changes":[8.801828E-1,0E0,7.379776E-1,0E0,2.5724837E-1,0E0,0E0],"parents":[2147483647,0,0,2,2,4,4],"right_children":[2,-1,4,-1,6,-1,-1],"split_conditions":[7.921157E-1,-4.074129E-2,9.1755444E-1,4.7731582E-2,1.5083486E-1,1.4863567E-2,-3.4942828E-2],"split_indices":[21,0,19,0,12,0,0],"split_type":[0,0,0,0,0,0,0],"sum_hessian":[8.408521E0,3.0201764E0,5.3883443E0,2.8111167E0,2.5772276E0,1.0018418E0,1.5753858E0],"tree_param":{"num_deleted":"0","num_feature":"22","num_nodes":"7","size_leaf_vector":"1"}},{"base_weights":[3.8716182E-2,4.166465E-2,-2.7524918E-1,-4.0619574E-2,6.8904104E-4],"categories":[],"categories_nodes":[],"categories_segments":[],"categories_sizes":[],"default_left":[0,0,0,0,0],"id":80,"left_children":[1,-1,3,-1,-1],"loss_changes":[1.2574066E0,0E0,2.1939346E-1,0E0,0E0],"parents":[2147483647,0,0,2,2],"right_children":[2,-1,4,-1,-1],"split_conditions":[6.2543905E-1,4.166465E-2,3.6423722E-1,-4.0619574E-2,6.8904104E-4],"split_indices":[6,0,20,0,0],"split_type":[0,0,0,0,0],"sum_hessian":[8.630487E0,3.7678993E0,4.8625884E0,3.0208533E0,1.8417352E0],"tree_param":{"num_deleted":"0","num_feature":"22","num_nodes":"5","size_leaf_vector":"1"}},{"base_weights":[-5.6286864E-3,-4.155021E-2,3.2177722E-1,4.8197057E-2,-1.291661E-2],"categories":[],"categories_nodes":[],"categories_segments":[],"categories_sizes":[],"default_left":[0,0,0,0,0],"id":81,"left_children":[1,-1,3,-1,-1],"loss_changes":[1.3093841E0,0E0,4.5479983E-1,0E0,0E0],"parents":[2147483647,0,0,2,2],"right_children":[2,-1,4,-1,-1],"split_conditions":[2.1783069E-1,-4.155021E-2,2.0412074E-1,4.8197057E-2,-1.291661E-2],"split_indices":[12,0,20,0,0],"split_type":[0,0,0,0,0],"sum_hessian":[7.7610207E0,3.3269722E0,4.4340487E0,3.22101E0,1.2130386E0],"tree_param":{"num_deleted":"0","num_feature":"22","num_nodes":"5","size_leaf_vector":"1"}},{"base_weights":[7.4315392E-3,-3.9317127E-2,2.3748595E-1,-2.9804403E-2,4.1881576E-1,9.277824E-3,4.9886514E-2],"categories":[],"categories_nodes":[],"categories_segments":[],"categories_sizes":[],"default_left":[0,0,0,0,0,0,0],"id":82,"left_children":[1,-1,3,-1,5,-1,-1],"loss_changes":[9.2699915E-1,0E0,7.433222E-1,0E0,8.874947E-2,0E0,0E0],"parents":[2147483647,0,0,2,2,4,4],"right_children":[2,-1,4,-1,6,-1,-1],"split_conditions":[7.4811536E-1,-3.9317127E-2,7.135029E-1,-2.9804403E-2,9.06603E-2,9.277824E-3,4.9886514E-2],"split_indices":[21,0,18,0,16,0,0],"split_type":[0,0,0,0,0,0,0],"sum_hessian":[8.045383E0,2.6761906E0,5.369192E0,1.1953249E0,4.173867E0,1.2483613E0,2.925506E0],"tree_param":{"num_deleted":"0","num_feature":"22","num_nodes":"7","size_leaf_vector":"1"}},{"base_weights":[-4.312387E-2,-3.994069E-2,1.8439618E-1,4.5926385E-2,-1.6388842E-1,-3.2431062E-2,9.599203E-3],"categories":[],"categories_nodes":[],"categories_segments":[],"categories_sizes":[],"default_left":[0,0,0,0,0,0,0],"id":83,"left_children":[1,-1,3,-1,5,-1,-1],"loss_changes":[8.0818266E-1,0E0,6.701623E-1,0E0,1.7613176E-1,0E0,0E0],"parents":[2147483647,0,0,2,2,4,4],"right_children":[2,-1,4,-1,6,-1,-1],"split_conditions":[7.921157E-1,-3.994069E-2,9.1755444E-1,4.5926385E-2,2.546314E-1,-3.2431062E-2,9.599203E-3],"split_indices":[21,0,19,0,20,0,0],"split_type":[0,0,0,0,0,0,0],"sum_hessian":[8.061432E0,2.8472798E0,5.2141523E0,2.7361367E0,2.4780157E0,1.3789055E0,1.09911E0],"tree_param":{"num_deleted":"0","num_feature":"22","num_nodes":"7","size_leaf_vector":"1"}},{"base_weights":[3.8300913E-2,-3.9904006E-2,2.9474136E-1,5.0225794E-2,-1.5674358E-2],"categories":[],"categories_nodes":[],"categories_segments":[],"categories_sizes":[],"default_left":[0,0,0,0,0],"id":84,"left_children":[1,-1,3,-1,-1],"loss_changes":[1.1605104E0,0E0,6.818105E-1,0E0,0E0],"parents":[2147483647,0,0,2,2],"right_children":[2,-1,4,-1,-1],"split_conditions":[2.743615E-1,-3.9904006E-2,6.3907534E-1,5.0225794E-2,-1.5674358E-2],"split_indices":[20,0,6,0,0],"split_type":[0,0,0,0,0],"sum_hessian":[8.298965E0,2.8619835E0,5.436982E0,3.647856E0,1.789126E0],"tree_param":{"num_deleted":"0","num_feature":"22","num_nodes":"5","size_leaf_vector":"1"}},{"base_weights":[-7.080224E-3,-4.081032E-2,3.1142187E-1,4.684674E-2,-1.2461361E-2],"categories":[],"categories_nodes":[],"categories_segments":[],"categories_sizes":[],"default_left":[0,0,0,0,0],"id":85,"left_children":[1,-1,3,-1,-1],"loss_changes":[1.1979976E0,0E0,4.172095E-1,0E0,0E0],"parents":[2147483647,0,0,2,2],"right_children":[2,-1,4,-1,-1],"split_conditions":[2.1783069E-1,-4.081032E-2,2.0412074E-1,4.684674E-2,-1.2461361E-2],"split_indices":[12,0,20,0,0],"split_type":[0,0,0,0,0],"sum_hessian":[7.3843527E0,3.1441998E0,4.2401524E0,3.062693E0,1.1774595E0],"tree_param":{"num_deleted":"0","num_feature":"22","num_nodes":"5","size_leaf_vector":"1"}},{"base_weights":[6.2778597E-3,-2.5782394E-1,3.446455E-1,2.2743287E-2,-4.204938E-2,8.013035E-3,4.2735737E-2],"categories":[],"categories_nodes":[],"categories_segments":[],"categories_sizes":[],"default_left":[0,0,0,0,0,0,0],"id":86,"left_children":[1,3,5,-1,-1,-1,-1],"loss_changes":[8.658613E-1,5.2626425E-1,5.850917E-2,0E0,0E0,0E0,0E0],"parents":[2147483647,0,0,1,1,2,2],"right_children":[2,4,6,-1,-1,-1,-1],"split_conditions":[1.0007706E0,1.0217868E-1,1.0132121E0,2.2743287E-2,-4.204938E-2,8.013035E-3,4.2735737E-2],"split_indices":[19,20,21,0,0,0,0],"split_type":[0,0,0,0,0,0,0],"sum_hessian":[7.694863E0,4.45539E0,3.239473E0,1.0186253E0,3.4367645E0,1.2406436E0,1.9988294E0],"tree_param":{"num_deleted":"0","num_feature":"22","num_nodes":"7","size_leaf_vector":"1"}},{"base_weights":[-4.0136416E-2,-3.9143454E-2,1.7982127E-1,4.237467E-2,-1.87498E-1,1.8460684E-3,-2.9532159E-2],"categories":[],"categories_nodes":[],"categories_segments":[],"categories_sizes":[],"default_left":[0,0,0,0,0,0,0],"id":87,"left_children":[1,-1,3,-1,5,-1,-1],"loss_changes":[7.468675E-1,0E0,6.232219E-1,0E0,7.4630715E-2,0E0,0E0],"parents":[2147483647,0,0,2,2,4,4],"right_children":[2,-1,4,-1,6,-1,-1],"split_conditions":[7.921157E-1,-3.9143454E-2,7.135029E-1,4.237467E-2,1.7999649E-1,1.8460684E-3,-2.9532159E-2],"split_indices":[21,0,18,0,12,0,0],"split_type":[0,0,0,0,0,0,0],"sum_hessian":[7.754664E0,2.6856987E0,5.0689654E0,2.9538107E0,2.1151547E0,1.0116137E0,1.1035409E0],"tree_param":{"num_deleted":"0","num_feature":"22","num_nodes":"7","size_leaf_vector":"1"}},{"base_weights":[3.5133395E-2,-3.9113656E-2,2.8287587E-1,4.8783805E-2,-1.522909E-2],"categories":[],"categories_nodes":[],"categories_segments":[],"categories_sizes":[],"default_left":[0,0,0,0,0],"id":88,"left_children":[1,-1,3,-1,-1],"loss_changes":[1.0527395E0,0E0,6.2927103E-1,0E0,0E0],"parents":[2147483647,0,0,2,2],"right_children":[2,-1,4,-1,-1],"split_conditions":[2.743615E-1,-3.9113656E-2,6.3907534E-1,4.8783805E-2,-1.522909E-2],"split_indices":[20,0,6,0,0],"split_type":[0,0,0,0,0],"sum_hessian":[7.920931E0,2.6986995E0,5.2222314E0,3.4678485E0,1.754383E0],"tree_param":{"num_deleted":"0","num_feature":"22","num_nodes":"5","size_leaf_vector":"1"}},{"base_weights":[-6.2380545E-3,-4.0075086E-2,3.0358317E-1,4.577143E-2,-1.2061289E-2],"categories":[],"categories_nodes":[],"categories_segments":[],"categories_sizes":[],"default_left":[0,0,0,0,0],"id":89,"left_children":[1,-1,3,-1,-1],"loss_changes":[1.1053039E0,0E0,3.871236E-1,0E0,0E0],"parents":[2147483647,0,0,2,2],"right_children":[2,-1,4,-1,-1],"split_conditions":[2.1783069E-1,-4.0075086E-2,2.0412074E-1,4.577143E-2,-1.2061289E-2],"split_indices":[12,0,20,0,0],"split_type":[0,0,0,0,0],"sum_hessian":[7.047576E0,2.9709754E0,4.0766006E0,2.9321804E0,1.1444204E0],"tree_param":{"num_deleted":"0","num_feature":"22","num_nodes":"5","size_leaf_vector":"1"}},{"base_weights":[8.622922E-3,-2.511052E-1,3.382795E-1,1.9622574E-2,-4.0967543E-2,5.9519853E-3,4.25331E-2],"categories":[],"categories_nodes":[],"categories_segments":[],"categories_sizes":[],"default_left":[0,0,0,0,0,0,0],"id":90,"left_children":[1,3,5,-1,-1,-1,-1],"loss_changes":[8.01416E-1,4.530968E-1,7.450688E-2,0E0,0E0,0E0,0E0],"parents":[2147483647,0,0,1,1,2,2],"right_children":[2,4,6,-1,-1,-1,-1],"split_conditions":[9.92615E-1,1.8253273E-1,7.2678655E-1,1.9622574E-2,-4.0967543E-2,5.9519853E-3,4.25331E-2],"split_indices":[21,1,18,0,0,0,0],"split_type":[0,0,0,0,0,0,0],"sum_hessian":[7.367943E0,4.2543387E0,3.1136038E0,1.051254E0,3.203085E0,1.1416143E0,1.9719896E0],"tree_param":{"num_deleted":"0","num_feature":"22","num_nodes":"7","size_leaf_vector":"1"}},{"base_weights":[-3.9709803E-2,-1.9828722E-1,4.1450426E-2,3.4986176E-2,-4.414784E-2],"categories":[],"categories_nodes":[],"categories_segments":[],"categories_sizes":[],"default_left":[0,0,0,0,0],"id":91,"left_children":[1,3,-1,-1,-1],"loss_changes":[6.905197E-1,1.079135E0,0E0,0E0,0E0],"parents":[2147483647,0,0,1,1],"right_children":[2,4,-1,-1,-1],"split_conditions":[3.7823662E-1,6.232445E-1,4.1450426E-2,3.4986176E-2,-4.414784E-2],"split_indices":[1,19,0,0,0],"split_type":[0,0,0,0,0],"sum_hessian":[7.4457154E0,5.9365635E0,1.5091519E0,1.6896012E0,4.246962E0],"tree_param":{"num_deleted":"0","num_feature":"22","num_nodes":"5","size_leaf_vector":"1"}},{"base_weights":[3.2253E-2,-3.836899E-2,2.7296677E-1,4.744714E-2,-1.4699616E-2],"categories":[],"categories_nodes":[],"categories_segments":[],"categories_sizes":[],"default_left":[0,0,0,0,0],"id":92,"left_children":[1,-1,3,-1,-1],"loss_changes":[9.617148E-1,0E0,5.7799673E-1,0E0,0E0],"parents":[2147483647,0,0,2,2],"right_children":[2,-1,4,-1,-1],"split_conditions":[2.743615E-1,-3.836899E-2,6.3907534E-1,4.744714E-2,-1.4699616E-2],"split_indices":[20,0,6,0,0],"split_type":[0,0,0,0,0],"sum_hessian":[7.5592585E0,2.5533E0,5.0059586E0,3.2951171E0,1.7108415E0],"tree_param":{"num_deleted":"0","num_feature":"22","num_nodes":"5","size_leaf_vector":"1"}},{"base_weights":[-8.09731E-3,-3.9356675E-2,2.9408062E-1,4.4461492E-2,-1.1426598E-2],"categories":[],"categories_nodes":[],"categories_segments":[],"categories_sizes":[],"default_left":[0,0,0,0,0],"id":93,"left_children":[1,-1,3,-1,-1],"loss_changes":[1.012543E0,0E0,3.512834E-1,0E0,0E0],"parents":[2147483647,0,0,2,2],"right_children":[2,-1,4,-1,-1],"split_conditions":[2.1783069E-1,-3.9356675E-2,2.0412074E-1,4.4461492E-2,-1.1426598E-2],"split_indices":[12,0,20,0,0],"split_type":[0,0,0,0,0],"sum_hessian":[6.699175E0,2.810967E0,3.888208E0,2.7760265E0,1.1121815E0],"tree_param":{"num_deleted":"0","num_feature":"22","num_nodes":"5","size_leaf_vector":"1"}},{"base_weights":[8.881349E-3,-2.4636723E-1,3.2927418E-1,1.8711472E-2,-4.0384393E-2,7.96025E-3,4.0291924E-2],"categories":[],"categories_nodes":[],"categories_segments":[],"categories_sizes":[],"default_left":[0,0,0,0,0,0,0],"id":94,"left_children":[1,3,5,-1,-1,-1,-1],"loss_changes":[7.384866E-1,4.2001894E-1,4.1332692E-2,0E0,0E0,0E0,0E0],"parents":[2147483647,0,0,1,1,2,2],"right_children":[2,4,6,-1,-1,-1,-1],"split_conditions":[1.0007706E0,6.595131E-1,1.0132121E0,1.8711472E-2,-4.0384393E-2,7.96025E-3,4.0291924E-2],"split_indices":[19,15,21,0,0,0,0],"split_type":[0,0,0,0,0,0,0],"sum_hessian":[7.0382204E0,4.045958E0,2.9922624E0,1.028001E0,3.017957E0,1.1555631E0,1.8366992E0],"tree_param":{"num_deleted":"0","num_feature":"22","num_nodes":"7","size_leaf_vector":"1"}},{"base_weights":[-3.5157643E-2,-1.9188158E-1,4.0247373E-2,3.3880733E-2,-4.3424156E-2],"categories":[],"categories_nodes":[],"categories_segments":[],"categories_sizes":[],"default_left":[0,0,0,0,0],"id":95,"left_children":[1,3,-1,-1,-1],"loss_changes":[6.3343376E-1,1.0022088E0,0E0,0E0,0E0],"parents":[2147483647,0,0,1,1],"right_children":[2,4,-1,-1,-1],"split_conditions":[3.7823662E-1,6.232445E-1,4.0247373E-2,3.3880733E-2,-4.3424156E-2],"split_indices":[1,19,0,0,0],"split_type":[0,0,0,0,0],"sum_hessian":[7.1094656E0,5.648263E0,1.461203E0,1.6460351E0,4.002228E0],"tree_param":{"num_deleted":"0","num_feature":"22","num_nodes":"5","size_leaf_vector":"1"}},{"base_weights":[2.9659215E-2,3.709776E-2,-2.5079516E-1,-3.7701853E-2,3.9798798E-4],"categories":[],"categories_nodes":[],"categories_segments":[],"categories_sizes":[],"default_left":[0,0,0,0,0],"id":96,"left_children":[1,-1,3,-1,-1],"loss_changes":[8.799535E-1,0E0,1.6580868E-1,0E0,0E0],"parents":[2147483647,0,0,2,2],"right_children":[2,-1,4,-1,-1],"split_conditions":[6.2543905E-1,3.709776E-2,3.6423722E-1,-3.7701853E-2,3.9798798E-4],"split_indices":[6,0,20,0,0],"split_type":[0,0,0,0,0],"sum_hessian":[7.2206364E0,3.111323E0,4.1093135E0,2.4270627E0,1.6822506E0],"tree_param":{"num_deleted":"0","num_feature":"22","num_nodes":"5","size_leaf_vector":"1"}},{"base_weights":[-9.032443E-3,-3.8631745E-2,2.8517792E-1,4.3281965E-2,-1.0903647E-2],"categories":[],"categories_nodes":[],"categories_segments":[],"categories_sizes":[],"default_left":[0,0,0,0,0],"id":97,"left_children":[1,-1,3,-1,-1],"loss_changes":[9.293868E-1,0E0,3.220234E-1,0E0,0E0],"parents":[2147483647,0,0,2,2],"right_children":[2,-1,4,-1,-1],"split_conditions":[2.1783069E-1,-3.8631745E-2,2.0412074E-1,4.3281965E-2,-1.0903647E-2],"split_indices":[12,0,20,0,0],"split_type":[0,0,0,0,0],"sum_hessian":[6.3802624E0,2.6582944E0,3.721968E0,2.6365821E0,1.0853858E0],"tree_param":{"num_deleted":"0","num_feature":"22","num_nodes":"5","size_leaf_vector":"1"}},{"base_weights":[9.158887E-3,-3.625545E-2,2.1726373E-1,4.2584326E-2,-1.0310318E-2],"categories":[],"categories_nodes":[],"categories_segments":[],"categories_sizes":[],"default_left":[0,0,0,0,0],"id":98,"left_children":[1,-1,3,-1,-1],"loss_changes":[6.764035E-1,0E0,4.166526E-1,0E0,0E0],"parents":[2147483647,0,0,2,2],"right_children":[2,-1,4,-1,-1],"split_conditions":[7.4811536E-1,-3.625545E-2,1.8200289E-1,4.2584326E-2,-1.0310318E-2],"split_indices":[21,0,20,0,0],"split_type":[0,0,0,0,0],"sum_hessian":[6.7258205E0,2.1476147E0,4.5782056E0,2.5734725E0,2.004733E0],"tree_param":{"num_deleted":"0","num_feature":"22","num_nodes":"5","size_leaf_vector":"1"}},{"base_weights":[-3.187112E-2,-3.6686894E-2,1.6949697E-1,4.1627273E-2,-1.5731156E-1,4.5233034E-3,-2.862215E-2],"categories":[],"categories_nodes":[],"categories_segments":[],"categories_sizes":[],"default_left":[0,0,0,0,0,0,0],"id":99,"left_children":[1,-1,3,-1,5,-1,-1],"loss_changes":[5.869173E-1,0E0,5.124642E-1,0E0,9.415503E-2,0E0,0E0],"parents":[2147483647,0,0,2,2,4,4],"right_children":[2,-1,4,-1,6,-1,-1],"split_conditions":[7.921157E-1,-3.6686894E-2,9.1755444E-1,4.1627273E-2,1.7999649E-1,4.5233034E-3,-2.862215E-2],"split_indices":[21,0,19,0,12,0,0],"split_type":[0,0,0,0,0,0,0],"sum_hessian":[6.7786937E0,2.2363684E0,4.5423255E0,2.4320865E0,2.110239E0,1.0731719E0,1.0370672E0],"tree_param":{"num_deleted":"0","num_feature":"22","num_nodes":"7","size_leaf_vector":"1"}},{"base_weights":[2.8541256E-2,-3.696881E-2,2.55955E-1,4.5290433E-2,-1.3964008E-2],"categories":[],"categories_nodes":[],"categories_segments":[],"categories_sizes":[],"default_left":[0,0,0,0,0],"id":100,"left_children":[1,-1,3,-1,-1],"loss_changes":[8.142711E-1,0E0,5.033591E-1,0E0,0E0],"parents":[2147483647,0,0,2,2],"right_children":[2,-1,4,-1,-1],"split_conditions":[2.743615E-1,-3.696881E-2,6.3907534E-1,4.5290433E-2,-1.3964008E-2],"split_indices":[20,0,6,0,0],"split_type":[0,0,0,0,0],"sum_hessian":[6.9463916E0,2.297525E0,4.6488667E0,3.0069637E0,1.6419028E0],"tree_param":{"num_deleted":"0","num_feature":"22","num_nodes":"5","size_leaf_vector":"1"}},{"base_weights":[-1.0206064E-2,-3.7906516E-2,2.7605158E-1,4.220387E-2,-1.0633981E-2],"categories":[],"categories_nodes":[],"categories_segments":[],"categories_sizes":[],"default_left":[0,0,0,0,0],"id":101,"left_children":[1,-1,3,-1,-1],"loss_changes":[8.5223764E-1,0E0,2.997236E-1,0E0,0E0],"parents":[2147483647,0,0,2,2],"right_children":[2,-1,4,-1,-1],"split_conditions":[2.1783069E-1,-3.7906516E-2,2.0412074E-1,4.220387E-2,-1.0633981E-2],"split_indices":[12,0,20,0,0],"split_type":[0,0,0,0,0],"sum_hessian":[6.0802636E0,2.5151463E0,3.5651174E0,2.5050657E0,1.0600516E0],"tree_param":{"num_deleted":"0","num_feature":"22","num_nodes":"5","size_leaf_vector":"1"}},{"base_weights":[8.91621E-3,-2.3947865E-1,3.161793E-1,1.4986949E-2,-3.878452E-2,8.327169E-3,3.797378E-2],"categories":[],"categories_nodes":[],"categories_segments":[],"categories_sizes":[],"default_left":[0,0,0,0,0,0,0],"id":102,"left_children":[1,3,5,-1,-1,-1,-1],"loss_changes":[6.453477E-1,3.294017E-1,2.414769E-2,0E0,0E0,0E0,0E0],"parents":[2147483647,0,0,1,1,2,2],"right_children":[2,4,6,-1,-1,-1,-1],"split_conditions":[1.0007706E0,1.7020257E-1,1.0132121E0,1.4986949E-2,-3.878452E-2,8.327169E-3,3.797378E-2],"split_indices":[19,7,21,0,0,0,0],"split_type":[0,0,0,0,0,0,0],"sum_hessian":[6.4634476E0,3.6960926E0,2.767355E0,1.017033E0,2.6790597E0,1.0885532E0,1.6788018E0],"tree_param":{"num_deleted":"0","num_feature":"22","num_nodes":"7","size_leaf_vector":"1"}},{"base_weights":[-2.932121E-2,-1.8375571E-1,3.8224228E-2,3.203131E-2,-4.219346E-2],"categories":[],"categories_nodes":[],"categories_segments":[],"categories_sizes":[],"default_left":[0,0,0,0,0],"id":103,"left_children":[1,3,-1,-1,-1],"loss_changes":[5.4948306E-1,8.744811E-1,0E0,0E0,0E0],"parents":[2147483647,0,0,1,1],"right_children":[2,4,-1,-1,-1],"split_conditions":[3.7823662E-1,6.232445E-1,3.8224228E-2,3.203131E-2,-4.219346E-2],"split_indices":[1,19,0,0,0],"split_type":[0,0,0,0,0],"sum_hessian":[6.5400696E0,5.1580777E0,1.381992E0,1.5445127E0,3.613565E0],"tree_param":{"num_deleted":"0","num_feature":"22","num_nodes":"5","size_leaf_vector":"1"}},{"base_weights":[2.6525555E-2,-3.62372E-2,2.4763292E-1,4.4161063E-2,-1.3405505E-2],"categories":[],"categories_nodes":[],"categories_segments":[],"categories_sizes":[],"default_left":[0,0,0,0,0],"id":104,"left_children":[1,-1,3,-1,-1],"loss_changes":[7.468401E-1,0E0,4.63893E-1,0E0,0E0],"parents":[2147483647,0,0,2,2],"right_children":[2,-1,4,-1,-1],"split_conditions":[2.743615E-1,-3.62372E-2,6.3907534E-1,4.4161063E-2,-1.3405505E-2],"split_indices":[20,0,6,0,0],"split_type":[0,0,0,0,0],"sum_hessian":[6.6418114E0,2.175866E0,4.4659457E0,2.856997E0,1.6089486E0],"tree_param":{"num_deleted":"0","num_feature":"22","num_nodes":"5","size_leaf_vector":"1"}},{"base_weights":[-1.14092305E-2,-3.7189808E-2,2.675348E-1,4.1119322E-2,-1.0311219E-2],"categories":[],"categories_nodes":[],"categories_segments":[],"categories_sizes":[],"default_left":[0,0,0,0,0],"id":105,"left_children":[1,-1,3,-1,-1],"loss_changes":[7.8228885E-1,0E0,2.771979E-1,0E0,0E0],"parents":[2147483647,0,0,2,2],"right_children":[2,-1,4,-1,-1],"split_conditions":[2.1783069E-1,-3.7189808E-2,2.0412074E-1,4.1119322E-2,-1.0311219E-2],"split_indices":[12,0,20,0,0],"split_type":[0,0,0,0,0],"sum_hessian":[5.790165E0,2.3805125E0,3.4096525E0,2.378414E0,1.0312387E0],"tree_param":{"num_deleted":"0","num_feature":"22","num_nodes":"5","size_leaf_vector":"1"}},{"base_weights":[9.018586E-3,-2.3338327E-1,3.0753344E-1,1.41323535E-2,-3.8034648E-2,8.404456E-3,3.6673192E-2],"categories":[],"categories_nodes":[],"categories_segments":[],"categories_sizes":[],"default_left":[0,0,0,0,0,0,0],"id":106,"left_children":[1,3,5,-1,-1,-1,-1],"loss_changes":[5.914316E-1,3.0330923E-1,1.7464787E-2,0E0,0E0,0E0,0E0],"parents":[2147483647,0,0,1,1,2,2],"right_children":[2,4,6,-1,-1,-1,-1],"split_conditions":[9.92615E-1,1.9108549E-1,1.0100931E0,1.41323535E-2,-3.8034648E-2,8.404456E-3,3.6673192E-2],"split_indices":[21,1,19,0,0,0,0],"split_type":[0,0,0,0,0,0,0],"sum_hessian":[6.1815157E0,3.5317929E0,2.6497228E0,1.0057762E0,2.5260167E0,1.0616059E0,1.5881168E0],"tree_param":{"num_deleted":"0","num_feature":"22","num_nodes":"7","size_leaf_vector":"1"}},{"base_weights":[-2.625078E-2,-3.5127074E-2,1.6413818E-1,3.9643668E-2,-1.4999436E-2],"categories":[],"categories_nodes":[],"categories_segments":[],"categories_sizes":[],"default_left":[0,0,0,0,0],"id":107,"left_children":[1,-1,3,-1,-1],"loss_changes":[5.0553733E-1,0E0,4.4226086E-1,0E0,0E0],"parents":[2147483647,0,0,2,2],"right_children":[2,-1,4,-1,-1],"split_conditions":[7.921157E-1,-3.5127074E-2,9.1755444E-1,3.9643668E-2,-1.4999436E-2],"split_indices":[21,0,19,0,0],"split_type":[0,0,0,0,0],"sum_hessian":[6.2378616E0,1.9920847E0,4.245777E0,2.290193E0,1.9555838E0],"tree_param":{"num_deleted":"0","num_feature":"22","num_nodes":"5","size_leaf_vector":"1"}},{"base_weights":[2.4468413E-2,-3.551062E-2,2.393811E-1,4.3091714E-2,-1.2945688E-2],"categories":[],"categories_nodes":[],"categories_segments":[],"categories_sizes":[],"default_left":[0,0,0,0,0],"id":108,"left_children":[1,-1,3,-1,-1],"loss_changes":[6.8509716E-1,0E0,4.298014E-1,0E0,0E0],"parents":[2147483647,0,0,2,2],"right_children":[2,-1,4,-1,-1],"split_conditions":[2.743615E-1,-3.551062E-2,6.3907534E-1,4.3091714E-2,-1.2945688E-2],"split_indices":[20,0,6,0,0],"split_type":[0,0,0,0,0],"sum_hessian":[6.35628E0,2.0620317E0,4.294248E0,2.7156909E0,1.5785571E0],"tree_param":{"num_deleted":"0","num_feature":"22","num_nodes":"5","size_leaf_vector":"1"}},{"base_weights":[-1.2276526E-2,-3.6499094E-2,2.6015067E-1,4.0084206E-2,-9.792305E-3],"categories":[],"categories_nodes":[],"categories_segments":[],"categories_sizes":[],"default_left":[0,0,0,0,0],"id":109,"left_children":[1,-1,3,-1,-1],"loss_changes":[7.2156924E-1,0E0,2.5402364E-1,0E0,0E0],"parents":[2147483647,0,0,2,2],"right_children":[2,-1,4,-1,-1],"split_conditions":[2.1783069E-1,-3.6499094E-2,2.0412074E-1,4.0084206E-2,-9.792305E-3],"split_indices":[12,0,20,0,0],"split_type":[0,0,0,0,0],"sum_hessian":[5.5212107E0,2.2579913E0,3.2632194E0,2.256984E0,1.0062355E0],"tree_param":{"num_deleted":"0","num_feature":"22","num_nodes":"5","size_leaf_vector":"1"}},{"base_weights":[1.0468855E-2,-2.2967131E-1,3.0365798E-1,1.2301014E-2,-3.731321E-2,3.6348294E-2,7.6983767E-3],"categories":[],"categories_nodes":[],"categories_segments":[],"categories_sizes":[],"default_left":[0,0,0,0,0,0,0],"id":110,"left_children":[1,3,5,-1,-1,-1,-1],"loss_changes":[5.5788594E-1,2.675495E-1,2.019149E-2,0E0,0E0,0E0,0E0],"parents":[2147483647,0,0,1,1,2,2],"right_children":[2,4,6,-1,-1,-1,-1],"split_conditions":[1.0007706E0,6.8090254E-1,4.995772E-1,1.2301014E-2,-3.731321E-2,3.6348294E-2,7.6983767E-3],"split_indices":[19,17,0,0,0,0,0],"split_type":[0,0,0,0,0,0,0],"sum_hessian":[5.9332304E0,3.380794E0,2.5524364E0,1.0187845E0,2.3620095E0,1.5419343E0,1.0105021E0],"tree_param":{"num_deleted":"0","num_feature":"22","num_nodes":"7","size_leaf_vector":"1"}},{"base_weights":[-2.4586983E-2,-1.773279E-1,3.6402613E-2,3.021872E-2,-4.1004814E-2],"categories":[],"categories_nodes":[],"categories_segments":[],"categories_sizes":[],"default_left":[0,0,0,0,0],"id":111,"left_children":[1,3,-1,-1,-1],"loss_changes":[4.8104796E-1,7.610464E-1,0E0,0E0,0E0],"parents":[2147483647,0,0,1,1],"right_children":[2,4,-1,-1,-1],"split_conditions":[3.7823662E-1,6.232445E-1,3.6402613E-2,3.021872E-2,-4.1004814E-2],"split_indices":[1,19,0,0,0],"split_type":[0,0,0,0,0],"sum_hessian":[6.016782E0,4.7094607E0,1.3073211E0,1.441265E0,3.2681959E0],"tree_param":{"num_deleted":"0","num_feature":"22","num_nodes":"5","size_leaf_vector":"1"}},{"base_weights":[2.22462E-2,3.345632E-2,-2.2925933E-1,-3.491627E-2,9.7528464E-5],"categories":[],"categories_nodes":[],"categories_segments":[],"categories_sizes":[],"default_left":[0,0,0,0,0],"id":112,"left_children":[1,-1,3,-1,-1],"loss_changes":[6.3265634E-1,0E0,1.24952346E-1,0E0,0E0],"parents":[2147483647,0,0,2,2],"right_children":[2,-1,4,-1,-1],"split_conditions":[6.2543905E-1,3.345632E-2,3.6423722E-1,-3.491627E-2,9.7528464E-5],"split_indices":[6,0,20,0,0],"split_type":[0,0,0,0,0],"sum_hessian":[6.077765E0,2.56381E0,3.513955E0,1.9709545E0,1.5430006E0],"tree_param":{"num_deleted":"0","num_feature":"22","num_nodes":"5","size_leaf_vector":"1"}},{"base_weights":[-1.2604387E-2,-3.5820287E-2,2.5374302E-1,3.732986E-2,-1.3843596E-3],"categories":[],"categories_nodes":[],"categories_segments":[],"categories_sizes":[],"default_left":[0,0,0,0,0],"id":113,"left_children":[1,-1,3,-1,-1],"loss_changes":[6.6801196E-1,0E0,1.3717031E-1,0E0,0E0],"parents":[2147483647,0,0,2,2],"right_children":[2,-1,4,-1,-1],"split_conditions":[2.1783069E-1,-3.5820287E-2,1.8640298E-1,3.732986E-2,-1.3843596E-3],"split_indices":[12,0,20,0,0],"split_type":[0,0,0,0,0],"sum_hessian":[5.2696915E0,2.143512E0,3.1261797E0,1.8877093E0,1.2384703E0],"tree_param":{"num_deleted":"0","num_feature":"22","num_nodes":"5","size_leaf_vector":"1"}},{"base_weights":[1.0340883E-2,-2.243583E-1,2.9483396E-1,1.1282916E-2,-3.6611643E-2,3.496449E-2,9.242274E-3],"categories":[],"categories_nodes":[],"categories_segments":[],"categories_sizes":[],"default_left":[0,0,0,0,0,0,0],"id":114,"left_children":[1,3,5,-1,-1,-1,-1],"loss_changes":[5.1231134E-1,2.434664E-1,5.990684E-3,0E0,0E0,0E0,0E0],"parents":[2147483647,0,0,1,1,2,2],"right_children":[2,4,6,-1,-1,-1,-1],"split_conditions":[1.0007706E0,1.8640298E-1,1.0154793E0,1.1282916E-2,-3.6611643E-2,3.496449E-2,9.242274E-3],"split_indices":[19,20,19,0,0,0,0],"split_type":[0,0,0,0,0,0,0],"sum_hessian":[5.682057E0,3.229325E0,2.4527318E0,1.0162157E0,2.2131093E0,1.3576853E0,1.0950466E0],"tree_param":{"num_deleted":"0","num_feature":"22","num_nodes":"7","size_leaf_vector":"1"}},{"base_weights":[-2.187606E-2,-1.7279728E-1,3.5377055E-2,2.9236728E-2,-4.0314138E-2],"categories":[],"categories_nodes":[],"categories_segments":[],"categories_sizes":[],"default_left":[0,0,0,0,0],"id":115,"left_children":[1,3,-1,-1,-1],"loss_changes":[4.4345212E-1,7.0532715E-1,0E0,0E0,0E0],"parents":[2147483647,0,0,1,1],"right_children":[2,4,-1,-1,-1],"split_conditions":[3.7823662E-1,6.232445E-1,3.5377055E-2,2.9236728E-2,-4.0314138E-2],"split_indices":[1,19,0,0,0],"split_type":[0,0,0,0,0],"sum_hessian":[5.743711E0,4.4827175E0,1.2609932E0,1.3954455E0,3.0872722E0],"tree_param":{"num_deleted":"0","num_feature":"22","num_nodes":"5","size_leaf_vector":"1"}},{"base_weights":[1.9744826E-2,-3.428779E-2,2.2569856E-1,4.122689E-2,-1.2273042E-2],"categories":[],"categories_nodes":[],"categories_segments":[],"categories_sizes":[],"default_left":[0,0,0,0,0],"id":116,"left_children":[1,-1,3,-1,-1],"loss_changes":[5.8939886E-1,0E0,3.7403533E-1,0E0,0E0],"parents":[2147483647,0,0,2,2],"right_children":[2,-1,4,-1,-1],"split_conditions":[2.743615E-1,-3.428779E-2,6.3907534E-1,4.122689E-2,-1.2273042E-2],"split_indices":[20,0,6,0,0],"split_type":[0,0,0,0,0],"sum_hessian":[5.855754E0,1.8802927E0,3.9754612E0,2.4697714E0,1.5056897E0],"tree_param":{"num_deleted":"0","num_feature":"22","num_nodes":"5","size_leaf_vector":"1"}},{"base_weights":[-1.2028966E-2,-3.5183106E-2,2.479379E-1,3.651079E-2,-1.255932E-3],"categories":[],"categories_nodes":[],"categories_segments":[],"categories_sizes":[],"default_left":[0,0,0,0,0],"id":117,"left_children":[1,-1,3,-1,-1],"loss_changes":[6.2297744E-1,0E0,1.2736627E-1,0E0,0E0],"parents":[2147483647,0,0,2,2],"right_children":[2,-1,4,-1,-1],"split_conditions":[2.1783069E-1,-3.5183106E-2,1.8640298E-1,3.651079E-2,-1.255932E-3],"split_indices":[12,0,20,0,0],"split_type":[0,0,0,0,0],"sum_hessian":[5.0647697E0,2.0421333E0,3.0226364E0,1.8078817E0,1.2147546E0],"tree_param":{"num_deleted":"0","num_feature":"22","num_nodes":"5","size_leaf_vector":"1"}},{"base_weights":[9.633568E-3,-2.2015654E-1,2.8893312E-2,-3.5706617E-2,9.969066E-3],"categories":[],"categories_nodes":[],"categories_segments":[],"categories_sizes":[],"default_left":[0,0,0,0,0],"id":118,"left_children":[1,3,-1,-1,-1],"loss_changes":[4.7824684E-1,2.1565863E-1,0E0,0E0,0E0],"parents":[2147483647,0,0,1,1],"right_children":[2,4,-1,-1,-1],"split_conditions":[9.92615E-1,8.362713E-1,2.8893312E-2,-3.5706617E-2,9.969066E-3],"split_indices":[21,18,0,0,0],"split_type":[0,0,0,0,0],"sum_hessian":[5.4604945E0,3.1119406E0,2.3485541E0,2.0976732E0,1.0142674E0],"tree_param":{"num_deleted":"0","num_feature":"22","num_nodes":"5","size_leaf_vector":"1"}},{"base_weights":[-1.916721E-2,-1.6806802E-1,3.443474E-2,2.8393356E-2,-3.9658245E-2],"categories":[],"categories_nodes":[],"categories_segments":[],"categories_sizes":[],"default_left":[0,0,0,0,0],"id":119,"left_children":[1,3,-1,-1,-1],"loss_changes":[4.0988255E-1,6.5854126E-1,0E0,0E0,0E0],"parents":[2147483647,0,0,1,1],"right_children":[2,4,-1,-1,-1],"split_conditions":[3.7823662E-1,6.232445E-1,3.443474E-2,2.8393356E-2,-3.9658245E-2],"split_indices":[1,19,0,0,0],"split_type":[0,0,0,0,0],"sum_hessian":[5.503311E0,4.2855473E0,1.2177638E0,1.3576317E0,2.9279156E0],"tree_param":{"num_deleted":"0","num_feature":"22","num_nodes":"5","size_leaf_vector":"1"}},{"base_weights":[1.7486498E-2,-3.362205E-2,2.1874405E-1,4.025186E-2,-1.1864453E-2],"categories":[],"categories_nodes":[],"categories_segments":[],"categories_sizes":[],"default_left":[0,0,0,0,0],"id":120,"left_children":[1,-1,3,-1,-1],"loss_changes":[5.438269E-1,0E0,3.4638986E-1,0E0,0E0],"parents":[2147483647,0,0,2,2],"right_children":[2,-1,4,-1,-1],"split_conditions":[2.743615E-1,-3.362205E-2,6.3907534E-1,4.025186E-2,-1.1864453E-2],"split_indices":[20,0,6,0,0],"split_type":[0,0,0,0,0],"sum_hessian":[5.606346E0,1.789946E0,3.8164E0,2.345676E0,1.470724E0],"tree_param":{"num_deleted":"0","num_feature":"22","num_nodes":"5","size_leaf_vector":"1"}},{"base_weights":[-1.2363587E-2,-3.450192E-2,2.4119864E-1,3.5600107E-2,-1.2265801E-3],"categories":[],"categories_nodes":[],"categories_segments":[],"categories_sizes":[],"default_left":[0,0,0,0,0],"id":121,"left_children":[1,-1,3,-1,-1],"loss_changes":[5.7614833E-1,0E0,1.1798863E-1,0E0,0E0],"parents":[2147483647,0,0,2,2],"right_children":[2,-1,4,-1,-1],"split_conditions":[2.1783069E-1,-3.450192E-2,1.8640298E-1,3.5600107E-2,-1.2265801E-3],"split_indices":[12,0,20,0,0],"split_type":[0,0,0,0,0],"sum_hessian":[4.8439436E0,1.9391838E0,2.9047596E0,1.720808E0,1.1839516E0],"tree_param":{"num_deleted":"0","num_feature":"22","num_nodes":"5","size_leaf_vector":"1"}},{"base_weights":[8.151544E-3,-2.1604097E-1,2.7856952E-1,-3.478855E-2,8.606522E-3,3.3066873E-2,8.271923E-3],"categories":[],"categories_nodes":[],"categories_segments":[],"categories_sizes":[],"default_left":[0,0,0,0,0,0,0],"id":122,"left_children":[1,3,5,-1,-1,-1,-1],"loss_changes":[4.3872893E-1,1.883483E-1,5.9827566E-3,0E0,0E0,0E0,0E0],"parents":[2147483647,0,0,1,1,2,2],"right_children":[2,4,6,-1,-1,-1,-1],"split_conditions":[1.0007706E0,8.280916E-1,1.0154793E0,-3.478855E-2,8.606522E-3,3.3066873E-2,8.271923E-3],"split_indices":[19,18,19,0,0,0,0],"split_type":[0,0,0,0,0,0,0],"sum_hessian":[5.2439957E0,2.9769845E0,2.2670114E0,1.9670117E0,1.0099728E0,1.246933E0,1.0200784E0],"tree_param":{"num_deleted":"0","num_feature":"22","num_nodes":"7","size_leaf_vector":"1"}},{"base_weights":[-1.5008756E-2,2.056219E-1,-2.550462E-1,3.3783376E-2,-4.762338E-3,-5.419077E-3,-3.1522553E-2],"categories":[],"categories_nodes":[],"categories_segments":[],"categories_sizes":[],"default_left":[0,0,0,0,0,0,0],"id":123,"left_children":[1,3,5,-1,-1,-1,-1],"loss_changes":[3.847224E-1,1.4408739E-1,2.4634719E-2,0E0,0E0,0E0,0E0],"parents":[2147483647,0,0,1,1,2,2],"right_children":[2,4,6,-1,-1,-1,-1],"split_conditions":[7.135029E-1,9.1594666E-1,4.2651558E-1,3.3783376E-2,-4.762338E-3,-5.419077E-3,-3.1522553E-2],"split_indices":[18,14,4,0,0,0,0],"split_type":[0,0,0,0,0,0,0],"sum_hessian":[5.2742023E0,2.8229034E0,2.451299E0,1.6351972E0,1.1877061E0,1.0032673E0,1.4480318E0],"tree_param":{"num_deleted":"0","num_feature":"22","num_nodes":"7","size_leaf_vector":"1"}},{"base_weights":[1.6048303E-2,-3.2990802E-2,2.125614E-1,3.939369E-2,-1.14435125E-2],"categories":[],"categories_nodes":[],"categories_segments":[],"categories_sizes":[],"default_left":[0,0,0,0,0],"id":124,"left_children":[1,-1,3,-1,-1],"loss_changes":[5.0490564E-1,0E0,3.2304323E-1,0E0,0E0],"parents":[2147483647,0,0,2,2],"right_children":[2,-1,4,-1,-1],"split_conditions":[2.743615E-1,-3.2990802E-2,6.3907534E-1,3.939369E-2,-1.14435125E-2],"split_indices":[20,0,6,0,0],"split_type":[0,0,0,0,0],"sum_hessian":[5.395238E0,1.7085571E0,3.6866806E0,2.2396817E0,1.446999E0],"tree_param":{"num_deleted":"0","num_feature":"22","num_nodes":"5","size_leaf_vector":"1"}},{"base_weights":[-1.1425922E-2,-3.3878814E-2,2.3653278E-1,3.4878943E-2,-1.1363126E-3],"categories":[],"categories_nodes":[],"categories_segments":[],"categories_sizes":[],"default_left":[0,0,0,0,0],"id":125,"left_children":[1,-1,3,-1,-1],"loss_changes":[5.394474E-1,0E0,1.09948784E-1,0E0,0E0],"parents":[2147483647,0,0,2,2],"right_children":[2,-1,4,-1,-1],"split_conditions":[2.1783069E-1,-3.3878814E-2,1.8640298E-1,3.4878943E-2,-1.1363126E-3],"split_indices":[12,0,20,0,0],"split_type":[0,0,0,0,0],"sum_hessian":[4.658492E0,1.8498964E0,2.8085957E0,1.6530378E0,1.1555578E0],"tree_param":{"num_deleted":"0","num_feature":"22","num_nodes":"5","size_leaf_vector":"1"}},{"base_weights":[8.492075E-3,-2.1159746E-1,2.7415147E-2,7.928218E-3,-3.422568E-2],"categories":[],"categories_nodes":[],"categories_segments":[],"categories_sizes":[],"default_left":[0,0,0,0,0],"id":126,"left_children":[1,3,-1,-1,-1],"loss_changes":[4.1207013E-1,1.744544E-1,0E0,0E0,0E0],"parents":[2147483647,0,0,1,1],"right_children":[2,4,-1,-1,-1],"split_conditions":[9.92615E-1,4.150395E-1,2.7415147E-2,7.928218E-3,-3.422568E-2],"split_indices":[21,11,0,0,0],"split_type":[0,0,0,0,0],"sum_hessian":[5.055538E0,2.8762043E0,2.1793342E0,1.0133822E0,1.862822E0],"tree_param":{"num_deleted":"0","num_feature":"22","num_nodes":"5","size_leaf_vector":"1"}},{"base_weights":[-1.4626226E-2,-1.6298495E-1,3.3218402E-2,2.6868496E-2,-3.8558286E-2],"categories":[],"categories_nodes":[],"categories_segments":[],"categories_sizes":[],"default_left":[0,0,0,0,0],"id":127,"left_children":[1,3,-1,-1,-1],"loss_changes":[3.6864492E-1,5.7943106E-1,0E0,0E0,0E0],"parents":[2147483647,0,0,1,1],"right_children":[2,4,-1,-1,-1],"split_conditions":[3.7823662E-1,6.232445E-1,3.3218402E-2,2.6868496E-2,-3.8558286E-2],"split_indices":[1,19,0,0,0],"split_type":[0,0,0,0,0],"sum_hessian":[5.11253E0,3.9519908E0,1.1605397E0,1.274123E0,2.677868E0],"tree_param":{"num_deleted":"0","num_feature":"22","num_nodes":"5","size_leaf_vector":"1"}},{"base_weights":[1.445985E-2,-3.2345373E-2,2.0666064E-1,3.8521007E-2,-1.1065345E-2],"categories":[],"categories_nodes":[],"categories_segments":[],"categories_sizes":[],"default_left":[0,0,0,0,0],"id":128,"left_children":[1,-1,3,-1,-1],"loss_changes":[4.6798906E-1,0E0,3.0025494E-1,0E0,0E0],"parents":[2147483647,0,0,2,2],"right_children":[2,-1,4,-1,-1],"split_conditions":[2.743615E-1,-3.2345373E-2,6.3907534E-1,3.8521007E-2,-1.1065345E-2],"split_indices":[20,0,6,0,0],"split_type":[0,0,0,0,0],"sum_hessian":[5.1764565E0,1.6292071E0,3.5472493E0,2.133039E0,1.4142104E0],"tree_param":{"num_deleted":"0","num_feature":"22","num_nodes":"5","size_leaf_vector":"1"}},{"base_weights":[-1.2203432E-2,-3.3213314E-2,2.2986336E-1,3.3941787E-2,-1.019234E-3],"categories":[],"categories_nodes":[],"categories_segments":[],"categories_sizes":[],"default_left":[0,0,0,0,0],"id":129,"left_children":[1,-1,3,-1,-1],"loss_changes":[4.9892566E-1,0E0,1.0069455E-1,0E0,0E0],"parents":[2147483647,0,0,2,2],"right_children":[2,-1,4,-1,-1],"split_conditions":[2.1783069E-1,-3.3213314E-2,1.8640298E-1,3.3941787E-2,-1.019234E-3],"split_indices":[12,0,20,0,0],"split_type":[0,0,0,0,0],"sum_hessian":[4.456568E0,1.7593006E0,2.6972673E0,1.5678384E0,1.1294289E0],"tree_param":{"num_deleted":"0","num_feature":"22","num_nodes":"5","size_leaf_vector":"1"}},{"base_weights":[6.878271E-3,-2.0870946E-1,2.6720816E-2,7.1169916E-3,-3.3602964E-2],"categories":[],"categories_nodes":[],"categories_segments":[],"categories_sizes":[],"default_left":[0,0,0,0,0],"id":130,"left_children":[1,3,-1,-1,-1],"loss_changes":[3.8478982E-1,1.5819333E-1,0E0,0E0,0E0],"parents":[2147483647,0,0,1,1],"right_children":[2,4,-1,-1,-1],"split_conditions":[1.0007706E0,2.0311391E-1,2.6720816E-2,7.1169916E-3,-3.3602964E-2],"split_indices":[19,1,0,0,0],"split_type":[0,0,0,0,0],"sum_hessian":[4.8624E0,2.768228E0,2.094172E0,1.0034431E0,1.7647848E0],"tree_param":{"num_deleted":"0","num_feature":"22","num_nodes":"5","size_leaf_vector":"1"}},{"base_weights":[-1.0676789E-2,-3.0934129E-2,1.5711136E-1,3.5474036E-2,-1.3089488E-2],"categories":[],"categories_nodes":[],"categories_segments":[],"categories_sizes":[],"default_left":[0,0,0,0,0],"id":131,"left_children":[1,-1,3,-1,-1],"loss_changes":[3.445048E-1,0E0,2.9937676E-1,0E0,0E0],"parents":[2147483647,0,0,2,2],"right_children":[2,-1,4,-1,-1],"split_conditions":[7.921157E-1,-3.0934129E-2,9.1755444E-1,3.5474036E-2,-1.3089488E-2],"split_indices":[21,0,19,0,0],"split_type":[0,0,0,0,0],"sum_hessian":[4.904806E0,1.4608454E0,3.4439607E0,1.9050267E0,1.538934E0],"tree_param":{"num_deleted":"0","num_feature":"22","num_nodes":"5","size_leaf_vector":"1"}},{"base_weights":[1.341587E-2,-3.1713895E-2,2.013927E-1,3.769527E-2,-1.0631012E-2],"categories":[],"categories_nodes":[],"categories_segments":[],"categories_sizes":[],"default_left":[0,0,0,0,0],"id":132,"left_children":[1,-1,3,-1,-1],"loss_changes":[4.3528938E-1,0E0,2.789593E-1,0E0,0E0],"parents":[2147483647,0,0,2,2],"right_children":[2,-1,4,-1,-1],"split_conditions":[2.743615E-1,-3.1713895E-2,6.3907534E-1,3.769527E-2,-1.0631012E-2],"split_indices":[20,0,6,0,0],"split_type":[0,0,0,0,0],"sum_hessian":[4.97747E0,1.5553282E0,3.4221418E0,2.0356476E0,1.3864942E0],"tree_param":{"num_deleted":"0","num_feature":"22","num_nodes":"5","size_leaf_vector":"1"}},{"base_weights":[-1.0498903E-2,-3.2575406E-2,2.2595799E-1,3.3244807E-2,-7.8448944E-4],"categories":[],"categories_nodes":[],"categories_segments":[],"categories_sizes":[],"default_left":[0,0,0,0,0],"id":133,"left_children":[1,-1,3,-1,-1],"loss_changes":[4.6797895E-1,0E0,9.257507E-2,0E0,0E0],"parents":[2147483647,0,0,2,2],"right_children":[2,-1,4,-1,-1],"split_conditions":[2.1783069E-1,-3.2575406E-2,1.8640298E-1,3.3244807E-2,-7.8448944E-4],"split_indices":[12,0,20,0,0],"split_type":[0,0,0,0,0],"sum_hessian":[4.2904444E0,1.6769763E0,2.6134682E0,1.5057355E0,1.1077327E0],"tree_param":{"num_deleted":"0","num_feature":"22","num_nodes":"5","size_leaf_vector":"1"}},{"base_weights":[6.610451E-3,-3.0500457E-2,1.8063165E-1,-7.5067156E-3,3.610378E-2],"categories":[],"categories_nodes":[],"categories_segments":[],"categories_sizes":[],"default_left":[0,0,0,0,0],"id":134,"left_children":[1,-1,3,-1,-1],"loss_changes":[3.638735E-1,0E0,2.2461896E-1,0E0,0E0],"parents":[2147483647,0,0,2,2],