{"learner":{"attributes":{"scikit_learn":"{\"_estimator_type\": \"classifier\"}"},"feature_names":["nose_x","nose_y","left_eye_x","left_eye_y","right_eye_x","right_eye_y","left_ear_x","left_ear_y","right_ear_x","right_ear_y","left_shoulder_x","left_shoulder_y","right_shoulder_x","right_shoulder_y","left_elbow_x","left_elbow_y","right_elbow_x","right_elbow_y","left_wrist_x","left_wrist_y","right_wrist_x","right_wrist_y"],"feature_types":["float","float","float","float","float","float","float","float","float","float","float","float","float","float","float","float","float","float","float","float","float","float"],"gradient_booster":{"model":{"cats":{"enc":[],"feature_segments":[],"sorted_idx":[]},"gbtree_model_param":{"num_parallel_tree":"1","num_trees":"800"},"iteration_indptr":[0,4,8,12,16,20,24,28,32,36,40,44,48,52,56,60,64,68,72,76,80,84,88,92,96,100,104,108,112,116,120,124,128,132,136,140,144,148,152,156,160,164,168,172,176,180,184,188,192,196,200,204,208,212,216,220,224,228,232,236,240,244,248,252,256,260,264,268,272,276,280,284,288,292,296,300,304,308,312,316,320,324,328,332,336,340,344,348,352,356,360,364,368,372,376,380,384,388,392,396,400,404,408,412,416,420,424,428,432,436,440,444,448,452,456,460,464,468,472,476,480,484,488,492,496,500,504,508,512,516,520,524,528,532,536,540,544,548,552,556,560,564,568,572,576,580,584,588,592,596,600,604,608,612,616,620,624,628,632,636,640,644,648,652,656,660,664,668,672,676,680,684,688,692,696,700,704,708,712,716,720,724,728,732,736,740,744,748,752,756,760,764,768,772,776,780,784,788,792,796,800],"tree_info":[0,1,2,3,0,1,2,3,0,1,2,3,0,1,2,3,0,1,2,3,0,1,2,3,0,1,2,3,0,1,2,3,0,1,2,3,0,1,2,3,0,1,2,3,0,1,2,3,0,1,2,3,0,1,2,3,0,1,2,3,0,1,2,3,0,1,2,3,0,1,2,3,0,1,2,3,0,1,2,3,0,1,2,3,0,1,2,3,0,1,2,3,0,1,2,3,0,1,2,3,0,1,2,3,0,1,2,3,0,1,2,3,0,1,2,3,0,1,2,3,0,1,2,3,0,1,2,3,0,1,2,3,0,1,2,3,0,1,2,3,0,1,2,3,0,1,2,3,0,1,2,3,0,1,2,3,0,1,2,3,0,1,2,3,0,1,2,3,0,1,2,3,0,1,2,3,0,1,2,3,0,1,2,3,0,1,2,3,0,1,2,3,0,1,2,3,0,1,2,3,0,1,2,3,0,1,2,3,0,1,2,3,0,1,2,3,0,1,2,3,0,1,2,3,0,1,2,3,0,1,2,3,0,1,2,3,0,1,2,3,0,1,2,3,0,1,2,3,0,1,2,3,0,1,2,3,0,1,2,3,0,1,2,3,0,1,2,3,0,1,2,3,0,1,2,3,0,1,2,3,0,1,2,3,0,1,2,3,0,1,2,3,0,1,2,3,0,1,2,3,0,1,2,3,0,1,2,3,0,1,2,3,0,1,2,3,0,1,2,3,0,1,2,3,0,1,2,3,0,1,2,3,0,1,2,3,0,1,2,3,0,1,2,3,0,1,2,3,0,1,2,3,0,1,2,3,0,1,2,3,0,1,2,3,0,1,2,3,0,1,2,3,0,1,2,3,0,1,2,3,0,1,2,3,0,1,2,3,0,1,2,3,0,1,2,3,0,1,2,3,0,1,2,3,0,1,2,3,0,1,2,3,0,1,2,3,0,1,2,3,0,1,2,3,0,1,2,3,0,1,2,3,0,1,2,3,0,1,2,3,0,1,2,3,0,1,2,3,0,1,2,3,0,1,2,3,0,1,2,3,0,1,2,3,0,1,2,3,0,1,2,3,0,1,2,3,0,1,2,3,0,1,2,3,0,1,2,3,0,1,2,3,0,1,2,3,0,1,2,3,0,1,2,3,0,1,2,3,0,1,2,3,0,1,2,3,0,1,2,3,0,1,2,3,0,1,2,3,0,1,2,3,0,1,2,3,0,1,2,3,0,1,2,3,0,1,2,3,0,1,2,3,0,1,2,3,0,1,2,3,0,1,2,3,0,1,2,3,0,1,2,3,0,1,2,3,0,1,2,3,0,1,2,3,0,1,2,3,0,1,2,3,0,1,2,3,0,1,2,3,0,1,2,3,0,1,2,3,0,1,2,3,0,1,2,3,0,1,2,3,0,1,2,3,0,1,2,3,0,1,2,3,0,1,2,3,0,1,2,3,0,1,2,3,0,1,2,3,0,1,2,3,0,1,2,3,0,1,2,3,0,1,2,3,0,1,2,3,0,1,2,3,0,1,2,3,0,1,2,3,0,1,2,3,0,1,2,3,0,1,2,3,0,1,2,3,0,1,2,3,0,1,2,3,0,1,2,3,0,1,2,3,0,1,2,3,0,1,2,3,0,1,2,3,0,1,2,3,0,1,2,3,0,1,2,3,0,1,2,3,0,1,2,3,0,1,2,3,0,1,2,3,0,1,2,3,0,1,2,3,0,1,2,3,0,1,2,3,0,1,2,3,0,1,2,3,0,1,2,3,0,1,2,3,0,1,2,3,0,1,2,3,0,1,2,3,0,1,2,3],"trees":[{"base_weights":[8.928409E-2,1.0156074E0,-6.311083E-1,-3.8763505E-1,1.6371143E0,8.937655E-1,-6.6578484E-1,1.5136101E0,-6.13089E-1,-6.4879954E-2,1.7710389E0,-5.8297187E-2,1.7433201E-1,-3.0616027E-1,-6.7230046E-1,-1.7186028E-1,1.7451978E0,3.6286396E-1,-6.6042304E-1,1.8401017E0,-5.398546E-1,-6.265866E-2,1.2588862E-1,-4.166901E-1,-6.749665E-2,9.948513E-3,-3.6361687E-2,1.7943212E-1,5.625871E-2,-5.482775E-2,1.4434914E-1,9.948513E-3,-6.666326E-2,1.8656825E0,-2.0234597E-1,9.948513E-3,-6.159522E-2,-6.0295757E-2,5.625871E-2,1.8813403E-1,-2.2457335E-2,-5.260163E-2,5.625871E-2],"categories":[],"categories_nodes":[],"categories_segments":[],"categories_sizes":[],"default_left":[0,0,0,0,0,0,0,0,0,0,0,0,0,0,0,0,0,0,0,0,0,0,0,0,0,0,0,0,0,0,0,0,0,0,0,0,0,0,0,0,0,0,0],"id":0,"left_children":[1,3,5,7,9,11,13,15,17,-1,19,-1,-1,21,23,25,27,29,31,33,35,-1,-1,37,-1,-1,-1,-1,-1,-1,-1,-1,-1,39,41,-1,-1,-1,-1,-1,-1,-1,-1],"loss_changes":[9.1705707E2,5.249192E2,4.1476013E1,8.037141E1,1.2875452E2,2.3118519E1,1.5668335E0,8.081661E0,7.926651E0,0E0,6.387793E1,0E0,0E0,8.460808E0,2.2454834E-1,2.0885411E-1,1.3999939E-2,9.005557E0,8.16864E-1,2.0378418E1,6.5517926E-1,0E0,0E0,2.213419E0,0E0,0E0,0E0,0E0,0E0,0E0,0E0,0E0,0E0,1.2799805E1,1.6916738E0,0E0,0E0,0E0,0E0,0E0,0E0,0E0,0E0],"parents":[2147483647,0,0,1,1,2,2,3,3,4,4,5,5,6,6,7,7,8,8,10,10,13,13,14,14,15,15,16,16,17,17,18,18,19,19,20,20,23,23,33,33,34,34],"right_children":[2,4,6,8,10,12,14,16,18,-1,20,-1,-1,22,24,26,28,30,32,34,36,-1,-1,38,-1,-1,-1,-1,-1,-1,-1,-1,-1,40,42,-1,-1,-1,-1,-1,-1,-1,-1],"split_conditions":[1.0095928E0,9.321888E-1,5.586277E-1,5.396917E-2,7.8938156E-1,3.622418E-1,6.100084E-1,4.7028878E-1,9.48856E-1,-6.4879954E-2,7.1442294E-1,-5.8297187E-2,1.7433201E-1,9.3241394E-1,6.029948E-1,3.622418E-1,5.670911E-1,1.1254899E-1,2.6180995E-1,7.3824686E-1,4.4641563E-1,-6.265866E-2,1.2588862E-1,5.822342E-1,-6.749665E-2,9.948513E-3,-3.6361687E-2,1.7943212E-1,5.625871E-2,-5.482775E-2,1.4434914E-1,9.948513E-3,-6.666326E-2,8.65607E-1,3.6392167E-1,9.948513E-3,-6.159522E-2,-6.0295757E-2,5.625871E-2,1.8813403E-1,-2.2457335E-2,-5.260163E-2,5.625871E-2],"split_indices":[15,14,18,16,19,0,18,2,15,0,11,0,0,19,6,0,0,16,1,13,0,0,0,6,0,0,0,0,0,0,0,0,0,10,1,0,0,0,0,0,0,0,0],"split_type":[0,0,0,0,0,0,0,0,0,0,0,0,0,0,0,0,0,0,0,0,0,0,0,0,0,0,0,0,0,0,0,0,0,0,0,0,0,0,0,0,0,0,0],"sum_hessian":[1.3722859E3,6.001577E2,7.7212823E2,1.8433691E2,4.158208E2,1.6617374E1,7.5551086E2,1.8936077E1,1.6540083E2,2.2800583E1,3.9302023E2,6.183209E0,1.0434165E1,1.4298671E1,7.4121216E2,2.3187034E0,1.6617374E1,7.342561E0,1.5805827E2,3.8181314E2,1.1207067E1,1.2366418E1,1.9322528E0,9.274814E0,7.319374E2,1.1593517E0,1.1593517E0,1.5458022E1,1.1593517E0,4.250956E0,3.0916045E0,1.1593517E0,1.5689893E2,3.7717575E2,4.637407E0,1.1593517E0,1.0047714E1,8.115461E0,1.1593517E0,3.7447058E2,2.705154E0,3.478055E0,1.1593517E0],"tree_param":{"num_deleted":"0","num_feature":"22","num_nodes":"43","size_leaf_vector":"1"}},{"base_weights":[-2.403137E-2,1.8896856E0,-6.109073E-1,-6.2210567E-2,2.0182195E-1,7.5983316E-1,-6.5105546E-1,1.8912417E-1,-4.2179015E-1,-6.571383E-1,1.3983695E-1,-6.165575E-2,1.0678884E-1,-6.622161E-1,-9.3268715E-2,-6.6324316E-2,4.9770763E-4,1.3168631E-1,-5.816132E-2],"categories":[],"categories_nodes":[],"categories_segments":[],"categories_sizes":[],"default_left":[0,0,0,0,0,0,0,0,0,0,0,0,0,0,0,0,0,0,0],"id":1,"left_children":[1,3,5,-1,-1,7,9,-1,11,13,-1,-1,-1,15,17,-1,-1,-1,-1],"loss_changes":[1.4854243E3,1.0147119E2,5.619644E1,0E0,0E0,3.9919792E1,1.3184387E1,0E0,5.0487237E0,2.748993E0,0E0,0E0,0E0,6.697998E-1,7.600734E0,0E0,0E0,0E0,0E0],"parents":[2147483647,0,0,1,1,2,2,5,5,6,6,8,8,9,9,13,13,14,14],"right_children":[2,4,6,-1,-1,8,10,-1,12,14,-1,-1,-1,16,18,-1,-1,-1,-1],"split_conditions":[8.36036E-1,6.1819756E-1,1.1578483E-1,-6.2210567E-2,2.0182195E-1,9.377555E-1,2.053872E-1,1.8912417E-1,9.285875E-2,9.1710323E-1,1.3983695E-1,-6.165575E-2,1.0678884E-1,9.699161E-1,1.7769971E-1,-6.6324316E-2,4.9770763E-4,1.3168631E-1,-5.816132E-2],"split_indices":[21,11,20,0,0,21,16,0,16,10,0,0,0,18,20,0,0,0,0],"split_type":[0,0,0,0,0,0,0,0,0,0,0,0,0,0,0,0,0,0,0],"sum_hessian":[1.3205659E3,3.0940887E2,1.0111571E3,1.4875426E1,2.9453345E2,2.826331E1,9.828938E2,1.4131655E1,1.4131655E1,9.806625E2,2.231314E0,1.3015998E1,1.115657E0,9.7173724E2,8.925256E0,9.702497E2,1.4875426E0,1.8594283E0,7.0658274E0],"tree_param":{"num_deleted":"0","num_feature":"22","num_nodes":"19","size_leaf_vector":"1"}},{"base_weights":[-6.609578E-2,-4.8499894E-1,1.4583145E0,-5.5824214E-1,1.8713546E0,-6.4623974E-2,1.898761E0,-2.0822491E-1,-6.510975E-1,-3.9225258E-2,1.9967633E-1,2.7576742E-1,2.0066562E0,-6.173385E-1,1.0104523E0,-6.548841E-1,-1.538341E-1,-5.9699085E-2,1.729731E-1,2.0430102E0,-4.9194686E-2,-6.2981844E-1,6.066072E-2,1.8653064E0,-6.2482383E-2,-6.587178E-2,-4.738938E-1,-5.5208243E-2,1.08269386E-1,2.0521557E0,7.961177E-1,-6.487295E-2,1.2435434E-2,-4.268538E-2,2.0044556E-1,1.08269386E-1,-6.2413853E-2,6.066072E-2,2.0567997E-1,1.305206E-2,1.08269386E-1],"categories":[],"categories_nodes":[],"categories_segments":[],"categories_sizes":[],"default_left":[0,0,0,0,0,0,0,0,0,0,0,0,0,0,0,0,0,0,0,0,0,0,0,0,0,0,0,0,0,0,0,0,0,0,0,0,0,0,0,0,0],"id":2,"left_children":[1,3,5,7,9,-1,11,13,15,-1,-1,17,19,21,23,25,27,-1,-1,29,-1,31,-1,33,-1,-1,35,-1,-1,37,39,-1,-1,-1,-1,-1,-1,-1,-1,-1,-1],"loss_changes":[8.3314496E2,1.7765727E2,2.6192993E2,3.2145874E1,9.605881E0,0E0,4.02182E1,1.0518555E2,1.3764648E0,0E0,0E0,2.0920736E1,2.0821167E1,2.7898483E0,7.537888E1,2.2787476E-1,4.1610346E0,0E0,0E0,8.2055664E-1,0E0,2.31316E0,0E0,1.2055359E1,0E0,0E0,5.2847934E0,0E0,0E0,1.8237305E-1,4.6924233E-1,0E0,0E0,0E0,0E0,0E0,0E0,0E0,0E0,0E0,0E0],"parents":[2147483647,0,0,1,1,2,2,3,3,4,4,6,6,7,7,8,8,11,11,12,12,13,13,14,14,15,15,16,16,19,19,21,21,23,23,26,26,29,29,30,30],"right_children":[2,4,6,8,10,-1,12,14,16,-1,-1,18,20,22,24,26,28,-1,-1,30,-1,32,-1,34,-1,-1,36,-1,-1,38,40,-1,-1,-1,-1,-1,-1,-1,-1,-1,-1],"split_conditions":[9.9891174E-1,8.108865E-1,9.0884566E-1,2.363597E-1,5.822342E-1,-6.4623974E-2,7.1438193E-1,9.676682E-1,7.8701115E-1,-3.9225258E-2,1.9967633E-1,7.2284764E-1,1.10410236E-1,7.3837036E-1,2.4432534E-1,9.9513113E-1,4.1860434E-1,-5.9699085E-2,1.729731E-1,3.0833983E-1,-4.9194686E-2,8.629984E-1,6.066072E-2,4.4931903E-1,-6.2482383E-2,-6.587178E-2,1.2028255E-1,-5.5208243E-2,1.08269386E-1,8.243937E-2,7.375246E-1,-6.487295E-2,1.2435434E-2,-4.268538E-2,2.0044556E-1,1.08269386E-1,-6.2413853E-2,6.066072E-2,2.0567997E-1,1.305206E-2,1.08269386E-1],"split_indices":[21,11,19,5,6,0,18,19,11,0,0,11,16,11,12,21,0,0,0,20,0,10,0,2,0,0,20,0,0,20,0,0,0,0,0,0,0,0,0,0,0],"split_type":[0,0,0,0,0,0,0,0,0,0,0,0,0,0,0,0,0,0,0,0,0,0,0,0,0,0,0,0,0,0,0,0,0,0,0,0,0,0,0,0,0],"sum_hessian":[1.3025757E3,1.0223256E3,2.8025E2,9.922464E2,3.007919E1,4.842016E1,2.3182985E2,2.0872023E2,7.835262E2,1.4672775E0,2.8611912E1,1.4672775E1,2.1715707E2,1.5663188E2,5.2088352E1,7.772903E2,6.2359295E0,9.537304E0,5.1354713E0,2.1422252E2,2.934555E0,1.5553142E2,1.1004581E0,3.4114204E1,1.797415E1,7.5858246E2,1.8707788E1,5.1354713E0,1.1004581E0,2.120216E2,2.2009163E0,1.5186322E2,3.6681938E0,1.8340969E0,3.2280106E1,1.1004581E0,1.760733E1,1.1004581E0,2.1092114E2,1.1004581E0,1.1004581E0],"tree_param":{"num_deleted":"0","num_feature":"22","num_nodes":"41","size_leaf_vector":"1"}},{"base_weights":[-3.5269083E-3,1.6572512E0,-6.051118E-1,-5.6853896E-1,1.9981216E-1,-2.7875733E-1,-6.617468E-1,1.2020425E-1,-6.5176584E-2,-6.440839E-1,1.3997964E0,-4.339849E-1,-6.641245E-2,-6.6048004E-2,-5.601792E-2,-5.594291E-2,1.9101699E-1,-6.018548E-2,5.895359E-2,-4.609625E-2,5.895359E-2],"categories":[],"categories_nodes":[],"categories_segments":[],"categories_sizes":[],"default_left":[0,0,0,0,0,0,0,0,0,0,0,0,0,0,0,0,0,0,0,0,0],"id":3,"left_children":[1,3,5,7,-1,9,11,-1,-1,13,15,17,-1,-1,19,-1,-1,-1,-1,-1,-1],"loss_changes":[1.3303694E3,2.6977698E2,1.7882477E1,7.827629E0,0E0,9.060036E1,1.6244507E-1,0E0,0E0,1.1278992E0,2.7527496E1,2.3279352E0,0E0,0E0,1.4140737E0,0E0,0E0,0E0,0E0,0E0,0E0],"parents":[2147483647,0,0,1,1,2,2,3,3,5,5,6,6,9,9,10,10,11,11,14,14],"right_children":[2,4,6,8,-1,10,12,-1,-1,14,16,18,-1,-1,20,-1,-1,-1,-1,-1,-1],"split_conditions":[8.8443303E-1,9.1571844E-1,9.2711294E-1,1.675609E-1,1.9981216E-1,9.570744E-1,9.3044126E-1,1.2020425E-1,-6.5176584E-2,9.5056844E-1,3.6052996E-1,3.229935E-1,-6.641245E-2,-6.6048004E-2,3.3911684E-1,-5.594291E-2,1.9101699E-1,-6.018548E-2,5.895359E-2,-4.609625E-2,5.895359E-2],"split_indices":[19,21,19,12,0,21,19,0,0,21,1,3,0,0,1,0,0,0,0,0,0],"split_type":[0,0,0,0,0,0,0,0,0,0,0,0,0,0,0,0,0,0,0,0,0],"sum_hessian":[1.3295654E3,3.5307806E2,9.764874E2,4.68025E1,3.0627557E2,1.4527496E2,8.3121246E2,1.4976801E0,4.530482E1,1.1981441E2,2.5460562E1,1.0483761E1,8.207287E2,1.16444626E2,3.36978E0,5.2418804E0,2.0218681E1,9.3605E0,1.12326E0,2.24652E0,1.12326E0],"tree_param":{"num_deleted":"0","num_feature":"22","num_nodes":"21","size_leaf_vector":"1"}},{"base_weights":[8.306054E-2,8.915012E-1,-6.1369216E-1,-3.6998767E-1,1.384818E0,7.957102E-1,-6.4894766E-1,1.2999692E0,-5.950497E-1,-6.3206814E-2,1.4868743E0,-5.6601193E-2,1.4812757E-1,-2.8894025E-1,-6.556163E-1,-4.077085E-2,1.4501299E0,3.3881953E-1,-6.432432E-1,1.538945E0,-5.2206576E-1,-6.0961485E-2,1.1277648E-1,-3.9738882E-1,-6.583547E-2,8.7657515E-3,1.530095E-1,-5.319471E-2,1.2684567E-1,1.1104012E-2,-6.49677E-2,1.5580617E0,-1.8936945E-1,1.0995596E-2,-6.001354E-2,5.420487E-2,-5.864008E-2,1.568789E-1,-4.612987E-2,-5.1241834E-2,5.4064363E-2],"categories":[],"categories_nodes":[],"categories_segments":[],"categories_sizes":[],"default_left":[0,0,0,0,0,0,0,0,0,0,0,0,0,0,0,0,0,0,0,0,0,0,0,0,0,0,0,0,0,0,0,0,0,0,0,0,0,0,0,0,0],"id":4,"left_children":[1,3,5,7,9,11,13,15,17,-1,19,-1,-1,21,23,-1,25,27,29,31,33,-1,-1,35,-1,-1,-1,-1,-1,-1,-1,37,39,-1,-1,-1,-1,-1,-1,-1,-1],"loss_changes":[7.745552E2,3.9660132E2,3.7217926E1,6.831944E1,9.516321E1,1.8085373E1,1.5418701E0,6.1449585E0,7.376652E0,0E0,4.6413147E1,0E0,0E0,7.458122E0,2.3852539E-1,0E0,2.058735E0,7.523621E0,8.0783844E-1,1.4345154E1,6.463618E-1,0E0,0E0,2.083582E0,0E0,0E0,0E0,0E0,0E0,0E0,0E0,9.837097E0,1.5844331E0,0E0,0E0,0E0,0E0,0E0,0E0,0E0,0E0],"parents":[2147483647,0,0,1,1,2,2,3,3,4,4,5,5,6,6,7,7,8,8,10,10,13,13,14,14,16,16,17,17,18,18,19,19,20,20,23,23,31,31,32,32],"right_children":[2,4,6,8,10,12,14,16,18,-1,20,-1,-1,22,24,-1,26,28,30,32,34,-1,-1,36,-1,-1,-1,-1,-1,-1,-1,38,40,-1,-1,-1,-1,-1,-1,-1,-1],"split_conditions":[1.0095928E0,9.321888E-1,5.586277E-1,5.396917E-2,7.8938156E-1,3.622418E-1,6.100084E-1,1.8721111E-1,9.48856E-1,-6.3206814E-2,7.1442294E-1,-5.6601193E-2,1.4812757E-1,9.3241394E-1,6.029948E-1,-4.077085E-2,9.178961E-1,1.1254899E-1,6.089517E-1,7.3824686E-1,5.456681E-1,-6.0961485E-2,1.1277648E-1,1.8110065E-1,-6.583547E-2,8.7657515E-3,1.530095E-1,-5.319471E-2,1.2684567E-1,1.1104012E-2,-6.49677E-2,9.475673E-1,3.2253236E-1,1.0995596E-2,-6.001354E-2,5.420487E-2,-5.864008E-2,1.568789E-1,-4.612987E-2,-5.1241834E-2,5.4064363E-2],"split_indices":[15,14,18,16,19,0,18,12,15,0,11,0,0,19,6,0,14,16,13,13,2,0,0,12,0,0,0,0,0,0,0,18,7,0,0,0,0,0,0,0,0],"split_type":[0,0,0,0,0,0,0,0,0,0,0,0,0,0,0,0,0,0,0,0,0,0,0,0,0,0,0,0,0,0,0,0,0,0,0,0,0,0,0,0,0],"sum_hessian":[1.3731012E3,6.3547797E2,7.3762317E2,1.7871796E2,4.5676E2,1.74746E1,7.201486E2,2.065822E1,1.5805974E2,2.1749174E1,4.3501083E2,5.910033E0,1.1564568E1,1.3903369E1,7.0624524E2,1.5310824E0,1.9127138E1,7.460647E0,1.5059909E2,4.242485E2,1.0762332E1,1.1801718E1,2.1016512E0,8.944106E0,6.973011E2,1.1765684E0,1.795057E1,4.073189E0,3.387458E0,1.1361866E0,1.494629E2,4.1970468E2,4.543815E0,1.13834E0,9.623992E0,1.1852603E0,7.758846E0,4.1770883E2,1.9958477E0,3.3565352E0,1.1872802E0],"tree_param":{"num_deleted":"0","num_feature":"22","num_nodes":"41","size_leaf_vector":"1"}},{"base_weights":[-2.251213E-2,1.5212779E0,-6.1347353E-1,-6.2147465E-2,1.6631153E-1,3.7575987E-1,-6.3780755E-1,-5.338201E-1,1.5359257E-1,-6.4412344E-1,1.238391E-1,1.13198375E-2,-5.9992176E-2,-6.483402E-2,-1.6358806E-1,-5.6651603E-2,1.0856284E-1],"categories":[],"categories_nodes":[],"categories_segments":[],"categories_sizes":[],"default_left":[0,0,0,0,0,0,0,0,0,0,0,0,0,0,0,0,0],"id":5,"left_children":[1,3,5,-1,-1,7,9,11,-1,13,-1,-1,-1,-1,15,-1,-1],"loss_changes":[1.1988425E3,1.1159253E2,2.311438E1,0E0,0E0,2.5558914E1,1.1792175E1,6.616702E-1,0E0,1.7690125E0,0E0,0E0,0E0,0E0,5.339959E0,0E0,0E0],"parents":[2147483647,0,0,1,1,2,2,5,5,6,6,7,7,9,9,14,14],"right_children":[2,4,6,-1,-1,8,10,12,-1,14,-1,-1,-1,-1,16,-1,-1],"split_conditions":[8.5628253E-1,6.2234753E-1,1.1578483E-1,-6.2147465E-2,1.6631153E-1,9.285875E-2,2.053872E-1,9.642363E-1,1.5359257E-1,9.1710323E-1,1.238391E-1,1.13198375E-2,-5.9992176E-2,-6.483402E-2,1.159069E-1,-5.6651603E-2,1.0856284E-1],"split_indices":[21,11,20,0,0,16,16,21,0,10,0,0,0,0,16,0,0],"split_type":[0,0,0,0,0,0,0,0,0,0,0,0,0,0,0,0,0],"sum_hessian":[1.3120356E3,3.627739E2,9.492618E2,2.231265E1,3.4046127E2,2.2443438E1,9.2681836E2,1.2882961E1,9.560476E0,9.2436334E2,2.455011E0,1.1281248E0,1.1754837E1,9.1597626E2,8.387081E0,6.754845E0,1.6322358E0],"tree_param":{"num_deleted":"0","num_feature":"22","num_nodes":"17","size_leaf_vector":"1"}},{"base_weights":[-6.200421E-2,-5.277169E-1,1.0782007E0,-5.8023715E-1,1.4876221E0,-6.3718244E-2,1.5273824E0,2.0474872E-1,-6.051796E-1,-3.79988E-2,1.6238438E-1,2.0417945E-1,1.6477814E0,-6.1051853E-2,1.5725586E-1,-6.159294E-1,2.1456499E-2,-6.08387E-2,1.5287939E-1,-4.4095363E-2,1.6658001E0,-4.7312033E-1,-6.442841E-2,1.3977258E-1,-5.9007235E-2,-3.7859842E-2,1.6779102E0,-5.835067E-2,1.1100047E-1,1.6872333E-1,-3.371652E-2],"categories":[],"categories_nodes":[],"categories_segments":[],"categories_sizes":[],"default_left":[0,0,0,0,0,0,0,0,0,0,0,0,0,0,0,0,0,0,0,0,0,0,0,0,0,0,0,0,0,0,0],"id":6,"left_children":[1,3,5,7,9,-1,11,13,15,-1,-1,17,19,-1,-1,21,23,-1,-1,-1,25,27,-1,-1,-1,-1,29,-1,-1,-1,-1],"loss_changes":[6.863422E2,9.798836E1,2.8980054E2,1.764801E1,6.6176033E0,0E0,4.703595E1,3.252963E1,5.858307E0,0E0,0E0,2.8851822E1,1.0987183E1,0E0,0E0,3.1496582E0,1.3954774E1,0E0,0E0,0E0,7.3271484E0,2.6002747E1,0E0,0E0,0E0,0E0,5.6203613E0,0E0,0E0,0E0,0E0],"parents":[2147483647,0,0,1,1,2,2,3,3,4,4,6,6,7,7,8,8,11,11,12,12,15,15,16,16,20,20,21,21,26,26],"right_children":[2,4,6,8,10,-1,12,14,16,-1,-1,18,20,-1,-1,22,24,-1,-1,-1,26,28,-1,-1,-1,-1,30,-1,-1,-1,-1],"split_conditions":[9.910803E-1,8.108865E-1,9.2522883E-1,1.7633852E-1,4.5553395E-1,-6.3718244E-2,1.0090339E0,6.034574E-1,7.70175E-1,-3.79988E-2,1.6238438E-1,7.160609E-1,6.029948E-1,-6.1051853E-2,1.5725586E-1,2.3342101E-1,3.4805492E-1,-6.08387E-2,1.5287939E-1,-4.4095363E-2,6.100084E-1,7.080587E-1,-6.442841E-2,1.3977258E-1,-5.9007235E-2,-3.7859842E-2,1.10410236E-1,-5.835067E-2,1.1100047E-1,1.6872333E-1,-3.371652E-2],"split_indices":[21,11,19,9,2,0,15,11,11,0,0,11,6,0,0,5,1,0,0,0,18,11,0,0,0,0,16,0,0,0,0],"split_type":[0,0,0,0,0,0,0,0,0,0,0,0,0,0,0,0,0,0,0,0,0,0,0,0,0,0,0,0,0,0,0],"sum_hessian":[1.2904557E3,9.1660767E2,3.73848E2,8.9402136E2,2.258633E1,7.749255E1,2.9635547E2,2.7310188E1,8.667112E2,1.4137801E0,2.117255E1,2.494143E1,2.7141403E2,1.7458126E1,9.852061E0,8.521104E2,1.4600727E1,1.5793704E1,9.147724E0,2.1206117E0,2.6929343E2,1.4408882E2,7.080216E2,4.0962753E0,1.0504451E1,1.4075686E0,2.6788583E2,1.352871E2,8.801725E0,2.668141E2,1.0717484E0],"tree_param":{"num_deleted":"0","num_feature":"22","num_nodes":"31","size_leaf_vector":"1"}},{"base_weights":[-3.39803E-3,1.3963546E0,-5.888625E-1,-5.711703E-1,1.6475614E0,-2.7748E-1,-6.489847E-2,9.636164E-2,-6.361299E-2,5.2874334E-2,1.6499169E-1,-6.222476E-1,1.1893524E0,-6.377908E-1,5.32695E-2,-5.5017333E-2,1.6005118E-1,1.8810167E-3,-6.457712E-2],"categories":[],"categories_nodes":[],"categories_segments":[],"categories_sizes":[],"default_left":[0,0,0,0,0,0,0,0,0,0,0,0,0,0,0,0,0,0,0],"id":7,"left_children":[1,3,5,7,9,11,-1,-1,-1,-1,-1,13,15,17,-1,-1,-1,-1,-1],"loss_changes":[1.0857598E3,1.9406097E2,1.730841E1,5.09758E0,4.13208E-2,7.807763E1,0E0,0E0,0E0,0E0,0E0,2.5743484E0,2.1941814E1,6.5812683E-1,0E0,0E0,0E0,0E0,0E0],"parents":[2147483647,0,0,1,1,2,2,3,3,4,4,5,5,11,11,12,12,13,13],"right_children":[2,4,6,8,10,12,-1,-1,-1,-1,-1,14,16,18,-1,-1,-1,-1,-1],"split_conditions":[8.8443303E-1,9.080562E-1,9.3044126E-1,1.6161942E-1,7.465572E-1,9.587115E-1,-6.489847E-2,9.636164E-2,-6.361299E-2,5.2874334E-2,1.6499169E-1,5.5052525E-1,3.6052996E-1,1.7484325E-1,5.32695E-2,-5.5017333E-2,1.6005118E-1,1.8810167E-3,-6.457712E-2],"split_indices":[19,21,19,12,10,21,0,0,0,0,0,20,1,12,0,0,0,0,0],"split_type":[0,0,0,0,0,0,0,0,0,0,0,0,0,0,0,0,0,0,0],"sum_hessian":[1.3228931E3,3.8972867E2,9.331644E2,4.3981228E1,3.4574744E2,1.5192677E2,7.812377E2,1.2241621E0,4.2757065E1,1.2001033E0,3.4454733E2,1.2347963E2,2.8447142E1,1.2228173E2,1.1978922E0,5.3737745E0,2.3073368E1,1.4520781E0,1.2082966E2],"tree_param":{"num_deleted":"0","num_feature":"22","num_nodes":"19","size_leaf_vector":"1"}},{"base_weights":[7.781906E-2,7.9805E-1,-5.9789205E-1,-3.5458302E-1,1.2071136E0,7.1896875E-1,-6.3362825E-1,1.1410362E0,-5.7868993E-1,-6.165387E-2,1.2892677E0,-5.5037808E-2,1.2939204E-1,-2.7303818E-1,-6.4044917E-1,-3.963154E-2,1.2658165E0,3.1763813E-1,-6.2764573E-1,1.3309431E0,-5.051079E-1,-5.936892E-2,1.0208706E-1,-3.769905E-1,-6.4328395E-2,9.150561E-3,1.328764E-1,-5.1635098E-2,1.13161065E-1,1.2220362E-2,-6.343293E-2,1.3448573E0,-3.052793E-1,-5.8486443E-2,1.1362153E-2,-5.6936234E-2,5.22514E-2,1.3550684E-1,-2.3744946E-2,-4.6884008E-2,1.0716467E-2],"categories":[],"categories_nodes":[],"categories_segments":[],"categories_sizes":[],"default_left":[0,0,0,0,0,0,0,0,0,0,0,0,0,0,0,0,0,0,0,0,0,0,0,0,0,0,0,0,0,0,0,0,0,0,0,0,0,0,0,0,0],"id":8,"left_children":[1,3,5,7,9,11,13,15,17,-1,19,-1,-1,21,23,-1,25,27,29,31,33,-1,-1,35,-1,-1,-1,-1,-1,-1,-1,37,39,-1,-1,-1,-1,-1,-1,-1,-1],"loss_changes":[6.630825E2,3.1137036E2,3.354036E1,5.8818016E1,7.375171E1,1.46100445E1,1.5099182E0,4.90378E0,6.8501015E0,0E0,3.554242E1,0E0,0E0,6.605416E0,2.590027E-1,0E0,1.4649925E0,6.363614E0,7.994499E-1,1.0791809E1,6.245284E-1,0E0,0E0,1.9525284E0,0E0,0E0,0E0,0E0,0E0,0E0,0E0,7.629883E0,3.645996E-1,0E0,0E0,0E0,0E0,0E0,0E0,0E0,0E0],"parents":[2147483647,0,0,1,1,2,2,3,3,4,4,5,5,6,6,7,7,8,8,10,10,13,13,14,14,16,16,17,17,18,18,19,19,20,20,23,23,31,31,32,32],"right_children":[2,4,6,8,10,12,14,16,18,-1,20,-1,-1,22,24,-1,26,28,30,32,34,-1,-1,36,-1,-1,-1,-1,-1,-1,-1,38,40,-1,-1,-1,-1,-1,-1,-1,-1],"split_conditions":[1.0095928E0,9.321888E-1,5.586277E-1,5.396917E-2,7.8938156E-1,3.622418E-1,6.100084E-1,8.6506474E-1,9.48856E-1,-6.165387E-2,7.1442294E-1,-5.5037808E-2,1.2939204E-1,9.3241394E-1,6.029948E-1,-3.963154E-2,3.7572375E-1,1.1254899E-1,2.2809558E-1,7.417044E-1,1.0094825E0,-5.936892E-2,1.0208706E-1,9.650219E-1,-6.4328395E-2,9.150561E-3,1.328764E-1,-5.1635098E-2,1.13161065E-1,1.2220362E-2,-6.343293E-2,8.65607E-1,3.4776542E-1,-5.8486443E-2,1.1362153E-2,-5.6936234E-2,5.22514E-2,1.3550684E-1,-2.3744946E-2,-4.6884008E-2,1.0716467E-2],"split_indices":[15,14,18,16,19,0,18,14,15,0,11,0,0,19,6,0,0,16,9,13,17,0,0,19,0,0,0,0,0,0,0,10,8,0,0,0,0,0,0,0,0],"split_type":[0,0,0,0,0,0,0,0,0,0,0,0,0,0,0,0,0,0,0,0,0,0,0,0,0,0,0,0,0,0,0,0,0,0,0,0,0,0,0,0,0],"sum_hessian":[1.360514E3,6.5847437E2,7.020397E2,1.7251262E2,4.8596176E2,1.804309E1,6.839966E2,2.1947878E1,1.5056474E2,2.066808E1,4.652937E2,5.6381755E0,1.2404915E1,1.3459953E1,6.705366E2,1.4843149E0,2.0463562E1,7.5134497E0,1.4305128E2,4.5498465E2,1.0309032E1,1.1220501E1,2.2394516E0,8.5644655E0,6.6197217E2,1.1659503E0,1.9297613E1,3.8916943E0,3.6217554E0,1.1110841E0,1.419402E2,4.5132474E2,3.65992E0,9.18038E0,1.1286523E0,7.3579006E0,1.2065651E0,4.485736E2,2.7511482E0,2.5227501E0,1.1371698E0],"tree_param":{"num_deleted":"0","num_feature":"22","num_nodes":"41","size_leaf_vector":"1"}},{"base_weights":[-2.1256268E-2,1.3124224E0,-5.991563E-1,-6.0714543E-2,1.4238451E-1,3.4828022E-1,-6.2394303E-1,-5.186652E-1,1.3370317E-1,-6.315087E-1,9.0544826E-1,1.20507805E-2,-5.864951E-2,-6.347547E-2,-2.3695949E-1,1.1142178E-1,1.1701162E-2,-5.5210155E-2,8.8020794E-2],"categories":[],"categories_nodes":[],"categories_segments":[],"categories_sizes":[],"default_left":[0,0,0,0,0,0,0,0,0,0,0,0,0,0,0,0,0,0,0],"id":9,"left_children":[1,3,5,-1,-1,7,9,11,-1,13,15,-1,-1,-1,17,-1,-1,-1,-1],"loss_changes":[9.974992E2,8.4550354E1,2.1421661E1,0E0,0E0,2.097634E1,1.0757294E1,6.4851475E-1,0E0,9.7216797E-1,6.50496E-1,0E0,0E0,0E0,3.565875E0,0E0,0E0,0E0,0E0],"parents":[2147483647,0,0,1,1,2,2,5,5,6,6,7,7,9,9,10,10,14,14],"right_children":[2,4,6,-1,-1,8,10,12,-1,14,16,-1,-1,-1,18,-1,-1,-1,-1],"split_conditions":[8.5628253E-1,6.2234753E-1,1.1578483E-1,-6.0714543E-2,1.4238451E-1,9.285875E-2,1.9221857E-1,8.9706904E-1,1.3370317E-1,9.1710323E-1,6.1612326E-1,1.20507805E-2,-5.864951E-2,-6.347547E-2,1.159069E-1,1.1142178E-1,1.1701162E-2,-5.5210155E-2,8.8020794E-2],"split_indices":[21,11,20,0,0,16,16,14,0,10,0,0,0,0,16,0,0,0,0],"split_type":[0,0,0,0,0,0,0,0,0,0,0,0,0,0,0,0,0,0,0],"sum_hessian":[1.2922013E3,3.9026834E2,9.01933E2,2.1166553E1,3.6910178E2,2.2661943E1,8.79271E2,1.2328046E1,1.0333898E1,8.75527E2,3.7440152E0,1.1082444E0,1.1219802E1,8.677789E2,7.7480946E0,2.6334953E0,1.1105199E0,6.437844E0,1.3102508E0],"tree_param":{"num_deleted":"0","num_feature":"22","num_nodes":"19","size_leaf_vector":"1"}},{"base_weights":[-5.85386E-2,-5.127492E-1,9.5130694E-1,-5.677898E-1,1.2228471E0,-6.2380146E-2,1.3140897E0,1.9237508E-1,-5.932319E-1,-4.47127E-2,1.3991328E-1,1.9069898E-1,1.4081308E0,-5.967127E-2,1.3608639E-1,-4.047625E-1,-6.2576896E-1,-5.9485313E-2,1.3279179E-1,-4.3144934E-2,1.4224832E0,-5.592091E-1,1.170714E0,-6.284824E-2,2.5147468E-2,-3.684903E-2,1.4320879E0,-6.270676E-2,2.385734E-2,-3.424984E-2,1.3641523E-1,5.2384324E-2,-3.9601248E-2,1.439539E-1,-3.294989E-2],"categories":[],"categories_nodes":[],"categories_segments":[],"categories_sizes":[],"default_left":[0,0,0,0,0,0,0,0,0,0,0,0,0,0,0,0,0,0,0,0,0,0,0,0,0,0,0,0,0,0,0,0,0,0,0],"id":10,"left_children":[1,3,5,7,9,-1,11,13,15,-1,-1,17,19,-1,-1,21,23,-1,-1,-1,25,27,29,-1,31,-1,33,-1,-1,-1,-1,-1,-1,-1,-1],"loss_changes":[5.826538E2,8.4386765E1,2.2602448E2,1.6550415E1,8.646809E0,0E0,3.3606995E1,2.688538E1,4.7909546E0,0E0,0E0,2.395055E1,8.421692E0,0E0,0E0,3.081091E1,1.2515259E0,0E0,0E0,0E0,5.5793457E0,6.2965126E0,3.8006172E0,0E0,1.0194217E0,0E0,4.311096E0,0E0,0E0,0E0,0E0,0E0,0E0,0E0,0E0],"parents":[2147483647,0,0,1,1,2,2,3,3,4,4,6,6,7,7,8,8,11,11,12,12,15,15,16,16,20,20,21,21,22,22,24,24,26,26],"right_children":[2,4,6,8,10,-1,12,14,16,-1,-1,18,20,-1,-1,22,24,-1,-1,-1,26,28,30,-1,32,-1,34,-1,-1,-1,-1,-1,-1,-1,-1],"split_conditions":[9.910803E-1,8.0746615E-1,9.2522883E-1,1.7633852E-1,9.6573716E-1,-6.2380146E-2,1.0090339E0,6.034574E-1,3.07662E-1,-4.47127E-2,1.3991328E-1,7.160609E-1,6.029948E-1,-5.967127E-2,1.3608639E-1,7.080587E-1,7.9663664E-1,-5.9485313E-2,1.3279179E-1,-4.3144934E-2,6.100084E-1,8.675188E-1,5.822342E-1,-6.284824E-2,1.9471769E-1,-3.684903E-2,1.10410236E-1,-6.270676E-2,2.385734E-2,-3.424984E-2,1.3641523E-1,5.2384324E-2,-3.9601248E-2,1.439539E-1,-3.294989E-2],"split_indices":[21,11,19,9,19,0,15,11,1,0,0,11,6,0,0,11,11,0,0,0,18,10,6,0,12,0,16,0,0,0,0,0,0,0,0],"split_type":[0,0,0,0,0,0,0,0,0,0,0,0,0,0,0,0,0,0,0,0,0,0,0,0,0,0,0,0,0,0,0,0,0,0,0],"sum_hessian":[1.2682135E3,8.751009E2,3.931126E2,8.488542E2,2.6246693E1,7.345792E1,3.1965466E2,2.7277874E1,8.2157635E2,2.359405E0,2.3887287E1,2.4925756E1,2.947289E2,1.6574404E1,1.070347E1,1.2293294E2,6.9864343E2,1.5024361E1,9.901395E0,2.0567095E0,2.926722E2,1.1254501E2,1.0387924E1,6.957774E2,2.8659756E0,1.3618493E0,2.9131036E2,1.0391971E2,8.625305E0,1.0900664E0,9.297857E0,1.2005696E0,1.665406E0,2.9026544E2,1.0449321E0],"tree_param":{"num_deleted":"0","num_feature":"22","num_nodes":"35","size_leaf_vector":"1"}},{"base_weights":[-3.1907603E-3,1.2147411E0,-5.74099E-1,-5.5516726E-1,1.4136435E-1,-2.6449913E-1,-6.351795E-2,8.873E-2,-6.2178236E-2,-6.1516327E-1,1.0177883E0,-6.317147E-2,-9.9937476E-2,-5.4579046E-2,1.3821438E-1,5.816104E-2,-4.6498258E-2],"categories":[],"categories_nodes":[],"categories_segments":[],"categories_sizes":[],"default_left":[0,0,0,0,0,0,0,0,0,0,0,0,0,0,0,0,0],"id":11,"left_children":[1,3,5,7,-1,9,-1,-1,-1,11,13,-1,15,-1,-1,-1,-1],"loss_changes":[9.083583E2,1.4756055E2,1.6651794E1,4.6681213E0,0E0,6.729838E1,0E0,0E0,0E0,9.3510056E-1,1.9108742E1,0E0,1.4724514E0,0E0,0E0,0E0,0E0],"parents":[2147483647,0,0,1,1,2,2,3,3,5,5,9,9,10,10,12,12],"right_children":[2,4,6,8,-1,10,-1,-1,-1,12,14,-1,16,-1,-1,-1,-1],"split_conditions":[8.8443303E-1,9.080562E-1,9.3044126E-1,1.6161942E-1,1.4136435E-1,9.570744E-1,-6.351795E-2,8.873E-2,-6.2178236E-2,7.2196454E-1,3.6052996E-1,-6.317147E-2,3.8124397E-1,-5.4579046E-2,1.3821438E-1,5.816104E-2,-4.6498258E-2],"split_indices":[19,21,19,12,0,21,0,0,0,13,1,0,1,0,0,0,0],"split_type":[0,0,0,0,0,0,0,0,0,0,0,0,0,0,0,0,0],"sum_hessian":[1.3043721E3,4.1593036E2,8.884417E2,4.1839092E1,3.7409128E2,1.4727522E2,7.411665E2,1.3030641E0,4.053603E1,1.160575E2,3.121771E1,1.1222618E2,3.831325E0,5.805648E0,2.5412064E1,1.1294181E0,2.701907E0],"tree_param":{"num_deleted":"0","num_feature":"22","num_nodes":"17","size_leaf_vector":"1"}},{"base_weights":[7.3368475E-2,7.253172E-1,-5.835118E-1,-3.4072196E-1,1.0751487E0,6.5692157E-1,-6.196451E-1,1.0202824E0,-5.6359947E-1,-6.022733E-2,1.1439266E0,-5.357747E-2,1.1529093E-1,-2.5881118E-1,-6.2661296E-1,-3.856607E-2,1.1279016E0,2.9894403E-1,-6.132507E-1,1.1786997E0,-4.888354E-1,-5.789749E-2,9.3210004E-2,-3.5956022E-1,-6.295377E-2,1.1850444E-1,6.083116E-3,-5.0142236E-2,1.0223396E-1,1.1823549E-2,-6.2015414E-2,1.1916165E0,-1.7303246E-1,1.1739105E-2,-5.7052292E-2,5.0317455E-2,-5.547149E-2,-4.9841713E-2,1.1992206E-1,-4.8953753E-2,4.865926E-2],"categories":[],"categories_nodes":[],"categories_segments":[],"categories_sizes":[],"default_left":[0,0,0,0,0,0,0,0,0,0,0,0,0,0,0,0,0,0,0,0,0,0,0,0,0,0,0,0,0,0,0,0,0,0,0,0,0,0,0,0,0],"id":12,"left_children":[1,3,5,7,9,11,13,15,17,-1,19,-1,-1,21,23,-1,25,27,29,31,33,-1,-1,35,-1,-1,-1,-1,-1,-1,-1,37,39,-1,-1,-1,-1,-1,-1,-1,-1],"loss_changes":[5.731406E2,2.5084137E2,3.0289322E1,5.1143097E1,5.9057617E1,1.2068267E1,1.4679108E0,4.0381985E0,6.34568E0,0E0,2.8189026E1,0E0,0E0,5.872451E0,2.6991272E-1,0E0,1.2922726E0,5.4365025E0,7.6205444E-1,8.525879E0,6.042092E-1,0E0,0E0,1.8305984E0,0E0,0E0,0E0,0E0,0E0,0E0,0E0,6.664917E0,1.36212E0,0E0,0E0,0E0,0E0,0E0,0E0,0E0,0E0],"parents":[2147483647,0,0,1,1,2,2,3,3,4,4,5,5,6,6,7,7,8,8,10,10,13,13,14,14,16,16,17,17,18,18,19,19,20,20,23,23,31,31,32,32],"right_children":[2,4,6,8,10,12,14,16,18,-1,20,-1,-1,22,24,-1,26,28,30,32,34,-1,-1,36,-1,-1,-1,-1,-1,-1,-1,38,40,-1,-1,-1,-1,-1,-1,-1,-1],"split_conditions":[1.0095928E0,9.321888E-1,5.586277E-1,5.396917E-2,7.8938156E-1,3.622418E-1,6.100084E-1,1.8721111E-1,9.48856E-1,-6.022733E-2,7.1442294E-1,-5.357747E-2,1.1529093E-1,9.3241394E-1,6.029948E-1,-3.856607E-2,6.55408E-1,1.1254899E-1,2.2809558E-1,7.3824686E-1,4.4641563E-1,-5.789749E-2,9.3210004E-2,1.0098728E0,-6.295377E-2,1.1850444E-1,6.083116E-3,-5.0142236E-2,1.0223396E-1,1.1823549E-2,-6.2015414E-2,1.517437E-1,2.1256348E-1,1.1739105E-2,-5.7052292E-2,5.0317455E-2,-5.547149E-2,-4.9841713E-2,1.1992206E-1,-4.8953753E-2,4.865926E-2],"split_indices":[15,14,18,16,19,0,18,12,15,0,11,0,0,19,6,0,18,16,9,13,0,0,0,15,0,0,0,0,0,0,0,12,12,0,0,0,0,0,0,0,0],"split_type":[0,0,0,0,0,0,0,0,0,0,0,0,0,0,0,0,0,0,0,0,0,0,0,0,0,0,0,0,0,0,0,0,0,0,0,0,0,0,0,0,0],"sum_hessian":[1.3363365E3,6.7063354E2,6.6570294E2,1.6570573E2,5.0492783E2,1.835647E1,6.4734644E2,2.2814E1,1.4289174E2,1.9582172E1,4.8534567E2,5.367965E0,1.2988504E1,1.29863E1,6.3436017E2,1.43845E0,2.137555E1,7.50438E0,1.3538736E2,4.7549707E2,9.8486E0,1.0639755E1,2.3465455E0,8.214884E0,6.2614526E2,2.0184109E1,1.1914401E0,3.7083278E0,3.7960525E0,1.1150095E0,1.3427235E2,4.7111368E2,4.383387E0,1.117588E0,8.731012E0,1.2242806E0,6.9906034E0,1.821097E0,4.6929257E2,3.1363437E0,1.2470435E0],"tree_param":{"num_deleted":"0","num_feature":"22","num_nodes":"41","size_leaf_vector":"1"}},{"base_weights":[-2.0115133E-2,1.1612233E0,-5.8606243E-1,-5.940032E-2,1.2529807E-1,-6.103163E-1,3.59681E-1,-6.1680406E-1,5.5947846E-1,1.2074822E-1,-5.682376E-2,-1.2526341E-1,-6.2015593E-1,-3.484757E-2,9.4858386E-2,-5.140647E-2,8.462193E-2,-6.224029E-2,-1.3822335E-1,-4.6356607E-2,4.881337E-2],"categories":[],"categories_nodes":[],"categories_segments":[],"categories_sizes":[],"default_left":[0,0,0,0,0,0,0,0,0,0,0,0,0,0,0,0,0,0,0,0,0],"id":13,"left_children":[1,3,5,-1,-1,7,9,11,13,-1,-1,15,17,-1,-1,-1,-1,-1,19,-1,-1],"loss_changes":[8.4555084E2,6.6719604E1,1.9832397E1,0E0,0E0,6.674835E0,1.8000154E1,1.2896729E0,2.1409812E0,0E0,0E0,3.031452E0,8.0630493E-1,0E0,0E0,0E0,0E0,0E0,1.2675184E0,0E0,0E0],"parents":[2147483647,0,0,1,1,2,2,5,5,6,6,7,7,8,8,11,11,12,12,18,18],"right_children":[2,4,6,-1,-1,8,10,12,14,-1,-1,16,18,-1,-1,-1,-1,-1,20,-1,-1],"split_conditions":[8.5628253E-1,6.2234753E-1,1.444362E-1,-5.940032E-2,1.2529807E-1,4.260774E-1,6.492047E-1,9.94638E-2,5.5391308E-2,1.2074822E-1,-5.682376E-2,7.340663E-1,1.3233775E-1,-3.484757E-2,9.4858386E-2,-5.140647E-2,8.462193E-2,-6.224029E-2,4.072364E-1,-4.6356607E-2,4.881337E-2],"split_indices":[21,11,16,0,0,1,0,20,16,0,0,13,16,0,0,0,0,0,1,0,0],"split_type":[0,0,0,0,0,0,0,0,0,0,0,0,0,0,0,0,0,0,0,0,0],"sum_hessian":[1.2626875E3,4.0864487E2,8.540426E2,2.0029377E1,3.8861548E2,8.3303394E2,2.1008678E1,8.289095E2,4.1244683E0,1.082084E1,1.0187839E1,5.8740973E0,8.230354E2,1.2686254E0,2.8558428E0,4.5314083E0,1.342689E0,8.189258E2,4.1095924E0,2.8757632E0,1.2338293E0],"tree_param":{"num_deleted":"0","num_feature":"22","num_nodes":"21","size_leaf_vector":"1"}},{"base_weights":[-5.5579957E-2,-4.9913865E-1,8.5537386E-1,-5.5451286E-1,1.08587E0,-6.1145574E-2,1.1597441E0,1.8113992E-1,-5.8026505E-1,-4.331152E-2,1.23259954E-1,1.7922644E-1,1.2368156E0,-5.839656E-2,1.2032306E-1,-3.9044464E-1,-6.134998E-1,-5.8206357E-2,1.17791176E-1,-4.220694E-2,1.2488422E0,-5.5311096E-1,9.798678E-1,-6.162968E-2,2.6758619E-2,-3.5831854E-2,1.2568545E0,-6.146991E-2,1.6022032E-2,-3.9891124E-2,1.2200562E-1,-3.8689557E-2,5.0126918E-2,1.2631188E-1,-3.2152005E-2],"categories":[],"categories_nodes":[],"categories_segments":[],"categories_sizes":[],"default_left":[0,0,0,0,0,0,0,0,0,0,0,0,0,0,0,0,0,0,0,0,0,0,0,0,0,0,0,0,0,0,0,0,0,0,0],"id":14,"left_children":[1,3,5,7,9,-1,11,13,15,-1,-1,17,19,-1,-1,21,23,-1,-1,-1,25,27,29,-1,31,-1,33,-1,-1,-1,-1,-1,-1,-1,-1],"loss_changes":[5.0072617E2,7.374365E1,1.81896E2,1.5372208E1,6.8790627E0,0E0,2.520285E1,2.261325E1,4.674011E0,0E0,0E0,2.021528E1,6.7467957E0,0E0,0E0,2.7022621E1,1.2002869E0,0E0,0E0,0E0,4.4390564E0,4.7919006E0,4.7808247E0,0E0,9.464205E-1,0E0,3.455841E0,0E0,0E0,0E0,0E0,0E0,0E0,0E0,0E0],"parents":[2147483647,0,0,1,1,2,2,3,3,4,4,6,6,7,7,8,8,11,11,12,12,15,15,16,16,20,20,21,21,22,22,24,24,26,26],"right_children":[2,4,6,8,10,-1,12,14,16,-1,-1,18,20,-1,-1,22,24,-1,-1,-1,26,28,30,-1,32,-1,34,-1,-1,-1,-1,-1,-1,-1,-1],"split_conditions":[9.910803E-1,8.0746615E-1,9.2522883E-1,1.7633852E-1,9.6573716E-1,-6.1145574E-2,1.0090339E0,6.034574E-1,3.07662E-1,-4.331152E-2,1.23259954E-1,7.160609E-1,6.029948E-1,-5.839656E-2,1.2032306E-1,6.985443E-1,7.9663664E-1,-5.8206357E-2,1.17791176E-1,-4.220694E-2,6.100084E-1,8.675188E-1,6.128153E-1,-6.162968E-2,1.0071309E0,-3.5831854E-2,1.10410236E-1,-6.146991E-2,1.6022032E-2,-3.9891124E-2,1.2200562E-1,-3.8689557E-2,5.0126918E-2,1.2631188E-1,-3.2152005E-2],"split_indices":[21,11,19,9,19,0,15,11,1,0,0,11,6,0,0,11,11,0,0,0,18,10,6,0,17,0,16,0,0,0,0,0,0,0,0],"split_type":[0,0,0,0,0,0,0,0,0,0,0,0,0,0,0,0,0,0,0,0,0,0,0,0,0,0,0,0,0,0,0,0,0,0,0],"sum_hessian":[1.237176E3,8.323452E2,4.0483075E2,8.0487604E2,2.7469168E1,6.93944E1,3.3543637E2,2.701842E1,7.778576E2,2.2477753E0,2.5221392E1,2.468715E1,3.107492E2,1.56968775E1,1.1321542E1,1.17798584E2,6.60059E2,1.4245265E1,1.0441884E1,1.9912807E0,3.0875793E2,1.058319E2,1.1966679E1,6.572254E2,2.8336508E0,1.3147461E0,3.0744318E2,9.754801E1,8.283896E0,1.6773247E0,1.0289354E1,1.6125524E0,1.2210984E0,3.0642676E2,1.0164261E0],"tree_param":{"num_deleted":"0","num_feature":"22","num_nodes":"35","size_leaf_vector":"1"}},{"base_weights":[-3.0397724E-3,1.0806979E0,-5.606602E-1,-5.404429E-1,1.2451853E-1,-2.5333697E-1,-6.2252343E-2,8.200392E-2,-6.086765E-2,-6.0169727E-1,9.1401863E-1,-6.1885573E-2,-8.685279E-2,-5.317675E-2,1.2206685E-1,5.705936E-2,-4.5360696E-2],"categories":[],"categories_nodes":[],"categories_segments":[],"categories_sizes":[],"default_left":[0,0,0,0,0,0,0,0,0,0,0,0,0,0,0,0,0],"id":15,"left_children":[1,3,5,7,-1,9,-1,-1,-1,11,13,-1,15,-1,-1,-1,-1],"loss_changes":[7.7222565E2,1.164364E2,1.5883179E1,4.2762375E0,0E0,5.8729256E1,0E0,0E0,0E0,9.249382E-1,1.5402985E1,0E0,1.400881E0,0E0,0E0,0E0,0E0],"parents":[2147483647,0,0,1,1,2,2,3,3,5,5,9,9,10,10,12,12],"right_children":[2,4,6,8,-1,10,-1,-1,-1,12,14,-1,16,-1,-1,-1,-1],"split_conditions":[8.8443303E-1,9.080562E-1,9.3044126E-1,1.6161942E-1,1.2451853E-1,9.570744E-1,-6.2252343E-2,8.200392E-2,-6.086765E-2,7.2196454E-1,3.6052996E-1,-6.1885573E-2,7.3837036E-1,-5.317675E-2,1.2206685E-1,5.705936E-2,-4.5360696E-2],"split_indices":[19,21,19,12,0,21,0,0,0,13,1,0,11,0,0,0,0],"split_type":[0,0,0,0,0,0,0,0,0,0,0,0,0,0,0,0,0],"sum_hessian":[1.2758519E3,4.3312793E2,8.42724E2,3.9688084E1,3.9343982E2,1.4206606E2,7.0065796E2,1.3692406E0,3.8318844E1,1.09787895E2,3.2278156E1,1.0605146E2,3.736439E0,5.51973E0,2.6758427E1,1.1389519E0,2.597487E0],"tree_param":{"num_deleted":"0","num_feature":"22","num_nodes":"17","size_leaf_vector":"1"}},{"base_weights":[6.956842E-2,6.673518E-1,-5.7043004E-1,-3.2822344E-1,9.7373044E-1,6.063241E-1,-6.068945E-1,9.2562723E-1,-5.496797E-1,-5.890247E-2,1.0330083E0,-5.2181333E-2,1.043657E-1,-2.4578407E-1,-6.1400753E-1,-3.7408836E-2,1.0206066E0,2.8318384E-1,-5.9999967E-1,1.0637046E0,-4.904256E-1,-5.6516707E-2,8.5754916E-2,-3.4350458E-1,-6.1702777E-2,8.1645595E-3,1.0670008E-1,-4.8705652E-2,9.349578E-2,1.2773275E-2,-6.072114E-2,1.0784076E0,-3.587649E-1,1.1563952E-2,-5.7314236E-2,-5.410039E-2,4.8130285E-2,1.0854997E-1,-4.5714226E-2,1.1184879E-2,-4.9580924E-2],"categories":[],"categories_nodes":[],"categories_segments":[],"categories_sizes":[],"default_left":[0,0,0,0,0,0,0,0,0,0,0,0,0,0,0,0,0,0,0,0,0,0,0,0,0,0,0,0,0,0,0,0,0,0,0,0,0,0,0,0,0],"id":16,"left_children":[1,3,5,7,9,11,13,15,17,-1,19,-1,-1,21,23,-1,25,27,29,31,33,-1,-1,35,-1,-1,-1,-1,-1,-1,-1,37,39,-1,-1,-1,-1,-1,-1,-1,-1],"loss_changes":[4.9906808E2,2.0603644E2,2.7403397E1,4.478554E1,4.8406677E1,1.0134305E1,1.4200592E0,3.382574E0,5.875828E0,0E0,2.3785767E1,0E0,0E0,5.235604E0,2.7752686E-1,0E0,9.1137886E-1,4.690682E0,7.5307083E-1,1.059259E1,5.9318185E-1,0E0,0E0,1.705517E0,0E0,0E0,0E0,0E0,0E0,0E0,0E0,5.758667E0,4.2582196E-1,0E0,0E0,0E0,0E0,0E0,0E0,0E0,0E0],"parents":[2147483647,0,0,1,1,2,2,3,3,4,4,5,5,6,6,7,7,8,8,10,10,13,13,14,14,16,16,17,17,18,18,19,19,20,20,23,23,31,31,32,32],"right_children":[2,4,6,8,10,12,14,16,18,-1,20,-1,-1,22,24,-1,26,28,30,32,34,-1,-1,36,-1,-1,-1,-1,-1,-1,-1,38,40,-1,-1,-1,-1,-1,-1,-1,-1],"split_conditions":[1.0095928E0,9.321888E-1,5.586277E-1,5.396917E-2,7.8938156E-1,3.622418E-1,6.100084E-1,8.6506474E-1,9.48856E-1,-5.890247E-2,8.65607E-1,-5.2181333E-2,1.043657E-1,9.3241394E-1,6.029948E-1,-3.7408836E-2,3.7572375E-1,1.1254899E-1,6.089517E-1,7.4488646E-1,9.96423E-1,-5.6516707E-2,8.5754916E-2,1.0082326E0,-6.1702777E-2,8.1645595E-3,1.0670008E-1,-4.8705652E-2,9.349578E-2,1.2773275E-2,-6.072114E-2,9.475673E-1,9.410525E-1,1.1563952E-2,-5.7314236E-2,-5.410039E-2,4.8130285E-2,1.0854997E-1,-4.5714226E-2,1.1184879E-2,-4.9580924E-2],"split_indices":[15,14,18,16,19,0,18,14,15,0,10,0,0,19,6,0,0,16,13,13,15,0,0,17,0,0,0,0,0,0,0,18,14,0,0,0,0,0,0,0,0],"split_type":[0,0,0,0,0,0,0,0,0,0,0,0,0,0,0,0,0,0,0,0,0,0,0,0,0,0,0,0,0,0,0,0,0,0,0,0,0,0,0,0,0],"sum_hessian":[1.3024838E3,6.734306E2,6.290531E2,1.5845639E2,5.1497424E2,1.84371E1,6.1061597E2,2.3308361E1,1.3514803E2,1.849336E1,4.964809E2,5.0966597E0,1.334044E1,1.2482223E1,5.981338E2,1.3871884E0,2.1921171E1,7.436483E0,1.2771155E2,4.869705E2,9.510383E0,1.0058377E1,2.423845E0,7.87133E0,5.9026245E2,1.1620705E0,2.0759102E1,3.5243125E0,3.9121702E0,1.0892076E0,1.2662234E2,4.8222794E2,4.742564E0,1.0943161E0,8.416066E0,6.6282797E0,1.2430503E0,4.8030273E2,1.9252002E0,1.111048E0,3.6315162E0],"tree_param":{"num_deleted":"0","num_feature":"22","num_nodes":"41","size_leaf_vector":"1"}},{"base_weights":[-1.9119134E-2,1.0470306E0,-5.7410115E-1,-5.8174618E-2,1.12518385E-1,3.0863172E-1,-5.9970224E-1,-4.9004176E-1,1.07857645E-1,-6.076209E-1,7.5786537E-1,1.2556049E-2,-5.608737E-2,-6.1106183E-2,-2.0850636E-1,9.226835E-2,9.522914E-3,-5.2384216E-2,7.578223E-2],"categories":[],"categories_nodes":[],"categories_segments":[],"categories_sizes":[],"default_left":[0,0,0,0,0,0,0,0,0,0,0,0,0,0,0,0,0,0,0],"id":17,"left_children":[1,3,5,-1,-1,7,9,11,-1,13,15,-1,-1,-1,17,-1,-1,-1,-1],"loss_changes":[7.2613385E2,5.413501E1,1.8423798E1,0E0,0E0,1.4922314E1,8.89566E0,6.0138226E-1,0E0,9.446411E-1,4.576962E-1,0E0,0E0,0E0,2.8928595E0,0E0,0E0,0E0,0E0],"parents":[2147483647,0,0,1,1,2,2,5,5,6,6,7,7,9,9,10,10,14,14],"right_children":[2,4,6,-1,-1,8,10,12,-1,14,16,-1,-1,-1,18,-1,-1,-1,-1],"split_conditions":[8.5628253E-1,6.2234753E-1,1.1578483E-1,-5.8174618E-2,1.12518385E-1,9.285875E-2,1.9221857E-1,8.080158E-1,1.07857645E-1,9.1710323E-1,3.2101992E-1,1.2556049E-2,-5.608737E-2,-6.1106183E-2,1.159069E-1,9.226835E-2,9.522914E-3,-5.2384216E-2,7.578223E-2],"split_indices":[21,11,20,0,0,16,16,10,0,10,3,0,0,0,16,0,0,0,0],"split_type":[0,0,0,0,0,0,0,0,0,0,0,0,0,0,0,0,0,0,0],"sum_hessian":[1.225196E3,4.1913293E2,8.0606305E2,1.8895325E1,4.002376E2,2.240699E1,7.8365607E2,1.1176746E1,1.1230245E1,7.7966077E2,3.9953327E0,1.0735805E0,1.0103167E1,7.7247E2,7.1907864E0,2.8852406E0,1.1100922E0,5.766836E0,1.42395E0],"tree_param":{"num_deleted":"0","num_feature":"22","num_nodes":"19","size_leaf_vector":"1"}},{"base_weights":[-5.3043623E-2,-4.8671728E-1,7.8042305E-1,-5.423126E-1,9.802039E-1,-6.000796E-2,1.0431149E0,1.7136239E-1,-5.6832165E-1,-4.2016953E-2,1.1066343E-1,1.6915885E-1,1.1085526E0,-5.719921E-2,1.0823518E-1,-3.9156395E-1,-6.051042E-1,-5.700763E-2,1.06215276E-1,-4.1282132E-2,1.1190106E0,-5.410571E-1,8.9999616E-1,-6.0808253E-2,2.8242862E-2,-3.481448E-2,1.1259449E0,-6.042852E-2,2.1729419E-2,-3.992701E-2,1.11333765E-1,-3.776252E-2,4.7993466E-2,1.1314001E-1,-2.5237955E-3],"categories":[],"categories_nodes":[],"categories_segments":[],"categories_sizes":[],"default_left":[0,0,0,0,0,0,0,0,0,0,0,0,0,0,0,0,0,0,0,0,0,0,0,0,0,0,0,0,0,0,0,0,0,0,0],"id":18,"left_children":[1,3,5,7,9,-1,11,13,15,-1,-1,17,19,-1,-1,21,23,-1,-1,-1,25,27,29,-1,31,-1,33,-1,-1,-1,-1,-1,-1,-1,-1],"loss_changes":[4.3405685E2,6.49429E1,1.4967984E2,1.42343445E1,5.6341286E0,0E0,1.9581482E1,1.9274391E1,4.542099E0,0E0,0E0,1.7280153E1,5.5757446E0,0E0,0E0,2.5480661E1,1.161438E0,0E0,0E0,0E0,3.6424255E0,5.724262E0,4.270879E0,0E0,8.769415E-1,0E0,2.0269775E0,0E0,0E0,0E0,0E0,0E0,0E0,0E0,0E0],"parents":[2147483647,0,0,1,1,2,2,3,3,4,4,6,6,7,7,8,8,11,11,12,12,15,15,16,16,20,20,21,21,22,22,24,24,26,26],"right_children":[2,4,6,8,10,-1,12,14,16,-1,-1,18,20,-1,-1,22,24,-1,-1,-1,26,28,30,-1,32,-1,34,-1,-1,-1,-1,-1,-1,-1,-1],"split_conditions":[9.910803E-1,8.0746615E-1,9.2522883E-1,1.7633852E-1,9.6573716E-1,-6.000796E-2,1.0090339E0,6.034574E-1,2.3342101E-1,-4.2016953E-2,1.1066343E-1,7.160609E-1,6.029948E-1,-5.719921E-2,1.0823518E-1,7.080587E-1,7.9663664E-1,-5.700763E-2,1.06215276E-1,-4.1282132E-2,6.100084E-1,8.675188E-1,5.822342E-1,-6.0808253E-2,9.5574975E-1,-3.481448E-2,1.0802048E-1,-6.042852E-2,2.1729419E-2,-3.992701E-2,1.11333765E-1,-3.776252E-2,4.7993466E-2,1.1314001E-1,-2.5237955E-3],"split_indices":[21,11,19,9,19,0,15,11,5,0,0,11,6,0,0,11,11,0,0,0,18,10,6,0,19,0,16,0,0,0,0,0,0,0,0],"split_type":[0,0,0,0,0,0,0,0,0,0,0,0,0,0,0,0,0,0,0,0,0,0,0,0,0,0,0,0,0,0,0,0,0,0,0],"sum_hessian":[1.1988171E3,7.888005E2,4.100167E2,7.6060443E2,2.8196081E1,6.5342636E1,3.4467404E2,2.6548174E1,7.340562E2,2.1424496E0,2.605363E1,2.425955E1,3.204145E2,1.4824066E1,1.1724108E1,1.2844785E2,6.056084E2,1.3470259E1,1.0789291E1,1.9248273E0,3.184897E2,1.1564362E2,1.2804224E1,6.028135E2,2.7948859E0,1.2667308E0,3.1722293E2,1.0693131E2,8.712312E0,1.6830163E0,1.1121208E1,1.5584843E0,1.2364016E0,3.1574387E2,1.4790697E0],"tree_param":{"num_deleted":"0","num_feature":"22","num_nodes":"35","size_leaf_vector":"1"}},{"base_weights":[-2.8991296E-3,9.7837275E-1,-5.484459E-1,-5.2673686E-1,1.1188393E0,-2.435708E-1,-6.1095394E-2,7.61293E-2,-5.9658874E-2,3.7520375E-2,1.1204314E-1,-5.8930314E-1,8.3235246E-1,-6.0708344E-2,-7.593536E-2,-5.1831275E-2,1.0977688E-1,-4.4208437E-2,5.5123117E-2],"categories":[],"categories_nodes":[],"categories_segments":[],"categories_sizes":[],"default_left":[0,0,0,0,0,0,0,0,0,0,0,0,0,0,0,0,0,0,0],"id":19,"left_children":[1,3,5,7,9,11,-1,-1,-1,-1,-1,13,15,-1,17,-1,-1,-1,-1],"loss_changes":[6.643293E2,9.433444E1,1.5050354E1,3.9207401E0,6.0180664E-2,5.1586884E1,0E0,0E0,0E0,0E0,0E0,9.0815353E-1,1.269298E1,0E0,1.3097925E0,0E0,0E0,0E0,0E0],"parents":[2147483647,0,0,1,1,2,2,3,3,4,4,5,5,11,11,12,12,14,14],"right_children":[2,4,6,8,10,12,-1,-1,-1,-1,-1,14,16,-1,18,-1,-1,-1,-1],"split_conditions":[8.8443303E-1,9.080562E-1,9.3044126E-1,1.6161942E-1,7.465572E-1,9.570744E-1,-6.1095394E-2,7.61293E-2,-5.9658874E-2,3.7520375E-2,1.1204314E-1,9.5056844E-1,3.6052996E-1,-6.0708344E-2,3.4463897E-1,-5.1831275E-2,1.0977688E-1,-4.4208437E-2,5.5123117E-2],"split_indices":[19,21,19,12,10,21,0,0,0,0,0,21,1,0,1,0,0,0,0],"split_type":[0,0,0,0,0,0,0,0,0,0,0,0,0,0,0,0,0,0,0],"sum_hessian":[1.23897E3,4.424122E2,7.9655774E2,3.7529613E1,4.048826E2,1.3636269E2,6.6019507E2,1.4213853E0,3.6108227E1,1.3705921E0,4.03512E2,1.0354294E2,3.281974E1,9.9900375E1,3.6425648E0,5.233646E0,2.7586094E1,2.4861958E0,1.1563691E0],"tree_param":{"num_deleted":"0","num_feature":"22","num_nodes":"19","size_leaf_vector":"1"}},{"base_weights":[6.62679E-2,6.202437E-1,-5.58513E-1,-3.170699E-1,8.938092E-1,5.644007E-1,-5.952558E-1,8.500466E-1,-5.3693485E-1,-5.7670046E-2,9.460859E-1,-5.0841242E-2,9.568333E-2,-2.3378494E-1,-6.025133E-1,-3.640492E-2,9.361802E-1,2.6851442E-1,-5.8782816E-1,9.732237E-1,-4.7461674E-1,-5.5214625E-2,7.9424664E-2,-3.2806182E-1,-6.056389E-2,3.9365552E-3,9.820895E-2,-4.731918E-2,8.612578E-2,1.3606391E-2,-5.953739E-2,9.8625046E-1,-3.442018E-1,-5.5910546E-2,1.2167939E-2,-5.276522E-2,4.5734443E-2,9.9260464E-2,-4.411172E-2,-4.828789E-2,1.1637229E-2],"categories":[],"categories_nodes":[],"categories_segments":[],"categories_sizes":[],"default_left":[0,0,0,0,0,0,0,0,0,0,0,0,0,0,0,0,0,0,0,0,0,0,0,0,0,0,0,0,0,0,0,0,0,0,0,0,0,0,0,0,0],"id":20,"left_children":[1,3,5,7,9,11,13,15,17,-1,19,-1,-1,21,23,-1,25,27,29,31,33,-1,-1,35,-1,-1,-1,-1,-1,-1,-1,37,39,-1,-1,-1,-1,-1,-1,-1,-1],"loss_changes":[4.3700983E2,1.7187088E2,2.4820862E1,3.9440334E1,4.038553E1,8.618685E0,1.3679199E0,2.8997078E0,5.423279E0,0E0,1.977179E1,0E0,0E0,4.6781926E0,2.8440857E-1,0E0,9.135895E-1,4.065528E0,7.426567E-1,8.779297E0,5.7484794E-1,0E0,0E0,1.5774412E0,0E0,0E0,0E0,0E0,0E0,0E0,0E0,4.856842E0,4.110896E-1,0E0,0E0,0E0,0E0,0E0,0E0,0E0,0E0],"parents":[2147483647,0,0,1,1,2,2,3,3,4,4,5,5,6,6,7,7,8,8,10,10,13,13,14,14,16,16,17,17,18,18,19,19,20,20,23,23,31,31,32,32],"right_children":[2,4,6,8,10,12,14,16,18,-1,20,-1,-1,22,24,-1,26,28,30,32,34,-1,-1,36,-1,-1,-1,-1,-1,-1,-1,38,40,-1,-1,-1,-1,-1,-1,-1,-1],"split_conditions":[1.0095928E0,9.321888E-1,5.586277E-1,5.396917E-2,7.8938156E-1,3.622418E-1,6.100084E-1,1.8721111E-1,9.48856E-1,-5.7670046E-2,8.65607E-1,-5.0841242E-2,9.568333E-2,9.3241394E-1,6.029948E-1,-3.640492E-2,9.395823E-1,1.1254899E-1,2.6180995E-1,7.4488646E-1,3.09674E-1,-5.5214625E-2,7.9424664E-2,9.650219E-1,-6.056389E-2,3.9365552E-3,9.820895E-2,-4.731918E-2,8.612578E-2,1.3606391E-2,-5.953739E-2,9.475673E-1,3.6392167E-1,-5.5910546E-2,1.2167939E-2,-5.276522E-2,4.5734443E-2,9.9260464E-2,-4.411172E-2,-4.828789E-2,1.1637229E-2],"split_indices":[15,14,18,16,19,0,18,12,15,0,10,0,0,19,6,0,17,16,1,13,20,0,0,19,0,0,0,0,0,0,0,18,1,0,0,0,0,0,0,0,0],"split_type":[0,0,0,0,0,0,0,0,0,0,0,0,0,0,0,0,0,0,0,0,0,0,0,0,0,0,0,0,0,0,0,0,0,0,0,0,0,0,0,0,0],"sum_hessian":[1.260619E3,6.681745E2,5.9244446E2,1.5092009E2,5.1725446E2,1.831612E1,5.7412836E2,2.346957E1,1.27450516E2,1.7412748E1,4.9984167E2,4.826401E0,1.3489719E1,1.195399E1,5.621744E2,1.340996E0,2.2128574E1,7.320388E0,1.20130135E2,4.9078186E2,9.059806E0,9.480862E0,2.4731286E0,7.5233884E0,5.54651E2,1.168085E0,2.096049E1,3.3412004E0,3.9791877E0,1.0635859E0,1.1906654E2,4.8622543E2,4.556442E0,7.9900684E0,1.0697374E0,6.2606E0,1.262788E0,4.8437378E2,1.8516667E0,3.4647813E0,1.0916606E0],"tree_param":{"num_deleted":"0","num_feature":"22","num_nodes":"41","size_leaf_vector":"1"}},{"base_weights":[-1.8263144E-2,9.5771384E-1,-5.631068E-1,-5.702734E-2,1.0259842E-1,2.925303E-1,-5.890673E-1,-4.764819E-1,9.8806664E-2,-5.971873E-1,7.0436573E-1,-5.491796E-2,1.2875778E-2,-6.007237E-2,-1.9706662E-1,8.4494995E-3,8.569845E-2,-5.1119138E-2,7.05984E-2],"categories":[],"categories_nodes":[],"categories_segments":[],"categories_sizes":[],"default_left":[0,0,0,0,0,0,0,0,0,0,0,0,0,0,0,0,0,0,0],"id":21,"left_children":[1,3,5,-1,-1,7,9,11,-1,13,15,-1,-1,-1,17,-1,-1,-1,-1],"loss_changes":[6.2917584E2,4.4804565E1,1.7038345E1,0E0,0E0,1.2787497E1,8.163895E0,5.81573E-1,0E0,9.190979E-1,4.061334E-1,0E0,0E0,0E0,2.6052442E0,0E0,0E0,0E0,0E0],"parents":[2147483647,0,0,1,1,2,2,5,5,6,6,7,7,9,9,10,10,14,14],"right_children":[2,4,6,-1,-1,8,10,12,-1,14,16,-1,-1,-1,18,-1,-1,-1,-1],"split_conditions":[8.5628253E-1,6.2234753E-1,1.1578483E-1,-5.702734E-2,1.0259842E-1,9.285875E-2,1.9221857E-1,8.603458E-1,9.8806664E-2,9.1710323E-1,3.565239E-1,-5.491796E-2,1.2875778E-2,-6.007237E-2,1.159069E-1,8.4494995E-3,8.569845E-2,-5.1119138E-2,7.05984E-2],"split_indices":[21,11,20,0,0,16,16,18,0,10,7,0,0,0,16,0,0,0,0],"split_type":[0,0,0,0,0,0,0,0,0,0,0,0,0,0,0,0,0,0,0],"sum_hessian":[1.1811923E3,4.2289816E2,7.582942E2,1.7772446E1,4.051257E2,2.202721E1,7.3626697E2,1.0610628E1,1.1416583E1,7.3220856E2,4.0584006E0,9.555504E0,1.0551238E0,7.2529675E2,6.911823E0,1.108755E0,2.9496455E0,5.449983E0,1.4618397E0],"tree_param":{"num_deleted":"0","num_feature":"22","num_nodes":"19","size_leaf_vector":"1"}},{"base_weights":[-5.0828625E-2,-4.7541463E-1,7.206461E-1,-5.36565E-1,7.7762246E-1,-5.8961697E-2,9.5246524E-1,1.6291471E-1,-5.632083E-1,-5.094392E-2,1.0193228E-1,1.6050355E-1,1.0095335E0,-5.6071248E-2,9.870919E-2,-3.9694872E-1,-5.9798576E-2,-5.5870384E-2,9.704583E-2,-4.0220894E-2,1.0188408E0,-5.2851105E-1,7.952999E-1,-3.3801615E-2,1.025014E0,-5.9391778E-2,2.0487733E-2,-3.8622886E-2,1.0055082E-1,1.0299033E-1,-2.6371772E-3],"categories":[],"categories_nodes":[],"categories_segments":[],"categories_sizes":[],"default_left":[0,0,0,0,0,0,0,0,0,0,0,0,0,0,0,0,0,0,0,0,0,0,0,0,0,0,0,0,0,0,0],"id":22,"left_children":[1,3,5,7,9,-1,11,13,15,-1,-1,17,19,-1,-1,21,-1,-1,-1,-1,23,25,27,-1,29,-1,-1,-1,-1,-1,-1],"loss_changes":[3.7884686E2,5.757376E1,1.2527818E2,1.335759E1,1.1443743E1,0E0,1.5622894E1,1.6593073E1,3.7286835E0,0E0,0E0,1.4909939E1,4.6878967E0,0E0,0E0,1.949908E1,0E0,0E0,0E0,0E0,3.0581665E0,5.4052143E0,3.4897957E0,0E0,1.6850891E0,0E0,0E0,0E0,0E0,0E0,0E0],"parents":[2147483647,0,0,1,1,2,2,3,3,4,4,6,6,7,7,8,8,11,11,12,12,15,15,20,20,21,21,22,22,24,24],"right_children":[2,4,6,8,10,-1,12,14,16,-1,-1,18,20,-1,-1,22,-1,-1,-1,-1,24,26,28,-1,30,-1,-1,-1,-1,-1,-1],"split_conditions":[9.910803E-1,7.8701115E-1,9.2522883E-1,1.7633852E-1,8.020182E-2,-5.8961697E-2,1.0090339E0,6.034574E-1,2.3342101E-1,-5.094392E-2,1.0193228E-1,7.160609E-1,6.029948E-1,-5.6071248E-2,9.870919E-2,7.080587E-1,-5.9798576E-2,-5.5870384E-2,9.704583E-2,-4.0220894E-2,6.100084E-1,8.675188E-1,5.822342E-1,-3.3801615E-2,1.0802048E-1,-5.9391778E-2,2.0487733E-2,-3.8622886E-2,1.0055082E-1,1.0299033E-1,-2.6371772E-3],"split_indices":[21,11,19,9,20,0,15,11,5,0,0,11,6,0,0,11,0,0,0,0,18,10,6,0,16,0,0,0,0,0,0],"split_type":[0,0,0,0,0,0,0,0,0,0,0,0,0,0,0,0,0,0,0,0,0,0,0,0,0,0,0,0,0,0,0],"sum_hessian":[1.1545358E3,7.449381E2,4.0959766E2,7.108206E2,3.411748E1,6.134225E1,3.482554E2,2.5894163E1,6.8492645E2,5.2189083E0,2.8898575E1,2.3664572E1,3.2459085E2,1.3958382E1,1.19357815E1,1.20633095E2,5.642934E2,1.2698773E1,1.0965797E1,1.849444E0,3.227414E2,1.0914578E2,1.1487315E1,1.2182323E0,3.2152316E2,1.0038333E2,8.762446E0,1.6085713E0,9.878743E0,3.2005524E2,1.4679456E0],"tree_param":{"num_deleted":"0","num_feature":"22","num_nodes":"31","size_leaf_vector":"1"}},{"base_weights":[-2.7418004E-3,8.981282E-1,-5.373119E-1,-5.1393235E-1,1.0210798E0,-2.3470442E-1,-6.0038645E-2,7.097381E-2,-5.854088E-2,3.528738E-2,1.0224777E-1,-5.7775015E-1,7.672001E-1,-5.9637215E-2,-5.7582237E-2,-5.0536174E-2,1.0021772E-1,-4.266377E-2,5.397631E-2],"categories":[],"categories_nodes":[],"categories_segments":[],"categories_sizes":[],"default_left":[0,0,0,0,0,0,0,0,0,0,0,0,0,0,0,0,0,0,0],"id":23,"left_children":[1,3,5,7,9,11,-1,-1,-1,-1,-1,13,15,-1,17,-1,-1,-1,-1],"loss_changes":[5.765926E2,7.79371E1,1.4201126E1,3.5973902E0,2.2644043E-2,4.5553288E1,0E0,0E0,0E0,0E0,0E0,9.182625E-1,1.0645166E1,0E0,1.2236139E0,0E0,0E0,0E0,0E0],"parents":[2147483647,0,0,1,1,2,2,3,3,4,4,5,5,11,11,12,12,14,14],"right_children":[2,4,6,8,10,12,-1,-1,-1,-1,-1,14,16,-1,18,-1,-1,-1,-1],"split_conditions":[8.8443303E-1,9.080562E-1,9.3044126E-1,1.6161942E-1,7.465572E-1,9.570744E-1,-6.0038645E-2,7.097381E-2,-5.854088E-2,3.528738E-2,1.0224777E-1,7.2196454E-1,3.6052996E-1,-5.9637215E-2,9.818474E-1,-5.0536174E-2,1.0021772E-1,-4.266377E-2,5.397631E-2],"split_indices":[19,21,19,12,10,21,0,0,0,0,0,13,1,0,17,0,0,0,0],"split_type":[0,0,0,0,0,0,0,0,0,0,0,0,0,0,0,0,0,0,0],"sum_hessian":[1.195296E3,4.448851E2,7.504109E2,3.537973E1,4.0950537E2,1.3024866E2,6.2016223E2,1.459724E0,3.392001E1,1.383997E0,4.0812137E2,9.734254E1,3.2906116E1,9.3836685E1,3.5058496E0,4.9496555E0,2.7956459E1,2.3436556E0,1.162194E0],"tree_param":{"num_deleted":"0","num_feature":"22","num_nodes":"19","size_leaf_vector":"1"}},{"base_weights":[6.339618E-2,5.8135986E-1,-5.4765296E-1,-3.0695888E-1,8.293945E-1,5.2919585E-1,-5.8463204E-1,7.880765E-1,-5.2515066E-1,-5.6519885E-2,8.7634075E-1,-4.955157E-2,8.864462E-2,-2.2270171E-1,-5.920338E-1,-3.5228617E-2,8.669227E-1,2.5546345E-1,-5.765701E-1,9.007953E-1,-4.594422E-1,-5.3982932E-2,7.3997654E-2,-3.136516E-1,-5.9527207E-2,7.3475116E-3,9.049054E-2,-4.5977008E-2,7.995056E-2,1.3246568E-2,-5.8443554E-2,9.12573E-1,-3.3002388E-1,1.1878173E-2,-5.4531433E-2,4.40423E-2,-5.155458E-2,9.183773E-2,-4.256921E-2,1.2115064E-2,-4.70508E-2],"categories":[],"categories_nodes":[],"categories_segments":[],"categories_sizes":[],"default_left":[0,0,0,0,0,0,0,0,0,0,0,0,0,0,0,0,0,0,0,0,0,0,0,0,0,0,0,0,0,0,0,0,0,0,0,0,0,0,0,0,0],"id":24,"left_children":[1,3,5,7,9,11,13,15,17,-1,19,-1,-1,21,23,-1,25,27,29,31,33,-1,-1,35,-1,-1,-1,-1,-1,-1,-1,37,39,-1,-1,-1,-1,-1,-1,-1,-1],"loss_changes":[3.8438522E2,1.4506856E2,2.2498718E1,3.4864616E1,3.4151215E1,7.4038424E0,1.3126526E0,2.4954042E0,4.997345E0,0E0,1.6672028E1,0E0,0E0,4.1878815E0,2.8909302E-1,0E0,6.2879753E-1,3.5429254E0,7.113533E-1,7.391266E0,5.4194784E-1,0E0,0E0,1.472815E0,0E0,0E0,0E0,0E0,0E0,0E0,0E0,4.156128E0,3.9738345E-1,0E0,0E0,0E0,0E0,0E0,0E0,0E0,0E0],"parents":[2147483647,0,0,1,1,2,2,3,3,4,4,5,5,6,6,7,7,8,8,10,10,13,13,14,14,16,16,17,17,18,18,19,19,20,20,23,23,31,31,32,32],"right_children":[2,4,6,8,10,12,14,16,18,-1,20,-1,-1,22,24,-1,26,28,30,32,34,-1,-1,36,-1,-1,-1,-1,-1,-1,-1,38,40,-1,-1,-1,-1,-1,-1,-1,-1],"split_conditions":[1.0095928E0,9.321888E-1,5.586277E-1,5.396917E-2,7.8938156E-1,3.622418E-1,6.100084E-1,8.6506474E-1,9.48856E-1,-5.6519885E-2,8.65607E-1,-4.955157E-2,8.864462E-2,9.3241394E-1,6.029948E-1,-3.5228617E-2,3.7572375E-1,1.1254899E-1,2.2809558E-1,7.4488646E-1,9.96423E-1,-5.3982932E-2,7.3997654E-2,1.0098728E0,-5.9527207E-2,7.3475116E-3,9.049054E-2,-4.5977008E-2,7.995056E-2,1.3246568E-2,-5.8443554E-2,9.475673E-1,8.16483E-1,1.1878173E-2,-5.4531433E-2,4.40423E-2,-5.155458E-2,9.183773E-2,-4.256921E-2,1.2115064E-2,-4.70508E-2],"split_indices":[15,14,18,16,19,0,18,14,15,0,10,0,0,19,6,0,0,16,9,13,15,0,0,15,0,0,0,0,0,0,0,18,18,0,0,0,0,0,0,0,0],"split_type":[0,0,0,0,0,0,0,0,0,0,0,0,0,0,0,0,0,0,0,0,0,0,0,0,0,0,0,0,0,0,0,0,0,0,0,0,0,0,0,0,0],"sum_hessian":[1.2124766E3,6.5624805E2,5.562286E2,1.4318901E2,5.13059E2,1.8024868E1,5.382037E2,2.33568E1,1.19832214E2,1.6349148E1,4.9670987E2,4.5595493E0,1.3465319E1,1.1409176E1,5.267945E2,1.2862064E0,2.2070593E1,7.1603594E0,1.1267186E2,4.8809976E2,8.610119E0,8.9124565E0,2.496719E0,7.182672E0,5.196118E2,1.1423193E0,2.0928274E1,3.1603959E0,3.9999635E0,1.062367E0,1.1160949E2,4.8372952E2,4.3702383E0,1.0637915E0,7.5463276E0,1.2674168E0,5.915255E0,4.8195297E2,1.7765493E0,1.0703514E0,3.299887E0],"tree_param":{"num_deleted":"0","num_feature":"22","num_nodes":"41","size_leaf_vector":"1"}},{"base_weights":[-1.7500862E-2,8.865144E-1,-5.530498E-1,-5.5963285E-2,9.474223E-2,-5.807205E-1,2.405801E-1,-5.8755714E-1,4.5694804E-1,-5.4633863E-2,9.381339E-2,-8.5729666E-2,-5.9134245E-2,-3.0739725E-2,7.3839575E-2,-4.7533434E-2,7.235077E-2],"categories":[],"categories_nodes":[],"categories_segments":[],"categories_sizes":[],"default_left":[0,0,0,0,0,0,0,0,0,0,0,0,0,0,0,0,0],"id":25,"left_children":[1,3,5,-1,-1,7,9,11,13,-1,-1,15,-1,-1,-1,-1,-1],"loss_changes":[5.49116E2,3.7696625E1,1.5780579E1,0E0,0E0,5.153E0,1.4072539E1,1.2494965E0,1.3174757E0,0E0,0E0,2.3282495E0,0E0,0E0,0E0,0E0,0E0],"parents":[2147483647,0,0,1,1,2,2,5,5,6,6,7,7,8,8,11,11],"right_children":[2,4,6,-1,-1,8,10,12,14,-1,-1,16,-1,-1,-1,-1,-1],"split_conditions":[8.5628253E-1,6.2234753E-1,1.3233775E-1,-5.5963285E-2,9.474223E-2,4.260774E-1,3.2539913E-1,9.94638E-2,5.5391308E-2,-5.4633863E-2,9.381339E-2,7.340663E-1,-5.9134245E-2,-3.0739725E-2,7.3839575E-2,-4.7533434E-2,7.235077E-2],"split_indices":[21,11,16,0,0,1,7,20,16,0,0,13,0,0,0,0,0],"split_type":[0,0,0,0,0,0,0,0,0,0,0,0,0,0,0,0,0],"sum_hessian":[1.1321862E3,4.2095386E2,7.112323E2,1.6681974E1,4.0427188E2,6.875291E2,2.3703138E1,6.8345996E2,4.0691633E0,1.1239972E1,1.2463166E1,5.293849E0,6.7816614E2,1.0702951E0,2.998868E0,3.8519533E0,1.4418957E0],"tree_param":{"num_deleted":"0","num_feature":"22","num_nodes":"17","size_leaf_vector":"1"}},{"base_weights":[-4.8912354E-2,-4.6512598E-1,6.719961E-1,-5.263882E-1,7.2261655E-1,-5.7998527E-2,8.8021374E-1,8.068967E-2,-5.569859E-1,-4.968036E-2,9.394346E-2,-4.2020643E-1,9.0775454E-1,-5.6106914E-2,9.448711E-2,-3.9668158E-1,-5.887823E-2,8.744265E-3,-5.0856825E-2,-1.5658508E-1,9.261254E-1,-5.3042465E-1,7.2197837E-1,-4.842968E-2,5.8110423E-2,-4.394762E-2,9.3873376E-1,-5.8408048E-2,7.1581765E-3,-3.7350174E-2,9.182842E-2,9.436259E-2,-3.0517673E-2],"categories":[],"categories_nodes":[],"categories_segments":[],"categories_sizes":[],"default_left":[0,0,0,0,0,0,0,0,0,0,0,0,0,0,0,0,0,0,0,0,0,0,0,0,0,0,0,0,0,0,0,0,0],"id":26,"left_children":[1,3,5,7,9,-1,11,13,15,-1,-1,17,19,-1,-1,21,-1,-1,-1,23,25,27,29,-1,-1,-1,31,-1,-1,-1,-1,-1,-1],"loss_changes":[3.3238257E2,5.147641E1,1.0621567E2,1.2459732E1,9.684603E0,0E0,1.2847321E1,1.8800283E1,3.0102997E0,0E0,0E0,3.9893687E-1,6.8157654E0,0E0,0E0,1.6601492E1,0E0,0E0,0E0,1.8876306E0,6.1895447E0,3.1880531E0,2.923531E0,0E0,0E0,0E0,2.3129883E0,0E0,0E0,0E0,0E0,0E0,0E0],"parents":[2147483647,0,0,1,1,2,2,3,3,4,4,6,6,7,7,8,8,11,11,12,12,15,15,19,19,20,20,21,21,22,22,26,26],"right_children":[2,4,6,8,10,-1,12,14,16,-1,-1,18,20,-1,-1,22,-1,-1,-1,24,26,28,30,-1,-1,-1,32,-1,-1,-1,-1,-1,-1],"split_conditions":[9.910803E-1,7.8701115E-1,9.2522883E-1,1.9127473E-1,8.020182E-2,-5.7998527E-2,1.0001107E0,6.034574E-1,2.3342101E-1,-4.968036E-2,9.394346E-2,4.9726644E-1,6.128153E-1,-5.6106914E-2,9.448711E-2,7.080587E-1,-5.887823E-2,8.744265E-3,-5.0856825E-2,3.8159567E-1,6.3067985E-1,8.675188E-1,5.822342E-1,-4.842968E-2,5.8110423E-2,-4.394762E-2,3.2517612E-1,-5.8408048E-2,7.1581765E-3,-3.7350174E-2,9.182842E-2,9.436259E-2,-3.0517673E-2],"split_indices":[21,11,19,9,20,0,15,11,5,0,0,0,6,0,0,11,0,0,0,0,18,10,6,0,0,0,20,0,0,0,0,0,0],"split_type":[0,0,0,0,0,0,0,0,0,0,0,0,0,0,0,0,0,0,0,0,0,0,0,0,0,0,0,0,0,0,0,0,0],"sum_hessian":[1.1057084E3,7.012179E2,4.0449054E2,6.6735345E2,3.3864433E1,5.742389E1,3.4706665E2,3.194316E1,6.354103E2,4.9173145E0,2.8947117E1,6.9021773E0,3.401645E2,1.8531809E1,1.341135E1,1.0740327E2,5.28007E2,1.0248269E0,5.877351E0,5.644085E0,3.345204E2,9.640345E1,1.0999818E1,4.145832E0,1.498253E0,2.7505825E0,3.317698E2,8.854166E1,7.8617907E0,1.5344124E0,9.465405E0,3.3071057E2,1.0592353E0],"tree_param":{"num_deleted":"0","num_feature":"22","num_nodes":"33","size_leaf_vector":"1"}},{"base_weights":[-2.5852905E-3,8.337732E-1,-5.2715564E-1,-5.0196487E-1,9.435191E-1,-2.266602E-1,-5.9073944E-2,6.642676E-2,-5.750683E-2,3.323047E-2,9.4478995E-2,-5.6702495E-1,7.1434194E-1,-5.864923E-2,-4.408864E-2,-4.928716E-2,9.2617676E-2,-4.152938E-2,5.3173672E-2],"categories":[],"categories_nodes":[],"categories_segments":[],"categories_sizes":[],"default_left":[0,0,0,0,0,0,0,0,0,0,0,0,0,0,0,0,0,0,0],"id":27,"left_children":[1,3,5,7,9,11,-1,-1,-1,-1,-1,13,15,-1,17,-1,-1,-1,-1],"loss_changes":[5.0382785E2,6.5361755E1,1.3350281E1,3.3028374E0,4.0283203E-3,4.0400146E1,0E0,0E0,0E0,0E0,0E0,9.133816E-1,9.052153E0,0E0,1.1597487E0,0E0,0E0,0E0,0E0],"parents":[2147483647,0,0,1,1,2,2,3,3,4,4,5,5,11,11,12,12,14,14],"right_children":[2,4,6,8,10,12,-1,-1,-1,-1,-1,14,16,-1,18,-1,-1,-1,-1],"split_conditions":[8.8443303E-1,9.080562E-1,9.3044126E-1,1.6161942E-1,7.465572E-1,9.570744E-1,-5.9073944E-2,6.642676E-2,-5.750683E-2,3.323047E-2,9.4478995E-2,9.5056844E-1,3.6052996E-1,-5.864923E-2,3.059985E-1,-4.928716E-2,9.2617676E-2,-4.152938E-2,5.3173672E-2],"split_indices":[19,21,19,12,10,21,0,0,0,0,0,21,1,0,9,0,0,0,0],"split_type":[0,0,0,0,0,0,0,0,0,0,0,0,0,0,0,0,0,0,0],"sum_hessian":[1.146379E3,4.416449E2,7.0473413E2,3.3259808E1,4.0838507E2,1.2387386E2,5.808603E2,1.4848609E0,3.1774946E1,1.3919784E0,4.069931E2,9.1261566E1,3.2612297E1,8.7868935E1,3.39263E0,4.6703E0,2.7941998E1,2.23234E0,1.1602901E0],"tree_param":{"num_deleted":"0","num_feature":"22","num_nodes":"19","size_leaf_vector":"1"}},{"base_weights":[6.0946062E-2,5.4894984E-1,-5.3775775E-1,-2.9764494E-1,7.7669835E-1,4.9912804E-1,-5.749324E-1,7.375092E-1,-5.1423854E-1,-5.5442102E-2,8.19485E-1,-4.830602E-2,8.282331E-2,-2.1251602E-1,-5.8247674E-1,-3.4298845E-2,8.114882E-1,2.4410506E-1,-5.6616163E-1,8.418678E-1,-4.4486323E-1,-5.281303E-2,6.927082E-2,-3.0007976E-1,-5.8583505E-2,2.1824394E-3,8.51206E-2,-4.46739E-2,7.475623E-2,1.403777E-2,-5.7442654E-2,8.526936E-1,-3.1617495E-1,-5.3271778E-2,1.2349778E-2,4.24728E-2,-5.0404996E-2,-2.859409E-2,8.589851E-2,-4.5817897E-2,1.23897195E-2],"categories":[],"categories_nodes":[],"categories_segments":[],"categories_sizes":[],"default_left":[0,0,0,0,0,0,0,0,0,0,0,0,0,0,0,0,0,0,0,0,0,0,0,0,0,0,0,0,0,0,0,0,0,0,0,0,0,0,0,0,0],"id":28,"left_children":[1,3,5,7,9,11,13,15,17,-1,19,-1,-1,21,23,-1,25,27,29,31,33,-1,-1,35,-1,-1,-1,-1,-1,-1,-1,37,39,-1,-1,-1,-1,-1,-1,-1,-1],"loss_changes":[3.3941E2,1.2362062E2,2.0397385E1,3.0957897E1,2.9191467E1,6.410121E0,1.2545929E0,2.197547E0,4.602415E0,0E0,1.4220306E1,0E0,0E0,3.7527804E0,2.920227E-1,0E0,6.955261E-1,3.103925E0,7.0202637E-1,6.300873E0,5.2342224E-1,0E0,0E0,1.374236E0,0E0,0E0,0E0,0E0,0E0,0E0,0E0,3.6620789E0,3.8080472E-1,0E0,0E0,0E0,0E0,0E0,0E0,0E0,0E0],"parents":[2147483647,0,0,1,1,2,2,3,3,4,4,5,5,6,6,7,7,8,8,10,10,13,13,14,14,16,16,17,17,18,18,19,19,20,20,23,23,31,31,32,32],"right_children":[2,4,6,8,10,12,14,16,18,-1,20,-1,-1,22,24,-1,26,28,30,32,34,-1,-1,36,-1,-1,-1,-1,-1,-1,-1,38,40,-1,-1,-1,-1,-1,-1,-1,-1],"split_conditions":[1.0095928E0,9.321888E-1,5.586277E-1,5.396917E-2,7.8938156E-1,3.622418E-1,6.100084E-1,1.8721111E-1,9.48856E-1,-5.5442102E-2,8.65607E-1,-4.830602E-2,8.282331E-2,9.3241394E-1,6.029948E-1,-3.4298845E-2,1.544953E-1,1.1254899E-1,6.089517E-1,7.4488646E-1,3.09674E-1,-5.281303E-2,6.927082E-2,1.8110065E-1,-5.8583505E-2,2.1824394E-3,8.51206E-2,-4.46739E-2,7.475623E-2,1.403777E-2,-5.7442654E-2,1.517437E-1,3.2720298E-1,-5.3271778E-2,1.2349778E-2,4.24728E-2,-5.0404996E-2,-2.859409E-2,8.589851E-2,-4.5817897E-2,1.23897195E-2],"split_indices":[15,14,18,16,19,0,18,12,15,0,10,0,0,19,6,0,20,16,13,13,20,0,0,12,0,0,0,0,0,0,0,12,7,0,0,0,0,0,0,0,0],"split_type":[0,0,0,0,0,0,0,0,0,0,0,0,0,0,0,0,0,0,0,0,0,0,0,0,0,0,0,0,0,0,0,0,0,0,0,0,0,0,0,0,0],"sum_hessian":[1.1596775E3,6.389512E2,5.207263E2,1.3538528E2,5.0356586E2,1.7592926E1,5.0313336E2,2.3009964E1,1.1237532E2,1.5309845E1,4.88256E2,4.29802E0,1.3294907E1,1.0854811E1,4.9227856E2,1.2414677E0,2.1768497E1,6.963993E0,1.0541133E2,4.800911E2,8.164917E0,8.357478E0,2.4973323E0,6.8473916E0,4.8543115E2,1.1166614E0,2.0651836E1,2.983159E0,3.980834E0,1.0339913E0,1.04377335E2,4.7590585E2,4.1852655E0,7.126109E0,1.0388079E0,1.2660787E0,5.581313E0,2.3709068E0,4.7353494E2,3.1331158E0,1.0521498E0],"tree_param":{"num_deleted":"0","num_feature":"22","num_nodes":"41","size_leaf_vector":"1"}},{"base_weights":[-1.6845878E-2,8.2870686E-1,-5.438691E-1,-5.495252E-2,8.839121E-2,2.687318E-1,-5.7051927E-1,-4.5097008E-1,8.567749E-2,-5.7903093E-1,6.197113E-1,1.26185445E-2,-5.266581E-2,-5.8274187E-2,-1.7688245E-1,7.465234E-2,7.498998E-3,-4.8588555E-2,6.1114635E-2],"categories":[],"categories_nodes":[],"categories_segments":[],"categories_sizes":[],"default_left":[0,0,0,0,0,0,0,0,0,0,0,0,0,0,0,0,0,0,0],"id":29,"left_children":[1,3,5,-1,-1,7,9,11,-1,13,15,-1,-1,-1,17,-1,-1,-1,-1],"loss_changes":[4.8196063E2,3.2082703E1,1.4581451E1,0E0,0E0,9.627788E0,6.897354E0,5.240021E-1,0E0,8.540344E-1,2.9394567E-1,0E0,0E0,0E0,2.0745027E0,0E0,0E0,0E0,0E0],"parents":[2147483647,0,0,1,1,2,2,5,5,6,6,7,7,9,9,10,10,14,14],"right_children":[2,4,6,-1,-1,8,10,12,-1,14,16,-1,-1,-1,18,-1,-1,-1,-1],"split_conditions":[8.5628253E-1,6.2234753E-1,1.1578483E-1,-5.495252E-2,8.839121E-2,9.285875E-2,1.9221857E-1,9.642363E-1,8.567749E-2,9.1710323E-1,3.2101992E-1,1.26185445E-2,-5.266581E-2,-5.8274187E-2,1.159069E-1,7.465234E-2,7.498998E-3,-4.8588555E-2,6.1114635E-2],"split_indices":[21,11,20,0,0,16,16,21,0,10,3,0,0,0,16,0,0,0,0],"split_type":[0,0,0,0,0,0,0,0,0,0,0,0,0,0,0,0,0,0,0],"sum_hessian":[1.079525E3,4.1428165E2,6.6524335E2,1.5610171E1,3.9867148E2,2.0836164E1,6.4440717E2,9.474045E0,1.1362119E1,6.4034143E2,4.0657444E0,1.021032E0,8.453013E0,6.340415E2,6.299922E0,2.9974618E0,1.0682828E0,4.8008294E0,1.4990926E0],"tree_param":{"num_deleted":"0","num_feature":"22","num_nodes":"19","size_leaf_vector":"1"}},{"base_weights":[-4.7283277E-2,-4.5576975E-1,6.313656E-1,-5.170816E-1,6.768149E-1,-5.7110995E-2,8.209174E-1,1.6712645E-2,-5.5159414E-1,-4.8482493E-2,8.745371E-2,-4.086883E-1,8.460632E-1,-5.587555E-2,8.9433335E-2,-3.9629856E-1,-5.803857E-2,8.351136E-3,-4.9768426E-2,-1.5011245E-1,8.6278236E-1,-5.252526E-1,6.4856344E-1,-4.7281943E-2,5.4848123E-2,-4.2765927E-2,8.7431926E-1,-5.748399E-2,8.2403356E-5,-3.6107603E-2,8.4324405E-2,8.788218E-2,-2.9485647E-2],"categories":[],"categories_nodes":[],"categories_segments":[],"categories_sizes":[],"default_left":[0,0,0,0,0,0,0,0,0,0,0,0,0,0,0,0,0,0,0,0,0,0,0,0,0,0,0,0,0,0,0,0,0],"id":30,"left_children":[1,3,5,7,9,-1,11,13,15,-1,-1,17,19,-1,-1,21,-1,-1,-1,23,25,27,29,-1,-1,-1,31,-1,-1,-1,-1,-1,-1],"loss_changes":[2.926852E2,4.611255E1,9.089792E1,1.1536911E1,8.296673E0,0E0,1.0955002E1,2.0181646E1,2.3980255E0,0E0,0E0,3.7231016E-1,5.7352295E0,0E0,0E0,1.3151768E1,0E0,0E0,0E0,1.7038229E0,5.3042145E0,2.222744E0,2.4455605E0,0E0,0E0,0E0,1.9887695E0,0E0,0E0,0E0,0E0,0E0,0E0],"parents":[2147483647,0,0,1,1,2,2,3,3,4,4,6,6,7,7,8,8,11,11,12,12,15,15,19,19,20,20,21,21,22,22,26,26],"right_children":[2,4,6,8,10,-1,12,14,16,-1,-1,18,20,-1,-1,22,-1,-1,-1,24,26,28,30,-1,-1,-1,32,-1,-1,-1,-1,-1,-1],"split_conditions":[9.910803E-1,7.8701115E-1,9.2522883E-1,1.4121182E-1,8.020182E-2,-5.7110995E-2,1.0001107E0,6.1395353E-1,2.3342101E-1,-4.8482493E-2,8.745371E-2,4.9726644E-1,6.128153E-1,-5.587555E-2,8.9433335E-2,7.080587E-1,-5.803857E-2,8.351136E-3,-4.9768426E-2,3.8159567E-1,6.3067985E-1,8.675188E-1,5.822342E-1,-4.7281943E-2,5.4848123E-2,-4.2765927E-2,3.2517612E-1,-5.748399E-2,8.2403356E-5,-3.6107603E-2,8.4324405E-2,8.788218E-2,-2.9485647E-2],"split_indices":[21,11,19,5,20,0,15,11,5,0,0,0,6,0,0,11,0,0,0,0,18,10,6,0,0,0,20,0,0,0,0,0,0],"split_type":[0,0,0,0,0,0,0,0,0,0,0,0,0,0,0,0,0,0,0,0,0,0,0,0,0,0,0,0,0,0,0,0,0],"sum_hessian":[1.053753E3,6.5801483E2,3.957382E2,6.247384E2,3.327643E1,5.361341E1,3.421248E2,3.7970825E1,5.867676E2,4.628925E0,2.8647503E1,6.550672E0,3.3557413E2,2.3152643E1,1.4818183E1,9.4080795E1,4.9268677E2,1.0125123E0,5.53816E0,5.4073973E0,3.3016672E2,8.418786E1,9.892938E0,3.9198523E0,1.487545E0,2.6060073E0,3.275607E2,7.685127E1,7.3365884E0,1.4610462E0,8.431891E0,3.2655148E2,1.0092317E0],"tree_param":{"num_deleted":"0","num_feature":"22","num_nodes":"33","size_leaf_vector":"1"}},{"base_weights":[-2.433901E-3,7.813076E-1,-5.1792806E-1,-4.9075016E-1,8.808336E-2,-2.1955216E-1,-5.8193255E-2,6.239411E-2,-5.654837E-2,-5.5704516E-1,6.699947E-1,-5.7750847E-2,-2.6253438E-2,-4.8077814E-2,8.637076E-2,-4.0067744E-2,5.2314162E-2],"categories":[],"categories_nodes":[],"categories_segments":[],"categories_sizes":[],"default_left":[0,0,0,0,0,0,0,0,0,0,0,0,0,0,0,0,0],"id":31,"left_children":[1,3,5,7,-1,9,-1,-1,-1,11,13,-1,15,-1,-1,-1,-1],"loss_changes":[4.4264337E2,5.5467133E1,1.249382E1,3.0340452E0,0E0,3.5899788E1,0E0,0E0,0E0,9.225826E-1,7.7720575E0,0E0,1.0843742E0,0E0,0E0,0E0,0E0],"parents":[2147483647,0,0,1,1,2,2,3,3,5,5,9,9,10,10,12,12],"right_children":[2,4,6,8,-1,10,-1,-1,-1,12,14,-1,16,-1,-1,-1,-1],"split_conditions":[8.8443303E-1,9.080562E-1,9.3044126E-1,1.6161942E-1,8.808336E-2,9.570744E-1,-5.8193255E-2,6.239411E-2,-5.654837E-2,7.2196454E-1,3.6052996E-1,-5.7750847E-2,1.1578483E-1,-4.8077814E-2,8.637076E-2,-4.0067744E-2,5.2314162E-2],"split_indices":[19,21,19,12,0,21,0,0,0,13,1,0,20,0,0,0,0],"split_type":[0,0,0,0,0,0,0,0,0,0,0,0,0,0,0,0,0],"sum_hessian":[1.0936119E3,4.3370483E2,6.5990704E2,3.118562E1,4.025192E2,1.1733676E2,5.425703E2,1.4977016E0,2.9687918E1,8.533467E1,3.2002087E1,8.208219E1,3.2524774E0,4.3973317E0,2.7604753E1,2.0952291E0,1.1572483E0],"tree_param":{"num_deleted":"0","num_feature":"22","num_nodes":"17","size_leaf_vector":"1"}},{"base_weights":[5.8786537E-2,5.2151746E-1,-5.287376E-1,-2.890742E-1,7.327832E-1,4.732847E-1,-5.660791E-1,6.94696E-1,-5.0408214E-1,-5.4430075E-2,7.7225435E-1,-4.709911E-2,7.795474E-2,-2.0305468E-1,-5.7376635E-1,-3.3102375E-2,7.640135E-1,2.3356885E-1,-5.5645454E-1,7.9314286E-1,-4.2813894E-1,-5.1696498E-2,6.514194E-2,-2.8690505E-1,-5.7725515E-2,6.6304216E-3,7.974183E-2,-4.3405425E-2,7.0247434E-2,1.46630695E-2,-5.6514645E-1,-5.2724283E-2,8.0032384E-1,1.2103654E-2,-5.1653463E-2,-4.9276873E-2,4.0918432E-2,-5.746324E-2,-3.4656763E-2,8.0590196E-2,-4.2277515E-2],"categories":[],"categories_nodes":[],"categories_segments":[],"categories_sizes":[],"default_left":[0,0,0,0,0,0,0,0,0,0,0,0,0,0,0,0,0,0,0,0,0,0,0,0,0,0,0,0,0,0,0,0,0,0,0,0,0,0,0,0,0],"id":32,"left_children":[1,3,5,7,9,11,13,15,17,-1,19,-1,-1,21,23,-1,25,27,29,31,33,-1,-1,35,-1,-1,-1,-1,-1,-1,37,-1,39,-1,-1,-1,-1,-1,-1,-1,-1],"loss_changes":[3.005983E2,1.0612494E2,1.849762E1,2.7548014E1,2.5164886E1,5.586731E0,1.1955414E0,1.9225368E0,4.228924E0,0E0,1.2289581E1,0E0,0E0,3.366961E0,2.9460144E-1,0E0,4.6683598E-1,2.727316E0,6.900883E-1,4.866791E0,4.897504E-1,0E0,0E0,1.2783372E0,0E0,0E0,0E0,0E0,0E0,0E0,4.7855377E-3,0E0,3.5244446E0,0E0,0E0,0E0,0E0,0E0,0E0,0E0,0E0],"parents":[2147483647,0,0,1,1,2,2,3,3,4,4,5,5,6,6,7,7,8,8,10,10,13,13,14,14,16,16,17,17,18,18,19,19,20,20,23,23,30,30,32,32],"right_children":[2,4,6,8,10,12,14,16,18,-1,20,-1,-1,22,24,-1,26,28,30,32,34,-1,-1,36,-1,-1,-1,-1,-1,-1,38,-1,40,-1,-1,-1,-1,-1,-1,-1,-1],"split_conditions":[1.0095928E0,9.321888E-1,5.586277E-1,5.396917E-2,7.8938156E-1,3.622418E-1,6.100084E-1,8.6506474E-1,9.48856E-1,-5.4430075E-2,7.1442294E-1,-4.709911E-2,7.795474E-2,9.3241394E-1,6.029948E-1,-3.3102375E-2,3.7572375E-1,1.1254899E-1,2.6180995E-1,1.517437E-1,4.4641563E-1,-5.1696498E-2,6.514194E-2,5.822342E-1,-5.7725515E-2,6.6304216E-3,7.974183E-2,-4.3405425E-2,7.0247434E-2,1.46630695E-2,4.892111E-1,-5.2724283E-2,9.475673E-1,1.2103654E-2,-5.1653463E-2,-4.9276873E-2,4.0918432E-2,-5.746324E-2,-3.4656763E-2,8.0590196E-2,-4.2277515E-2],"split_indices":[15,14,18,16,19,0,18,14,15,0,11,0,0,19,6,0,0,16,1,12,0,0,0,6,0,0,0,0,0,0,20,0,18,0,0,0,0,0,0,0,0],"split_type":[0,0,0,0,0,0,0,0,0,0,0,0,0,0,0,0,0,0,0,0,0,0,0,0,0,0,0,0,0,0,0,0,0,0,0,0,0,0,0,0,0],"sum_hessian":[1.1036731E3,6.174696E2,4.862035E2,1.2758375E2,4.898859E2,1.704853E1,4.6915494E2,2.248275E1,1.05101E2,1.4303639E1,4.7558224E2,4.043539E0,1.3004992E1,1.0297098E1,4.5885785E2,1.1841981E0,2.1298552E1,6.738022E0,9.8362976E1,4.677815E2,7.800761E0,7.819441E0,2.4776576E0,6.5136614E0,4.5234418E2,1.109514E0,2.0189037E1,2.810617E0,3.9274049E0,1.0073721E0,9.7355606E1,2.1385584E0,4.656429E2,1.0303365E0,6.770425E0,5.252392E0,1.2612693E0,9.174506E1,5.610538E0,4.6386847E2,1.7744377E0],"tree_param":{"num_deleted":"0","num_feature":"22","num_nodes":"41","size_leaf_vector":"1"}},{"base_weights":[-1.6185185E-2,7.811896E-1,-5.354037E-1,-5.40075E-2,8.3194695E-2,-5.638091E-1,2.2503625E-1,-5.70827E-1,4.0811557E-1,-5.256763E-2,8.234718E-2,-5.575015E-2,-5.7498436E-2,-5.360723E-3,6.166578E-2,-4.5054406E-2,6.7149356E-2],"categories":[],"categories_nodes":[],"categories_segments":[],"categories_sizes":[],"default_left":[0,0,0,0,0,0,0,0,0,0,0,0,0,0,0,0,0],"id":33,"left_children":[1,3,5,-1,-1,7,9,11,13,-1,-1,15,-1,-1,-1,-1,-1],"loss_changes":[4.249915E2,2.7598938E1,1.3555466E1,0E0,0E0,4.3226166E0,1.081089E1,1.2435608E0,5.0308114E-1,0E0,0E0,1.9898795E0,0E0,0E0,0E0,0E0,0E0],"parents":[2147483647,0,0,1,1,2,2,5,5,6,6,7,7,8,8,11,11],"right_children":[2,4,6,-1,-1,8,10,12,14,-1,-1,16,-1,-1,-1,-1,-1],"split_conditions":[8.5628253E-1,6.2234753E-1,1.3233775E-1,-5.40075E-2,8.3194695E-2,4.260774E-1,3.2539913E-1,9.94638E-2,1.1254899E-1,-5.256763E-2,8.234718E-2,7.340663E-1,-5.7498436E-2,-5.360723E-3,6.166578E-2,-4.5054406E-2,6.7149356E-2],"split_indices":[21,11,16,0,0,1,7,20,16,0,0,13,0,0,0,0,0],"split_type":[0,0,0,0,0,0,0,0,0,0,0,0,0,0,0,0,0],"sum_hessian":[1.02451E3,4.0383212E2,6.20678E2,1.4582953E1,3.8924915E2,5.985774E2,2.2100592E1,5.94696E2,3.8814015E0,9.856989E0,1.2243603E1,4.87696E0,5.8981903E2,1.4387908E0,2.4426107E0,3.4075844E0,1.4693754E0],"tree_param":{"num_deleted":"0","num_feature":"22","num_nodes":"17","size_leaf_vector":"1"}},{"base_weights":[-4.5862153E-2,-4.472391E-1,5.973571E-1,-5.08567E-1,6.387898E-1,-5.628675E-2,7.718966E-1,1.7137002E-2,-5.433329E-1,-4.7300376E-2,8.212287E-2,-3.9746407E-1,7.951802E-1,-5.4989632E-2,8.365734E-2,-3.862582E-1,-5.7274967E-2,2.4405112E-3,-4.8502203E-2,-1.4538598E-1,8.1068265E-1,-5.2475667E-1,5.435365E-1,-4.6254676E-2,5.1907122E-2,-4.160429E-2,8.213924E-1,-5.666989E-2,-6.944602E-3,-4.1122437E-2,8.0923714E-2,8.2609266E-2,-3.2502815E-2],"categories":[],"categories_nodes":[],"categories_segments":[],"categories_sizes":[],"default_left":[0,0,0,0,0,0,0,0,0,0,0,0,0,0,0,0,0,0,0,0,0,0,0,0,0,0,0,0,0,0,0,0,0],"id":34,"left_children":[1,3,5,7,9,-1,11,13,15,-1,-1,17,19,-1,-1,21,-1,-1,-1,23,25,27,29,-1,-1,-1,31,-1,-1,-1,-1,-1,-1],"loss_changes":[2.5861908E2,4.1403244E1,7.838579E1,1.0689148E1,7.165099E0,0E0,9.437637E0,1.775253E1,2.311493E0,0E0,0E0,2.7805805E-1,4.9123383E0,0E0,0E0,1.1814747E1,0E0,0E0,0E0,1.5423801E0,4.593643E0,1.4584732E0,3.401953E0,0E0,0E0,0E0,1.9990997E0,0E0,0E0,0E0,0E0,0E0,0E0],"parents":[2147483647,0,0,1,1,2,2,3,3,4,4,6,6,7,7,8,8,11,11,12,12,15,15,19,19,20,20,21,21,22,22,26,26],"right_children":[2,4,6,8,10,-1,12,14,16,-1,-1,18,20,-1,-1,22,-1,-1,-1,24,26,28,30,-1,-1,-1,32,-1,-1,-1,-1,-1,-1],"split_conditions":[9.910803E-1,7.8701115E-1,9.2522883E-1,1.4121182E-1,8.020182E-2,-5.628675E-2,1.0001107E0,6.1395353E-1,2.3342101E-1,-4.7300376E-2,8.212287E-2,1.8915592E-1,6.128153E-1,-5.4989632E-2,8.365734E-2,6.985443E-1,-5.7274967E-2,2.4405112E-3,-4.8502203E-2,3.8159567E-1,6.3067985E-1,8.675188E-1,8.9904493E-1,-4.6254676E-2,5.1907122E-2,-4.160429E-2,1.10410236E-1,-5.666989E-2,-6.944602E-3,-4.1122437E-2,8.0923714E-2,8.2609266E-2,-3.2502815E-2],"split_indices":[21,11,19,5,20,0,15,11,5,0,0,12,6,0,0,11,0,0,0,0,18,10,14,0,0,0,16,0,0,0,0,0,0],"split_type":[0,0,0,0,0,0,0,0,0,0,0,0,0,0,0,0,0,0,0,0,0,0,0,0,0,0,0,0,0,0,0,0,0],"sum_hessian":[9.996917E2,6.1575653E2,3.8393518E2,5.8334674E2,3.240979E1,4.9914093E1,3.340211E2,3.6216366E1,5.471304E2,4.3440733E0,2.8065716E1,6.207242E0,3.2781384E2,2.1599136E1,1.4617229E1,8.8532234E1,4.585981E2,1.1908398E0,5.0164022E0,5.17959E0,3.2263425E2,7.7433655E1,1.1098582E1,3.711756E0,1.4678342E0,2.4647794E0,3.2016946E2,7.067828E1,6.7553735E0,2.2969804E0,8.801601E0,3.1914044E2,1.029031E0],"tree_param":{"num_deleted":"0","num_feature":"22","num_nodes":"33","size_leaf_vector":"1"}},{"base_weights":[-2.3553758E-3,7.3768175E-1,-5.095148E-1,-4.6209547E-1,8.306648E-2,-2.1308504E-1,-5.7390597E-2,6.321013E-2,-5.5854063E-2,-5.478218E-1,6.330399E-1,-5.69188E-2,-1.7269516E-2,-4.6903383E-2,8.123887E-2,-3.897914E-2,5.058549E-2],"categories":[],"categories_nodes":[],"categories_segments":[],"categories_sizes":[],"default_left":[0,0,0,0,0,0,0,0,0,0,0,0,0,0,0,0,0],"id":35,"left_children":[1,3,5,7,-1,9,-1,-1,-1,11,13,-1,15,-1,-1,-1,-1],"loss_changes":[3.904479E2,4.7577164E1,1.1660004E1,3.631843E0,0E0,3.199725E1,0E0,0E0,0E0,9.0392494E-1,6.7339067E0,0E0,1.0062637E0,0E0,0E0,0E0,0E0],"parents":[2147483647,0,0,1,1,2,2,3,3,5,5,9,9,10,10,12,12],"right_children":[2,4,6,8,-1,10,-1,-1,-1,12,14,-1,16,-1,-1,-1,-1],"split_conditions":[8.8443303E-1,9.1571844E-1,9.3044126E-1,1.675609E-1,8.306648E-2,9.570744E-1,-5.7390597E-2,6.321013E-2,-5.5854063E-2,9.5056844E-1,3.6052996E-1,-5.69188E-2,3.0937824E-1,-4.6903383E-2,8.123887E-2,-3.897914E-2,5.058549E-2],"split_indices":[19,21,19,12,0,21,0,0,0,21,1,0,7,0,0,0,0],"split_type":[0,0,0,0,0,0,0,0,0,0,0,0,0,0,0,0,0],"sum_hessian":[1.0383142E3,4.2203476E2,6.162794E2,3.0069736E1,3.9196503E2,1.1074859E2,5.055308E2,1.9858401E0,2.8083897E1,7.96075E1,3.1141094E1,7.645569E1,3.1518128E0,4.132465E0,2.7008629E1,1.9897623E0,1.1620506E0],"tree_param":{"num_deleted":"0","num_feature":"22","num_nodes":"17","size_leaf_vector":"1"}},{"base_weights":[5.6894362E-2,4.979492E-1,-5.2049285E-1,-2.812196E-1,6.9558513E-1,4.508972E-1,-5.5797976E-1,6.584426E-1,-4.9462685E-1,-5.3473722E-2,7.323499E-1,-4.592071E-2,7.3830515E-2,-1.9421297E-1,-5.658111E-1,-3.2256197E-2,7.25071E-1,2.2436628E-1,-5.4744107E-1,7.5219464E-1,-4.244875E-1,-5.062453E-2,6.1502572E-2,-2.7449307E-1,-5.6943793E-2,1.6769689E-3,7.605603E-2,-4.2166457E-2,6.637422E-2,1.4294452E-2,-5.5655277E-1,7.622568E-1,-3.064151E-1,1.1791943E-2,-5.1373508E-2,-4.8156567E-2,3.895948E-2,-5.665868E-2,-3.316942E-2,7.674774E-2,-4.032516E-2,-4.4568773E-2,1.1784065E-2],"categories":[],"categories_nodes":[],"categories_segments":[],"categories_sizes":[],"default_left":[0,0,0,0,0,0,0,0,0,0,0,0,0,0,0,0,0,0,0,0,0,0,0,0,0,0,0,0,0,0,0,0,0,0,0,0,0,0,0,0,0,0,0],"id":36,"left_children":[1,3,5,7,9,11,13,15,17,-1,19,-1,-1,21,23,-1,25,27,29,31,33,-1,-1,35,-1,-1,-1,-1,-1,-1,37,39,41,-1,-1,-1,-1,-1,-1,-1,-1,-1,-1],"loss_changes":[2.6685135E2,9.166795E1,1.6778275E1,2.4569279E1,2.1836838E1,4.894769E0,1.136261E0,1.7244339E0,3.885685E0,0E0,1.08974E1,0E0,0E0,3.0236502E0,2.95578E-1,0E0,5.317631E-1,2.4059584E0,6.620827E-1,5.062805E0,4.6770728E-1,0E0,0E0,1.1763277E0,0E0,0E0,0E0,0E0,0E0,0E0,1.87397E-2,3.0437927E0,3.4689134E-1,0E0,0E0,0E0,0E0,0E0,0E0,0E0,0E0,0E0,0E0],"parents":[2147483647,0,0,1,1,2,2,3,3,4,4,5,5,6,6,7,7,8,8,10,10,13,13,14,14,16,16,17,17,18,18,19,19,20,20,23,23,30,30,31,31,32,32],"right_children":[2,4,6,8,10,12,14,16,18,-1,20,-1,-1,22,24,-1,26,28,30,32,34,-1,-1,36,-1,-1,-1,-1,-1,-1,38,40,42,-1,-1,-1,-1,-1,-1,-1,-1,-1,-1],"split_conditions":[1.0095928E0,9.321888E-1,5.586277E-1,5.396917E-2,7.8938156E-1,3.622418E-1,6.100084E-1,1.8721111E-1,9.48856E-1,-5.3473722E-2,8.65607E-1,-4.592071E-2,7.3830515E-2,9.3241394E-1,6.029948E-1,-3.2256197E-2,1.544953E-1,1.1254899E-1,6.089517E-1,7.4488646E-1,9.96423E-1,-5.062453E-2,6.1502572E-2,1.0082326E0,-5.6943793E-2,1.6769689E-3,7.605603E-2,-4.2166457E-2,6.637422E-2,1.4294452E-2,4.892111E-1,9.475673E-1,3.2720298E-1,1.1791943E-2,-5.1373508E-2,-4.8156567E-2,3.895948E-2,-5.665868E-2,-3.316942E-2,7.674774E-2,-4.032516E-2,-4.4568773E-2,1.1784065E-2],"split_indices":[15,14,18,16,19,0,18,12,15,0,10,0,0,19,6,0,20,16,13,13,15,0,0,17,0,0,0,0,0,0,20,18,7,0,0,0,0,0,0,0,0,0,0],"split_type":[0,0,0,0,0,0,0,0,0,0,0,0,0,0,0,0,0,0,0,0,0,0,0,0,0,0,0,0,0,0,0,0,0,0,0,0,0,0,0,0,0,0,0],"sum_hessian":[1.0458577E3,5.93008E2,4.528497E2,1.1989714E2,4.7311084E2,1.64168E1,4.364329E2,2.180431E1,9.8092834E1,1.3334385E1,4.5977646E2,3.7966378E0,1.2620161E1,9.741401E0,4.266915E2,1.142436E0,2.0661875E1,6.4901495E0,9.1602684E1,4.523662E2,7.4102545E0,7.3007426E0,2.4406579E0,6.1898813E0,4.2050162E2,1.0561229E0,1.9605751E1,2.6435497E0,3.8465998E0,1.0018939E0,9.0600784E1,4.4838425E2,3.9819803E0,1.0016165E0,6.408638E0,4.9280787E0,1.2618027E0,8.527573E1,5.325063E0,4.467248E2,1.6594365E0,2.9598265E0,1.022154E0],"tree_param":{"num_deleted":"0","num_feature":"22","num_nodes":"43","size_leaf_vector":"1"}},{"base_weights":[-1.5726183E-2,7.4132174E-1,-5.2772087E-1,-5.3105175E-2,7.8849524E-2,2.5211123E-1,-5.550666E-1,-4.2728227E-1,7.668668E-2,-5.639826E-1,5.553623E-1,-5.0467312E-2,6.209348E-3,-5.6786504E-2,-1.5961237E-1,6.653753E-2,6.33071E-3,-4.6202622E-2,5.3751137E-2],"categories":[],"categories_nodes":[],"categories_segments":[],"categories_sizes":[],"default_left":[0,0,0,0,0,0,0,0,0,0,0,0,0,0,0,0,0,0,0],"id":37,"left_children":[1,3,5,-1,-1,7,9,11,-1,13,15,-1,-1,-1,17,-1,-1,-1,-1],"loss_changes":[3.7600095E2,2.3910294E1,1.2480194E1,0E0,0E0,7.4242473E0,5.8514404E0,3.8694286E-1,0E0,7.813263E-1,2.2634947E-1,0E0,0E0,0E0,1.6551249E0,0E0,0E0,0E0,0E0],"parents":[2147483647,0,0,1,1,2,2,5,5,6,6,7,7,9,9,10,10,14,14],"right_children":[2,4,6,-1,-1,8,10,12,-1,14,16,-1,-1,-1,18,-1,-1,-1,-1],"split_conditions":[8.5628253E-1,6.2234753E-1,1.1578483E-1,-5.3105175E-2,7.8849524E-2,9.285875E-2,1.9221857E-1,1.0107266E0,7.668668E-2,9.1710323E-1,6.1612326E-1,-5.0467312E-2,6.209348E-3,-5.6786504E-2,1.159069E-1,6.653753E-2,6.33071E-3,-4.6202622E-2,5.3751137E-2],"split_indices":[21,11,20,0,0,16,16,17,0,10,0,0,0,0,16,0,0,0,0],"split_type":[0,0,0,0,0,0,0,0,0,0,0,0,0,0,0,0,0,0,0],"sum_hessian":[9.680541E2,3.903803E2,5.776738E2,1.3589312E1,3.76791E2,1.9292078E1,5.583817E2,8.389387E0,1.0902691E1,5.544222E2,3.9595454E0,7.2168427E0,1.1725445E0,5.4874927E2,5.6729035E0,2.948162E0,1.0113833E0,4.1917515E0,1.4811518E0],"tree_param":{"num_deleted":"0","num_feature":"22","num_nodes":"19","size_leaf_vector":"1"}},{"base_weights":[-4.4644248E-2,-4.3948802E-1,5.685068E-1,-5.007847E-1,6.061816E-1,-5.552515E-2,7.308205E-1,1.7305784E-2,-5.3576213E-1,-4.6168413E-2,7.7650525E-2,7.5115263E-1,-4.7888476E-2,-5.4160602E-2,7.879136E-2,-3.7698498E-1,-5.65792E-2,-2.199351E-2,7.7437544E-1,-5.151592E-1,5.146438E-1,-4.9502797E-2,6.3282356E-2,1.0181023E-1,7.826606E-1,-5.593084E-2,-6.1636744E-3,-3.989298E-2,7.618549E-2,-3.811443E-2,5.5954177E-2,7.8713454E-2,-8.291477E-3],"categories":[],"categories_nodes":[],"categories_segments":[],"categories_sizes":[],"default_left":[0,0,0,0,0,0,0,0,0,0,0,0,0,0,0,0,0,0,0,0,0,0,0,0,0,0,0,0,0,0,0,0,0],"id":38,"left_children":[1,3,5,7,9,-1,11,13,15,-1,-1,17,-1,-1,-1,19,-1,21,23,25,27,-1,-1,29,31,-1,-1,-1,-1,-1,-1,-1,-1],"loss_changes":[2.2915076E2,3.7203117E1,6.8039154E1,9.873901E0,6.2388515E0,0E0,8.33931E0,1.5671641E1,2.2182465E0,0E0,0E0,5.7527313E0,0E0,0E0,0E0,1.0627094E1,0E0,3.4999788E0,1.6486664E0,1.4336205E0,2.9655862E0,0E0,0E0,1.3017609E0,1.2511902E0,0E0,0E0,0E0,0E0,0E0,0E0,0E0,0E0],"parents":[2147483647,0,0,1,1,2,2,3,3,4,4,6,6,7,7,8,8,11,11,15,15,17,17,18,18,19,19,20,20,23,23,24,24],"right_children":[2,4,6,8,10,-1,12,14,16,-1,-1,18,-1,-1,-1,20,-1,22,24,26,28,-1,-1,30,32,-1,-1,-1,-1,-1,-1,-1,-1],"split_conditions":[9.910803E-1,7.8701115E-1,9.2522883E-1,1.4121182E-1,8.020182E-2,-5.552515E-2,3.2517612E-1,6.1395353E-1,2.3342101E-1,-4.6168413E-2,7.7650525E-2,6.823076E-1,-4.7888476E-2,-5.4160602E-2,7.879136E-2,6.985443E-1,-5.65792E-2,7.2284764E-1,6.128153E-1,8.675188E-1,8.9904493E-1,-4.9502797E-2,6.3282356E-2,3.7572375E-1,1.0802048E-1,-5.593084E-2,-6.1636744E-3,-3.989298E-2,7.618549E-2,-3.811443E-2,5.5954177E-2,7.8713454E-2,-8.291477E-3],"split_indices":[21,11,19,5,20,0,20,11,5,0,0,18,0,0,0,11,0,11,6,10,14,0,0,0,16,0,0,0,0,0,0,0,0],"split_type":[0,0,0,0,0,0,0,0,0,0,0,0,0,0,0,0,0,0,0,0,0,0,0,0,0,0,0,0,0,0,0,0,0],"sum_hessian":[9.4448535E2,5.746913E2,3.6979407E2,5.433608E2,3.1330471E1,4.6365772E1,3.2342828E2,3.4395493E1,5.089653E2,4.074464E0,2.7256008E1,3.1845493E2,4.9733663E0,2.0108343E1,1.4287149E1,8.310683E1,4.258585E2,9.287984E0,3.0916693E2,7.232151E1,1.0785316E1,5.5341673E0,3.7538161E0,3.9239001E0,3.0524304E2,6.569319E1,6.6283116E0,2.166233E0,8.619083E0,1.9907598E0,1.9331404E0,3.0376358E2,1.4794543E0],"tree_param":{"num_deleted":"0","num_feature":"22","num_nodes":"33","size_leaf_vector":"1"}},{"base_weights":[-2.1476408E-3,7.015429E-1,-5.018863E-1,-4.5213014E-1,7.879447E-2,-2.0748891E-1,-5.6658115E-2,5.967949E-2,-5.5013914E-2,-5.39292E-1,6.012639E-1,-5.616487E-2,-4.8655053E-3,-4.576096E-2,7.690396E-2,-3.738525E-2,4.7793612E-2],"categories":[],"categories_nodes":[],"categories_segments":[],"categories_sizes":[],"default_left":[0,0,0,0,0,0,0,0,0,0,0,0,0,0,0,0,0],"id":39,"left_children":[1,3,5,7,-1,9,-1,-1,-1,11,13,-1,15,-1,-1,-1,-1],"loss_changes":[3.4590262E2,4.107161E1,1.0836914E1,3.3193965E0,0E0,2.8554289E1,0E0,0E0,0E0,8.948364E-1,5.8728304E0,0E0,8.957519E-1,0E0,0E0,0E0,0E0],"parents":[2147483647,0,0,1,1,2,2,3,3,5,5,9,9,10,10,12,12],"right_children":[2,4,6,8,-1,10,-1,-1,-1,12,14,-1,16,-1,-1,-1,-1],"split_conditions":[8.8443303E-1,9.1571844E-1,9.3044126E-1,1.675609E-1,7.879447E-2,9.570744E-1,-5.6658115E-2,5.967949E-2,-5.5013914E-2,7.2196454E-1,3.6052996E-1,-5.616487E-2,1.1578483E-1,-4.576096E-2,7.690396E-2,-3.738525E-2,4.7793612E-2],"split_indices":[19,21,19,12,0,21,0,0,0,13,1,0,20,0,0,0,0],"split_type":[0,0,0,0,0,0,0,0,0,0,0,0,0,0,0,0,0],"sum_hessian":[9.81623E2,4.074632E2,5.741597E2,2.8094925E1,3.793683E2,1.0419986E2,4.699599E2,1.9659098E0,2.6129015E1,7.412297E1,3.0076893E1,7.10978E1,3.025171E0,3.8775046E0,2.6199389E1,1.8426012E0,1.18257E0],"tree_param":{"num_deleted":"0","num_feature":"22","num_nodes":"17","size_leaf_vector":"1"}},{"base_weights":[5.5160347E-2,4.7771344E-1,-5.129597E-1,-3.1001088E-1,6.5562594E-1,4.3117228E-1,-5.5056965E-1,5.8467305E-1,-4.8232678E-1,-5.3044643E-2,6.9320107E-1,-4.4770114E-2,7.0286155E-2,-1.8594591E-1,-5.58545E-1,-3.489698E-2,6.8719715E-2,-5.4879713E-1,1.23988144E-1,7.1447617E-1,-4.242044E-1,-4.9587272E-2,5.824796E-2,-2.624763E-1,-5.6231894E-2,9.38264E-3,-5.5928435E-2,7.228347E-2,-4.6394605E-2,-4.4822596E-2,7.2305137E-1,1.0613315E-2,-5.0475746E-2,-4.7092896E-2,3.752828E-2,-5.1694114E-2,7.3014654E-2],"categories":[],"categories_nodes":[],"categories_segments":[],"categories_sizes":[],"default_left":[0,0,0,0,0,0,0,0,0,0,0,0,0,0,0,0,0,0,0,0,0,0,0,0,0,0,0,0,0,0,0,0,0,0,0,0,0],"id":40,"left_children":[1,3,5,7,9,11,13,15,17,-1,19,-1,-1,21,23,-1,-1,25,27,29,31,-1,-1,33,-1,-1,-1,-1,-1,-1,35,-1,-1,-1,-1,-1,-1],"loss_changes":[2.3738069E2,7.966583E1,1.5215561E1,1.6492004E1,2.099559E1,4.3071613E0,1.0770569E0,1.9084635E0,3.6433277E0,0E0,1.0978912E1,0E0,0E0,2.7159617E0,2.9588318E-1,0E0,0E0,5.925083E-1,3.7084398E0,4.721573E0,4.3882215E-1,0E0,0E0,1.09018E0,0E0,0E0,0E0,0E0,0E0,0E0,4.232773E0,0E0,0E0,0E0,0E0,0E0,0E0],"parents":[2147483647,0,0,1,1,2,2,3,3,4,4,5,5,6,6,7,7,8,8,10,10,13,13,14,14,17,17,18,18,19,19,20,20,23,23,30,30],"right_children":[2,4,6,8,10,12,14,16,18,-1,20,-1,-1,22,24,-1,-1,26,28,30,32,-1,-1,34,-1,-1,-1,-1,-1,-1,36,-1,-1,-1,-1,-1,-1],"split_conditions":[1.0095928E0,9.3051153E-1,5.586277E-1,5.396917E-2,7.8938156E-1,3.622418E-1,6.100084E-1,4.7028878E-1,4.892111E-1,-5.3044643E-2,7.1442294E-1,-4.4770114E-2,7.0286155E-2,9.3241394E-1,6.029948E-1,-3.489698E-2,6.8719715E-2,2.4944723E-1,6.8532765E-1,7.4170446E-1,5.456681E-1,-4.9587272E-2,5.824796E-2,9.650219E-1,-5.6231894E-2,9.38264E-3,-5.5928435E-2,7.228347E-2,-4.6394605E-2,-4.4822596E-2,1.517437E-1,1.0613315E-2,-5.0475746E-2,-4.7092896E-2,3.752828E-2,-5.1694114E-2,7.3014654E-2],"split_indices":[15,14,18,16,19,0,18,2,20,0,11,0,0,19,6,0,0,7,0,21,2,0,0,19,0,0,0,0,0,0,12,0,0,0,0,0,0],"split_type":[0,0,0,0,0,0,0,0,0,0,0,0,0,0,0,0,0,0,0,0,0,0,0,0,0,0,0,0,0,0,0,0,0,0,0,0,0],"sum_hessian":[9.868146E2,5.6599854E2,4.2081604E2,1.0414486E2,4.6185367E2,1.5720333E1,4.050957E2,1.6432484E1,8.771237E1,1.3779568E1,4.480741E2,3.5591578E0,1.2161175E1,9.191343E0,3.9590436E2,1.3880776E0,1.5044406E1,7.913199E1,8.580383E0,4.4005612E2,8.017977E0,6.802429E0,2.3889136E0,5.8710012E0,3.9003336E2,1.1430404E0,7.798895E1,4.1370745E0,4.443309E0,2.8463874E0,4.3720975E2,1.0153902E0,7.002587E0,4.62191E0,1.249091E0,2.0786152E0,4.3513113E2],"tree_param":{"num_deleted":"0","num_feature":"22","num_nodes":"37","size_leaf_vector":"1"}},{"base_weights":[-1.5259072E-2,7.0774317E-1,-5.206186E-1,-5.2252688E-2,7.5203545E-2,-5.4963726E-1,2.123027E-1,-5.5689186E-1,3.7097764E-1,-5.0636448E-2,7.38643E-2,-3.156362E-2,-5.614505E-2,5.552844E-2,-5.415461E-3,-4.2752903E-2,6.22114E-2],"categories":[],"categories_nodes":[],"categories_segments":[],"categories_sizes":[],"default_left":[0,0,0,0,0,0,0,0,0,0,0,0,0,0,0,0,0],"id":41,"left_children":[1,3,5,-1,-1,7,9,11,13,-1,-1,15,-1,-1,-1,-1,-1],"loss_changes":[3.3366617E2,2.0866104E1,1.1548248E1,0E0,0E0,3.6614685E0,8.390112E0,1.2123718E0,3.9400643E-1,0E0,0E0,1.6840034E0,0E0,0E0,0E0,0E0,0E0],"parents":[2147483647,0,0,1,1,2,2,5,5,6,6,7,7,8,8,11,11],"right_children":[2,4,6,-1,-1,8,10,12,14,-1,-1,16,-1,-1,-1,-1,-1],"split_conditions":[8.5628253E-1,6.2234753E-1,1.3233775E-1,-5.2252688E-2,7.5203545E-2,4.260774E-1,3.2539913E-1,9.94638E-2,1.07493095E-1,-5.0636448E-2,7.38643E-2,7.340663E-1,-5.614505E-2,5.552844E-2,-5.415461E-3,-4.2752903E-2,6.22114E-2],"split_indices":[21,11,16,0,0,1,7,20,20,0,0,13,0,0,0,0,0],"split_type":[0,0,0,0,0,0,0,0,0,0,0,0,0,0,0,0,0],"sum_hessian":[9.112044E2,3.7471326E2,5.3649115E2,1.26464205E1,3.6206683E2,5.162993E2,2.0191809E1,5.126546E2,3.644711E0,8.55235E0,1.163946E1,4.478543E0,5.0817606E2,2.3289154E0,1.3157954E0,3.0045185E0,1.4740244E0],"tree_param":{"num_deleted":"0","num_feature":"22","num_nodes":"17","size_leaf_vector":"1"}},{"base_weights":[-4.352714E-2,-4.32406E-1,5.4424137E-1,-4.936457E-1,5.7841027E-1,-5.481803E-2,6.9656646E-1,1.746801E-2,-5.288083E-1,-4.5041345E-2,7.3869586E-2,7.1572715E-1,-4.6810757E-2,-5.337456E-2,7.4662544E-2,-3.6822158E-1,-5.5947263E-2,-2.2794537E-2,7.376954E-1,-5.059281E-1,4.8939225E-1,-4.8510183E-2,6.0184747E-2,9.8904245E-2,7.4552023E-1,-5.524856E-2,-5.407247E-3,-3.8687654E-2,7.213173E-2,-3.6970887E-2,5.308503E-2,7.498919E-2,-8.077589E-3],"categories":[],"categories_nodes":[],"categories_segments":[],"categories_sizes":[],"default_left":[0,0,0,0,0,0,0,0,0,0,0,0,0,0,0,0,0,0,0,0,0,0,0,0,0,0,0,0,0,0,0,0,0],"id":42,"left_children":[1,3,5,7,9,-1,11,13,15,-1,-1,17,-1,-1,-1,19,-1,21,23,25,27,-1,-1,29,31,-1,-1,-1,-1,-1,-1,-1,-1],"loss_changes":[2.0362784E2,3.3470367E1,5.9414864E1,9.103157E0,5.458585E0,0E0,7.2928314E0,1.387826E1,2.1254578E0,0E0,0E0,4.9997864E0,0E0,0E0,0E0,9.558339E0,0E0,3.134162E0,1.4172363E0,1.4095497E0,2.5991025E0,0E0,0E0,1.1602924E0,1.124527E0,0E0,0E0,0E0,0E0,0E0,0E0,0E0,0E0],"parents":[2147483647,0,0,1,1,2,2,3,3,4,4,6,6,7,7,8,8,11,11,15,15,17,17,18,18,19,19,20,20,23,23,24,24],"right_children":[2,4,6,8,10,-1,12,14,16,-1,-1,18,-1,-1,-1,20,-1,22,24,26,28,-1,-1,30,32,-1,-1,-1,-1,-1,-1,-1,-1],"split_conditions":[9.910803E-1,7.8701115E-1,9.2522883E-1,1.4121182E-1,8.020182E-2,-5.481803E-2,3.2517612E-1,6.1395353E-1,2.3342101E-1,-4.5041345E-2,7.3869586E-2,6.823076E-1,-4.6810757E-2,-5.337456E-2,7.4662544E-2,6.985443E-1,-5.5947263E-2,7.2284764E-1,6.128153E-1,8.675188E-1,8.9904493E-1,-4.8510183E-2,6.0184747E-2,3.7572375E-1,1.0802048E-1,-5.524856E-2,-5.407247E-3,-3.8687654E-2,7.213173E-2,-3.6970887E-2,5.308503E-2,7.498919E-2,-8.077589E-3],"split_indices":[21,11,19,5,20,0,20,11,5,0,0,18,0,0,0,11,0,11,6,10,14,0,0,0,16,0,0,0,0,0,0,0,0],"split_type":[0,0,0,0,0,0,0,0,0,0,0,0,0,0,0,0,0,0,0,0,0,0,0,0,0,0,0,0,0,0,0,0,0],"sum_hessian":[8.888449E2,5.3508606E2,3.5375882E2,5.0500244E2,3.0083633E1,4.2972996E1,3.1078583E2,3.2538273E1,4.7246417E2,3.811126E0,2.6272507E1,3.0613492E2,4.650927E0,1.8682816E1,1.3855457E1,7.783844E1,3.9462573E2,8.842227E0,2.972927E2,6.742252E1,1.0415918E1,5.2097797E0,3.632447E0,3.7626388E0,2.9353006E2,6.0922585E1,6.4999366E0,2.040041E0,8.375877E0,1.8738292E0,1.8888096E0,2.920772E2,1.4528389E0],"tree_param":{"num_deleted":"0","num_feature":"22","num_nodes":"33","size_leaf_vector":"1"}},{"base_weights":[-1.9846049E-3,6.709008E-1,-4.9488652E-1,-4.4276583E-1,7.519547E-2,-2.020839E-1,-5.5990076E-1,5.6522112E-2,-5.423033E-2,-5.5461943E-2,5.2383924E-1,-3.3822763E-1,-5.6208145E-2,-4.8385337E-2,7.49355E-2,-4.6327654E-2,1.4285477E-2],"categories":[],"categories_nodes":[],"categories_segments":[],"categories_sizes":[],"default_left":[0,0,0,0,0,0,0,0,0,0,0,0,0,0,0,0,0],"id":43,"left_children":[1,3,5,7,-1,9,11,-1,-1,-1,13,15,-1,-1,-1,-1,-1],"loss_changes":[3.072323E2,3.56868E1,1.0065002E1,3.035647E0,0E0,2.5552418E1,2.1118164E-2,0E0,0E0,0E0,7.812361E0,4.7331423E-1,0E0,0E0,0E0,0E0,0E0],"parents":[2147483647,0,0,1,1,2,2,3,3,5,5,6,6,10,10,11,11],"right_children":[2,4,6,8,-1,10,12,-1,-1,-1,14,16,-1,-1,-1,-1,-1],"split_conditions":[8.8443303E-1,9.1571844E-1,9.3044126E-1,1.675609E-1,7.519547E-2,9.5056844E-1,9.339668E-1,5.6522112E-2,-5.423033E-2,-5.5461943E-2,3.1451404E-1,4.0028143E-1,-5.6208145E-2,-4.8385337E-2,7.49355E-2,-4.6327654E-2,1.4285477E-2],"split_indices":[19,21,19,12,0,21,19,0,0,0,9,1,0,0,0,0,0],"split_type":[0,0,0,0,0,0,0,0,0,0,0,0,0,0,0,0,0],"sum_hessian":[9.243279E2,3.9065872E2,5.336692E2,2.6200844E1,3.644579E2,9.7712524E1,4.3595667E2,1.9342963E0,2.4266548E1,6.593028E1,3.178224E1,5.7676344E0,4.3018903E2,5.6025076E0,2.6179733E1,4.6071095E0,1.1605248E0],"tree_param":{"num_deleted":"0","num_feature":"22","num_nodes":"17","size_leaf_vector":"1"}},{"base_weights":[5.362554E-2,4.60032E-1,-5.0604486E-1,-3.0294943E-1,6.287537E-1,4.1370615E-1,-5.437644E-1,5.584381E-1,-4.7411332E-1,-5.2185502E-2,6.643185E-1,-4.3642838E-2,6.721624E-2,-1.7817521E-1,-5.5188525E-1,-3.3677112E-2,6.566306E-2,4.9660742E-2,-5.5254765E-2,6.845424E-1,-4.118654E-1,-4.8580445E-2,5.532862E-2,-2.511091E-1,-5.558138E-2,-4.8176285E-2,7.2737284E-2,-4.348645E-2,6.92755E-1,1.0295298E-2,-4.942379E-2,3.623732E-2,-4.606857E-2,-4.9725715E-2,6.9969945E-2],"categories":[],"categories_nodes":[],"categories_segments":[],"categories_sizes":[],"default_left":[0,0,0,0,0,0,0,0,0,0,0,0,0,0,0,0,0,0,0,0,0,0,0,0,0,0,0,0,0,0,0,0,0,0,0],"id":44,"left_children":[1,3,5,7,9,11,13,15,17,-1,19,-1,-1,21,23,-1,-1,25,-1,27,29,-1,-1,31,-1,-1,-1,-1,33,-1,-1,-1,-1,-1,-1],"loss_changes":[2.1150311E2,6.952887E1,1.379747E1,1.474539E1,1.840982E1,3.8045409E0,1.0186844E0,1.6926298E0,3.415657E0,0E0,9.610657E0,0E0,0E0,2.4408085E0,2.9477692E-1,0E0,0E0,4.5495844E0,0E0,4.172409E0,4.1263366E-1,0E0,0E0,1.0108109E0,0E0,0E0,0E0,0E0,3.805664E0,0E0,0E0,0E0,0E0,0E0,0E0],"parents":[2147483647,0,0,1,1,2,2,3,3,4,4,5,5,6,6,7,7,8,8,10,10,13,13,14,14,17,17,19,19,20,20,23,23,28,28],"right_children":[2,4,6,8,10,12,14,16,18,-1,20,-1,-1,22,24,-1,-1,26,-1,28,30,-1,-1,32,-1,-1,-1,-1,34,-1,-1,-1,-1,-1,-1],"split_conditions":[1.0095928E0,9.3051153E-1,5.586277E-1,5.396917E-2,7.8938156E-1,3.622418E-1,6.100084E-1,4.7028878E-1,6.505414E-1,-5.2185502E-2,7.1442294E-1,-4.3642838E-2,6.721624E-2,9.3241394E-1,6.029948E-1,-3.3677112E-2,6.566306E-2,8.318173E-1,-5.5254765E-2,7.4170446E-1,5.456681E-1,-4.8580445E-2,5.532862E-2,1.8110065E-1,-5.558138E-2,-4.8176285E-2,7.2737284E-2,-4.348645E-2,1.517437E-1,1.0295298E-2,-4.942379E-2,3.623732E-2,-4.606857E-2,-4.9725715E-2,6.9969945E-2],"split_indices":[15,14,18,16,19,0,18,2,11,0,11,0,0,19,6,0,0,19,0,21,2,0,0,12,0,0,0,0,12,0,0,0,0,0,0],"split_type":[0,0,0,0,0,0,0,0,0,0,0,0,0,0,0,0,0,0,0,0,0,0,0,0,0,0,0,0,0,0,0,0,0,0,0],"sum_hessian":[9.278499E2,5.376278E2,3.902221E2,9.721473E1,4.404131E2,1.4980108E1,3.75242E2,1.5740016E1,8.147472E1,1.2794847E1,4.2761823E2,3.3319151E0,1.1648193E1,8.652609E0,3.665894E2,1.315654E0,1.4424362E1,1.0659414E1,7.08153E1,4.2008777E2,7.5304723E0,6.3273654E0,2.3252432E0,5.5634327E0,3.6102597E2,6.1365843E0,4.52283E0,2.6811748E0,4.174066E2,1.0042405E0,6.526232E0,1.2309797E0,4.332453E0,2.0120783E0,4.153945E2],"tree_param":{"num_deleted":"0","num_feature":"22","num_nodes":"35","size_leaf_vector":"1"}},{"base_weights":[-1.4848883E-2,6.7918867E-1,-5.14137E-1,-5.1429864E-2,7.211012E-2,2.393678E-1,-5.4219913E-1,-4.052887E-1,7.01561E-2,-5.5151033E-1,5.026292E-1,6.773627E-3,-4.8540246E-2,-5.5556357E-2,-1.4449115E-1,1.8837405E-2,5.769095E-2,-4.3903347E-2,4.7841977E-2],"categories":[],"categories_nodes":[],"categories_segments":[],"categories_sizes":[],"default_left":[0,0,0,0,0,0,0,0,0,0,0,0,0,0,0,0,0,0,0],"id":45,"left_children":[1,3,5,-1,-1,7,9,11,-1,13,15,-1,-1,-1,17,-1,-1,-1,-1],"loss_changes":[2.968604E2,1.830095E1,1.066478E1,0E0,0E0,5.8211145E0,4.9532013E0,3.5095596E-1,0E0,7.0643616E-1,2.6409626E-3,0E0,0E0,0E0,1.3207097E0,0E0,0E0,0E0,0E0],"parents":[2147483647,0,0,1,1,2,2,5,5,6,6,7,7,9,9,10,10,14,14],"right_children":[2,4,6,-1,-1,8,10,12,-1,14,16,-1,-1,-1,18,-1,-1,-1,-1],"split_conditions":[8.5628253E-1,6.2234753E-1,1.1578483E-1,-5.1429864E-2,7.211012E-2,9.285875E-2,1.9221857E-1,1.0111128E0,7.01561E-2,9.1710323E-1,3.0884692E-1,6.773627E-3,-4.8540246E-2,-5.5556357E-2,1.159069E-1,1.8837405E-2,5.769095E-2,-4.3903347E-2,4.7841977E-2],"split_indices":[21,11,20,0,0,16,16,15,0,10,12,0,0,0,16,0,0,0,0],"split_type":[0,0,0,0,0,0,0,0,0,0,0,0,0,0,0,0,0,0,0],"sum_hessian":[8.5467114E2,3.5744412E2,4.9722702E2,1.1744368E1,3.4569977E2,1.7582552E1,4.7964447E2,7.393452E0,1.0189099E1,4.7587576E2,3.7687097E0,1.0932063E0,6.300246E0,4.708222E2,5.053553E0,1.3965139E0,2.3721957E0,3.6315649E0,1.4219882E0],"tree_param":{"num_deleted":"0","num_feature":"22","num_nodes":"19","size_leaf_vector":"1"}},{"base_weights":[-4.2553965E-2,-4.2590752E-1,5.232874E-1,-4.8706198E-1,5.542273E-1,-5.4160733E-2,6.6726494E-1,1.7696138E-2,-5.2238667E-1,-4.394549E-2,7.063399E-2,6.854751E-1,-4.575748E-2,-5.2624613E-2,7.111737E-2,-3.5997498E-1,-5.5370357E-2,-2.3961056E-2,7.06469E-1,-4.970424E-1,4.6710393E-1,-4.756109E-2,5.7424285E-2,9.60375E-2,7.1393293E-1,-5.4619707E-2,-4.6799183E-3,-3.750245E-2,6.8622135E-2,-3.584697E-2,5.0481427E-2,7.1823955E-2,-7.812138E-3],"categories":[],"categories_nodes":[],"categories_segments":[],"categories_sizes":[],"default_left":[0,0,0,0,0,0,0,0,0,0,0,0,0,0,0,0,0,0,0,0,0,0,0,0,0,0,0,0,0,0,0,0,0],"id":46,"left_children":[1,3,5,7,9,-1,11,13,15,-1,-1,17,-1,-1,-1,19,-1,21,23,25,27,-1,-1,29,31,-1,-1,-1,-1,-1,-1,-1,-1],"loss_changes":[1.8126958E2,3.0125862E1,5.2112495E1,8.378471E0,4.8027697E0,0E0,6.4132996E0,1.2319602E1,2.032074E0,0E0,0E0,4.3873444E0,0E0,0E0,0E0,8.595988E0,0E0,2.8131063E0,1.230133E0,1.3858414E0,2.287873E0,0E0,0E0,1.0353345E0,1.0161133E0,0E0,0E0,0E0,0E0,0E0,0E0,0E0,0E0],"parents":[2147483647,0,0,1,1,2,2,3,3,4,4,6,6,7,7,8,8,11,11,15,15,17,17,18,18,19,19,20,20,23,23,24,24],"right_children":[2,4,6,8,10,-1,12,14,16,-1,-1,18,-1,-1,-1,20,-1,22,24,26,28,-1,-1,30,32,-1,-1,-1,-1,-1,-1,-1,-1],"split_conditions":[9.910803E-1,7.8701115E-1,9.2522883E-1,1.4121182E-1,8.020182E-2,-5.4160733E-2,3.2517612E-1,6.1395353E-1,2.3342101E-1,-4.394549E-2,7.063399E-2,6.823076E-1,-4.575748E-2,-5.2624613E-2,7.111737E-2,6.985443E-1,-5.5370357E-2,7.2284764E-1,6.128153E-1,8.675188E-1,8.9904493E-1,-4.756109E-2,5.7424285E-2,3.7572375E-1,1.0802048E-1,-5.4619707E-2,-4.6799183E-3,-3.750245E-2,6.8622135E-2,-3.584697E-2,5.0481427E-2,7.1823955E-2,-7.812138E-3],"split_indices":[21,11,19,5,20,0,20,11,5,0,0,18,0,0,0,11,0,11,6,10,14,0,0,0,16,0,0,0,0,0,0,0,0],"split_type":[0,0,0,0,0,0,0,0,0,0,0,0,0,0,0,0,0,0,0,0,0,0,0,0,0,0,0,0,0,0,0,0,0],"sum_hessian":[8.3363464E2,4.971001E2,3.3653455E2,4.6837918E2,2.8720938E1,3.9752567E1,2.9678198E2,3.0667488E1,4.377117E2,3.5621324E0,2.5158806E1,2.9243823E2,4.343729E0,1.7321886E1,1.3345601E1,7.277741E1,3.6493427E2,8.40115E0,2.840371E2,6.2773357E1,1.0004057E1,4.903724E0,3.497425E0,3.5985508E0,2.8043854E2,5.6402573E1,6.3707843E0,1.918647E0,8.08541E0,1.7622372E0,1.8363136E0,2.7901465E2,1.423881E0],"tree_param":{"num_deleted":"0","num_feature":"22","num_nodes":"33","size_leaf_vector":"1"}},{"base_weights":[-1.8279596E-3,6.4484066E-1,-4.886202E-1,-4.524216E-1,7.201305E-1,-1.9768356E-1,-5.538055E-1,4.970795E-2,-5.3323638E-2,2.2964574E-2,7.212838E-2,-5.4814845E-2,5.0279194E-1,-3.2439503E-1,-5.5612724E-2,-4.7350343E-2,7.16508E-2,-4.5334443E-2,1.4556562E-2],"categories":[],"categories_nodes":[],"categories_segments":[],"categories_sizes":[],"default_left":[0,0,0,0,0,0,0,0,0,0,0,0,0,0,0,0,0,0,0],"id":47,"left_children":[1,3,5,7,9,11,13,-1,-1,-1,-1,-1,15,17,-1,-1,-1,-1,-1],"loss_changes":[2.7366382E2,3.1170273E1,9.296707E0,2.1517777E0,3.2180786E-2,2.2944477E1,3.5110474E-2,0E0,0E0,0E0,0E0,0E0,6.873158E0,4.5711243E-1,0E0,0E0,0E0,0E0,0E0],"parents":[2147483647,0,0,1,1,2,2,3,3,4,4,5,5,6,6,12,12,13,13],"right_children":[2,4,6,8,10,12,14,-1,-1,-1,-1,-1,16,18,-1,-1,-1,-1,-1],"split_conditions":[8.8443303E-1,9.080562E-1,9.3044126E-1,1.6161942E-1,7.465572E-1,9.5056844E-1,9.339668E-1,4.970795E-2,-5.3323638E-2,2.2964574E-2,7.212838E-2,-5.4814845E-2,3.1451404E-1,3.0902395E-1,-5.5612724E-2,-4.7350343E-2,7.16508E-2,-4.5334443E-2,1.4556562E-2],"split_indices":[19,21,19,12,10,21,19,0,0,0,0,0,9,3,0,0,0,0,0],"split_type":[0,0,0,0,0,0,0,0,0,0,0,0,0,0,0,0,0,0,0],"sum_hessian":[8.673437E2,3.723623E2,4.9498135E2,2.3587833E1,3.4877448E2,